FANN_FLO_2.1
num_layers=12
learning_rate=0.700000
connection_rate=1.000000
network_type=1
learning_momentum=0.000000
training_algorithm=2
train_error_function=0
train_stop_function=0
cascade_output_change_fraction=0.010000
quickprop_decay=-0.000100
quickprop_mu=1.750000
rprop_increase_factor=1.200000
rprop_decrease_factor=0.500000
rprop_delta_min=0.000000
rprop_delta_max=50.000000
rprop_delta_zero=0.100000
cascade_output_stagnation_epochs=12
cascade_candidate_change_fraction=0.010000
cascade_candidate_stagnation_epochs=12
cascade_max_out_epochs=500
cascade_min_out_epochs=50
cascade_max_cand_epochs=500
cascade_min_cand_epochs=50
cascade_num_candidate_groups=2
bit_fail_limit=3.49999994039535520000e-001
cascade_candidate_limit=1.00000000000000000000e+003
cascade_weight_multiplier=4.00000005960464480000e-001
cascade_activation_functions_count=10
cascade_activation_functions=3 5 7 8 10 11 14 15 16 17 
cascade_activation_steepnesses_count=4
cascade_activation_steepnesses=2.50000000000000000000e-001 5.00000000000000000000e-001 7.50000000000000000000e-001 1.00000000000000000000e+000 
layer_sizes=65 1 1 1 1 1 1 1 1 1 1 22 
scale_included=0
neurons (num_inputs, activation_function, activation_steepness)=(0, 0, 0.00000000000000000000e+000) (0, 0, 0.00000000000000000000e+000) (0, 0, 0.00000000000000000000e+000) (0, 0, 0.00000000000000000000e+000) (0, 0, 0.00000000000000000000e+000) (0, 0, 0.00000000000000000000e+000) (0, 0, 0.00000000000000000000e+000) (0, 0, 0.00000000000000000000e+000) (0, 0, 0.00000000000000000000e+000) (0, 0, 0.00000000000000000000e+000) (0, 0, 0.00000000000000000000e+000) (0, 0, 0.00000000000000000000e+000) (0, 0, 0.00000000000000000000e+000) (0, 0, 0.00000000000000000000e+000) (0, 0, 0.00000000000000000000e+000) (0, 0, 0.00000000000000000000e+000) (0, 0, 0.00000000000000000000e+000) (0, 0, 0.00000000000000000000e+000) (0, 0, 0.00000000000000000000e+000) (0, 0, 0.00000000000000000000e+000) (0, 0, 0.00000000000000000000e+000) (0, 0, 0.00000000000000000000e+000) (0, 0, 0.00000000000000000000e+000) (0, 0, 0.00000000000000000000e+000) (0, 0, 0.00000000000000000000e+000) (0, 0, 0.00000000000000000000e+000) (0, 0, 0.00000000000000000000e+000) (0, 0, 0.00000000000000000000e+000) (0, 0, 0.00000000000000000000e+000) (0, 0, 0.00000000000000000000e+000) (0, 0, 0.00000000000000000000e+000) (0, 0, 0.00000000000000000000e+000) (0, 0, 0.00000000000000000000e+000) (0, 0, 0.00000000000000000000e+000) (0, 0, 0.00000000000000000000e+000) (0, 0, 0.00000000000000000000e+000) (0, 0, 0.00000000000000000000e+000) (0, 0, 0.00000000000000000000e+000) (0, 0, 0.00000000000000000000e+000) (0, 0, 0.00000000000000000000e+000) (0, 0, 0.00000000000000000000e+000) (0, 0, 0.00000000000000000000e+000) (0, 0, 0.00000000000000000000e+000) (0, 0, 0.00000000000000000000e+000) (0, 0, 0.00000000000000000000e+000) (0, 0, 0.00000000000000000000e+000) (0, 0, 0.00000000000000000000e+000) (0, 0, 0.00000000000000000000e+000) (0, 0, 0.00000000000000000000e+000) (0, 0, 0.00000000000000000000e+000) (0, 0, 0.00000000000000000000e+000) (0, 0, 0.00000000000000000000e+000) (0, 0, 0.00000000000000000000e+000) (0, 0, 0.00000000000000000000e+000) (0, 0, 0.00000000000000000000e+000) (0, 0, 0.00000000000000000000e+000) (0, 0, 0.00000000000000000000e+000) (0, 0, 0.00000000000000000000e+000) (0, 0, 0.00000000000000000000e+000) (0, 0, 0.00000000000000000000e+000) (0, 0, 0.00000000000000000000e+000) (0, 0, 0.00000000000000000000e+000) (0, 0, 0.00000000000000000000e+000) (0, 0, 0.00000000000000000000e+000) (0, 0, 0.00000000000000000000e+000) (65, 14, 1.00000000000000000000e+000) (66, 8, 7.50000000000000000000e-001) (67, 8, 7.50000000000000000000e-001) (68, 14, 7.50000000000000000000e-001) (69, 15, 5.00000000000000000000e-001) (70, 14, 1.00000000000000000000e+000) (71, 15, 7.50000000000000000000e-001) (72, 8, 5.00000000000000000000e-001) (73, 8, 1.00000000000000000000e+000) (74, 8, 1.00000000000000000000e+000) (75, 5, 5.00000000000000000000e-001) (75, 5, 5.00000000000000000000e-001) (75, 5, 5.00000000000000000000e-001) (75, 5, 5.00000000000000000000e-001) (75, 5, 5.00000000000000000000e-001) (75, 5, 5.00000000000000000000e-001) (75, 5, 5.00000000000000000000e-001) (75, 5, 5.00000000000000000000e-001) (75, 5, 5.00000000000000000000e-001) (75, 5, 5.00000000000000000000e-001) (75, 5, 5.00000000000000000000e-001) (75, 5, 5.00000000000000000000e-001) (75, 5, 5.00000000000000000000e-001) (75, 5, 5.00000000000000000000e-001) (75, 5, 5.00000000000000000000e-001) (75, 5, 5.00000000000000000000e-001) (75, 5, 5.00000000000000000000e-001) (75, 5, 5.00000000000000000000e-001) (75, 5, 5.00000000000000000000e-001) (75, 5, 5.00000000000000000000e-001) (75, 5, 5.00000000000000000000e-001) (75, 5, 5.00000000000000000000e-001) 
connections (connected_to_neuron, weight)=(0, 4.90103155374526980000e-001) (1, 3.00413227081298830000e+000) (2, 2.09971213340759280000e+000) (3, 1.02683353424072270000e+000) (4, 4.33663797378540040000e+000) (5, -8.29878449440002440000e-003) (6, 1.10003340244293210000e+000) (7, -1.81284174323081970000e-001) (8, 1.50728106498718260000e+000) (9, 2.13062906265258790000e+000) (10, -2.71406680345535280000e-001) (11, -1.82359710335731510000e-001) (12, 1.76179122924804690000e+000) (13, 4.12378400564193730000e-001) (14, 1.69856846332550050000e+000) (15, -6.64023101329803470000e-001) (16, 3.88768315315246580000e-001) (17, 1.53573274612426760000e+000) (18, -6.47645831108093260000e-001) (19, 3.24979126453399660000e-001) (20, 3.17684531211853030000e-001) (21, 9.23933148384094240000e-001) (22, 1.18945431709289550000e+000) (23, 8.77067923545837400000e-001) (24, 1.29692387580871580000e+000) (25, 1.22150933742523190000e+000) (26, -6.45997107028961180000e-001) (27, 5.46486556529998780000e-001) (28, -5.68272769451141360000e-001) (29, 8.99552181363105770000e-002) (30, 8.43257725238800050000e-001) (31, -2.63024359941482540000e-001) (32, 3.42095255851745610000e+000) (33, 2.90427231788635250000e+000) (34, -3.39201420545578000000e-001) (35, 2.52017831802368160000e+000) (36, 3.93620157241821290000e+000) (37, 8.04613769054412840000e-001) (38, 1.62545308470726010000e-001) (39, -9.41181898117065430000e-001) (40, 3.04393720626831050000e+000) (41, 9.27524864673614500000e-001) (42, 5.19902825355529790000e-001) (43, 3.67532193660736080000e-001) (44, 2.55495905876159670000e+000) (45, -5.51466584205627440000e-001) (46, 2.10991168022155760000e+000) (47, 1.88079309463500980000e+000) (48, 4.16278094053268430000e-001) (49, 1.75314736366271970000e+000) (50, 5.36159396171569820000e-001) (51, 1.27815687656402590000e+000) (52, 5.60847938060760500000e-001) (53, 1.29264402389526370000e+000) (54, 2.54130911827087400000e+000) (55, 5.21962285041809080000e-001) (56, 2.46826434135437010000e+000) (57, 9.34743821620941160000e-001) (58, -7.80394613742828370000e-001) (59, -3.12873363494873050000e-001) (60, -2.20391368865966800000e+000) (61, -8.20411920547485350000e-001) (62, 4.20655727386474610000e-001) (63, 1.44844388961791990000e+000) (64, -8.07161092758178710000e-001) (0, 3.94466876983642580000e-001) (1, 5.09829342365264890000e-001) (2, -1.98938798904418950000e+000) (3, 2.26437950134277340000e+000) (4, 4.33544188737869260000e-001) (5, 1.43058562278747560000e+000) (6, 1.83629953861236570000e+000) (7, 1.81435093283653260000e-001) (8, -3.18499386310577390000e-001) (9, -1.51227843761444090000e+000) (10, 1.26363301277160640000e+000) (11, 8.12379181385040280000e-001) (12, 3.34506392478942870000e+000) (13, 2.23638224601745610000e+000) (14, 3.48755645751953130000e+000) (15, 8.00208151340484620000e-001) (16, 7.37713575363159180000e-001) (17, 2.20732665061950680000e+000) (18, 4.00054395198822020000e-001) (19, 9.71039414405822750000e-001) (20, 7.39115059375762940000e-001) (21, -1.46735835075378420000e+000) (22, -1.73160776495933530000e-001) (23, 5.63296616077423100000e-001) (24, 2.07341298460960390000e-001) (25, -4.63600730895996090000e+000) (26, 7.90921509265899660000e-001) (27, -1.65188956260681150000e+000) (28, -1.14571070671081540000e+000) (29, -3.56864857673645020000e+000) (30, -1.32399320602416990000e+000) (31, -1.79988813400268550000e+000) (32, 2.59171783924102780000e-001) (33, -1.17909455299377440000e+000) (34, 6.07227861881256100000e-001) (35, -2.49991083145141600000e+000) (36, -5.18055677413940430000e-001) (37, -2.16643691062927250000e+000) (38, 3.74149394035339360000e+000) (39, 3.56941843032836910000e+000) (40, -2.11982035636901860000e+000) (41, 3.44845652580261230000e+000) (42, 1.31060469150543210000e+000) (43, -6.79378271102905270000e-001) (44, 1.57926702499389650000e+000) (45, 2.52388477325439450000e+000) (46, 8.90212476253509520000e-001) (47, -3.36020320653915410000e-001) (48, -8.53576719760894780000e-001) (49, -2.31004953384399410000e-001) (50, -4.30832028388977050000e-001) (51, 7.87902653217315670000e-001) (52, 1.64936792850494380000e+000) (53, -1.91740214824676510000e+000) (54, -1.59246623516082760000e+000) (55, -3.40657687187194820000e+000) (56, -3.50234061479568480000e-001) (57, -2.83308148384094240000e+000) (58, -2.47318267822265630000e-001) (59, 1.64333701133728030000e+000) (60, -3.76328802108764650000e+000) (61, -3.01941132545471190000e+000) (62, 2.21740198135375980000e+000) (63, -9.16077852249145510000e-001) (64, -9.38339233398437500000e-001) (65, 1.17786109447479250000e+000) (0, 1.89652943611145020000e+000) (1, -4.77471977472305300000e-001) (2, -3.31311285495758060000e-001) (3, -7.92762398719787600000e-001) (4, -5.68099617958068850000e-001) (5, 4.08772706985473630000e-001) (6, -3.56907323002815250000e-002) (7, -1.36885285377502440000e+000) (8, 9.63030934333801270000e-001) (9, -4.04564762115478520000e+000) (10, 4.75884318351745610000e-001) (11, -8.07152152061462400000e-001) (12, 1.87710273265838620000e+000) (13, 7.51645803451538090000e-001) (14, -4.47271734476089480000e-001) (15, 5.11611878871917720000e-001) (16, 1.13688933849334720000e+000) (17, 2.61142706871032710000e+000) (18, 2.47563076019287110000e+000) (19, 1.05289614200592040000e+000) (20, 1.48683905601501460000e+000) (21, -4.57166194915771480000e-001) (22, -1.05965638160705570000e+000) (23, -7.83603787422180180000e-001) (24, 7.99579441547393800000e-001) (25, 2.04219961166381840000e+000) (26, 1.58838200569152830000e+000) (27, 3.62405955791473390000e-001) (28, -1.20347344875335690000e+000) (29, -7.75524437427520750000e-001) (30, -3.47647428512573240000e+000) (31, -2.81619012355804440000e-001) (32, -1.58613479137420650000e+000) (33, -5.48508214950561520000e+000) (34, 2.58814978599548340000e+000) (35, -3.72542262077331540000e+000) (36, -8.06514620780944820000e-002) (37, -2.02024888992309570000e+000) (38, 5.09955346584320070000e-001) (39, 6.08112573623657230000e-001) (40, -1.08142745494842530000e+000) (41, -3.73379802703857420000e+000) (42, -1.55644416809082030000e-001) (43, -7.78444945812225340000e-001) (44, 4.34303492307662960000e-001) (45, 2.22327232360839840000e-001) (46, 6.58599138259887700000e-001) (47, -5.07949054241180420000e-001) (48, 2.27065396308898930000e+000) (49, -2.56479740142822270000e-001) (50, 4.42439049482345580000e-001) (51, 1.22760224342346190000e+000) (52, 1.77190542221069340000e+000) (53, -5.02709627151489260000e-001) (54, 2.81212258338928220000e+000) (55, 1.26239061355590820000e+000) (56, 2.71966958045959470000e+000) (57, 1.70274889469146730000e+000) (58, -3.07141351699829100000e+000) (59, 5.36995649337768550000e-001) (60, -4.85867351293563840000e-001) (61, 2.17254710197448730000e+000) (62, 2.21224021911621090000e+000) (63, 2.76570510864257810000e+000) (64, -5.86500287055969240000e-001) (65, 6.36639237403869630000e-001) (66, 3.66840371862053870000e-003) (0, 4.64414072036743160000e+000) (1, -6.84843301773071290000e-001) (2, 6.74935221672058110000e-001) (3, -2.69101953506469730000e+000) (4, 2.79110264778137210000e+000) (5, 1.33005368709564210000e+000) (6, -1.39347374439239500000e-001) (7, -4.57726776599884030000e-001) (8, 2.44180560111999510000e+000) (9, -3.64595222473144530000e+000) (10, -7.78388440608978270000e-001) (11, -1.42600381374359130000e+000) (12, 2.01127600669860840000e+000) (13, 4.83618587255477910000e-001) (14, 1.98814284801483150000e+000) (15, 4.25256061553955080000e+000) (16, 2.55349493026733400000e+000) (17, 5.91267824172973630000e+000) (18, 1.83273422718048100000e+000) (19, 7.40606188774108890000e-001) (20, 2.38046169281005860000e+000) (21, -1.95394366979599000000e-001) (22, -4.43294435739517210000e-001) (23, 1.78290069103240970000e-001) (24, 1.31736540794372560000e+000) (25, 4.50786447525024410000e+000) (26, 1.71196198463439940000e+000) (27, 8.68586540222167970000e-001) (28, 3.27597188949584960000e+000) (29, -1.54521656036376950000e+000) (30, -1.65037524700164790000e+000) (31, -1.20671117305755620000e+000) (32, 2.71005332469940190000e-001) (33, -2.31218433380126950000e+000) (34, 4.62177562713623050000e+000) (35, -7.53456354141235350000e+000) (36, 4.30007547140121460000e-001) (37, -5.44324874877929690000e+000) (38, -6.08869552612304690000e-001) (39, 1.10402798652648930000e+000) (40, 9.92941439151763920000e-001) (41, -2.63021636009216310000e+000) (42, -6.83759093284606930000e-001) (43, -1.09498322010040280000e+000) (44, 1.17394626140594480000e+000) (45, -9.96579468250274660000e-001) (46, 5.29587678611278530000e-002) (47, 1.90298750996589660000e-001) (48, 8.02827000617980960000e-001) (49, 1.02286076545715330000e+000) (50, -1.72958433628082280000e+000) (51, 4.88004505634307860000e-001) (52, 1.45400154590606690000e+000) (53, 8.88548731803894040000e-001) (54, 3.79577302932739260000e+000) (55, -1.87831854820251460000e+000) (56, 3.89599418640136720000e+000) (57, 1.63514822721481320000e-001) (58, -3.76888561248779300000e+000) (59, -5.09770441055297850000e+000) (60, -3.06327176094055180000e+000) (61, 3.38394403457641600000e+000) (62, 1.65676724910736080000e+000) (63, -5.11673577129840850000e-002) (64, -1.86222767829895020000e+000) (65, 5.65798223018646240000e-001) (66, 3.58825385570526120000e-001) (67, 9.26211357116699220000e-001) (0, 1.87752020359039310000e+000) (1, -1.72494614124298100000e+000) (2, -1.76188933849334720000e+000) (3, -3.82641458511352540000e+000) (4, 2.18864274024963380000e+000) (5, 1.69403028488159180000e+000) (6, 2.12645268440246580000e+000) (7, -8.60907256603240970000e-001) (8, 9.83068346977233890000e-001) (9, -3.62935972213745120000e+000) (10, -1.09941399097442630000e+000) (11, -1.70659351348876950000e+000) (12, 2.48065257072448730000e+000) (13, 5.88169395923614500000e-001) (14, 4.57011556625366210000e+000) (15, 2.89894366264343260000e+000) (16, 2.59620547294616700000e+000) (17, 4.17860746383666990000e+000) (18, 2.47901630401611330000e+000) (19, 8.93419802188873290000e-001) (20, 2.21914815902709960000e+000) (21, -7.02747046947479250000e-001) (22, -3.20436525344848630000e+000) (23, -1.05153965950012210000e+000) (24, 3.93255472183227540000e+000) (25, 3.27300977706909180000e+000) (26, 3.08562779426574710000e+000) (27, 1.57069015502929690000e+000) (28, 3.47188210487365720000e+000) (29, -1.00442552566528320000e+000) (30, -4.55065345764160160000e+000) (31, -1.74942135810852050000e+000) (32, -1.38461899757385250000e+000) (33, -1.58972942829132080000e+000) (34, 3.34553647041320800000e+000) (35, -1.02663469314575200000e+001) (36, -2.22445011138916020000e+000) (37, -8.95726013183593750000e+000) (38, -1.67572116851806640000e+000) (39, 1.17885231971740720000e+000) (40, 1.92382478713989260000e+000) (41, -1.35332691669464110000e+000) (42, 6.17432415485382080000e-001) (43, -1.86055874824523930000e+000) (44, 9.05228018760681150000e-001) (45, -1.74978911876678470000e+000) (46, -7.58302390575408940000e-001) (47, 1.47570967674255370000e-001) (48, -1.84786260128021240000e-001) (49, 1.45384088158607480000e-001) (50, -4.34519577026367190000e+000) (51, 5.55463790893554690000e-001) (52, 1.20999121665954590000e+000) (53, 1.47518861293792720000e+000) (54, 2.26745676994323730000e+000) (55, -4.69897413253784180000e+000) (56, 3.34509062767028810000e+000) (57, 1.46159875392913820000e+000) (58, -6.63730192184448240000e+000) (59, -7.80995273590087890000e+000) (60, -5.64635419845581050000e+000) (61, 4.23317813873291020000e+000) (62, 1.69056320190429690000e+000) (63, 1.38394904136657710000e+000) (64, -4.86998707056045530000e-001) (65, 6.89974486827850340000e-001) (66, 3.60368609428405760000e-001) (67, 9.40898716449737550000e-001) (68, 1.91267454624176030000e+000) (0, -1.40641052275896070000e-002) (1, 2.32707977294921870000e+000) (2, -1.85788244009017940000e-001) (3, 2.19441339373588560000e-001) (4, 1.88501524925231930000e+000) (5, 7.11321711540222170000e-001) (6, -3.89034748077392580000e-001) (7, -1.00191497802734370000e+000) (8, 1.50273656845092770000e+000) (9, 1.96133005619049070000e+000) (10, 3.79210376739501950000e+000) (11, 2.11921834945678710000e+000) (12, 4.64013242721557620000e+000) (13, -1.08437669277191160000e+000) (14, -3.42573904991149900000e+000) (15, -2.67121285200119020000e-001) (16, 1.02644002437591550000e+000) (17, -3.65292370319366460000e-001) (18, -6.70274436473846440000e-001) (19, -9.39557135105133060000e-001) (20, 1.12135398387908940000e+000) (21, 2.29423165321350100000e+000) (22, 2.48843073844909670000e+000) (23, 2.29158282279968260000e+000) (24, 1.68502914905548100000e+000) (25, -1.40242481231689450000e+000) (26, -8.71879100799560550000e-001) (27, -1.72403212636709210000e-002) (28, 3.63087391853332520000e+000) (29, 1.93773412704467770000e+000) (30, 1.10365021228790280000e+000) (31, 9.19477283954620360000e-001) (32, 8.04965674877166750000e-001) (33, -1.06892883777618410000e+000) (34, 9.68164980411529540000e-001) (35, -8.10475921630859380000e+000) (36, -3.45821905136108400000e+000) (37, -6.72360181808471680000e+000) (38, 3.42881560325622560000e+000) (39, 5.39268684387207030000e+000) (40, 2.17028069496154790000e+000) (41, 3.93596577644348140000e+000) (42, -1.05534046888351440000e-001) (43, 1.48126101493835450000e+000) (44, 2.01205444335937500000e+000) (45, 1.71991896629333500000e+000) (46, 2.28297066688537600000e+000) (47, -4.87306803464889530000e-001) (48, 3.05765771865844730000e+000) (49, 9.44536030292510990000e-001) (50, -9.50029850006103520000e-001) (51, 1.29537805914878850000e-001) (52, 1.10217654705047610000e+000) (53, 4.17669832706451420000e-001) (54, 2.84908580780029300000e+000) (55, -2.35581469535827640000e+000) (56, 2.71665191650390620000e+000) (57, 2.51291394233703610000e+000) (58, -6.38342201709747310000e-001) (59, -7.04655289649963380000e-001) (60, 3.52766603231430050000e-001) (61, -5.51962137222290040000e+000) (62, 3.71565818786621090000e+000) (63, 1.84262323379516600000e+000) (64, 8.80168676376342770000e-001) (65, 1.07098078727722170000e+000) (66, 7.54757747054100040000e-002) (67, -4.00458388030529020000e-002) (68, 4.83720272779464720000e-001) (69, 7.22015559673309330000e-001) (0, 9.24599617719650270000e-002) (1, -1.23792302608489990000e+000) (2, -6.16599023342132570000e-001) (3, 2.09240362048149110000e-001) (4, 4.78012114763259890000e-002) (5, -1.24290633201599120000e+000) (6, -2.15278267860412600000e+000) (7, -1.48761677742004390000e+000) (8, 7.81119167804718020000e-001) (9, 1.51480889320373540000e+000) (10, -7.89018571376800540000e-001) (11, -5.57152748107910160000e-001) (12, 1.90863892436027530000e-001) (13, 1.97724759578704830000e+000) (14, 5.39170265197753910000e+000) (15, 5.11675071716308590000e+000) (16, 1.85178840160369870000e+000) (17, 6.56988573074340820000e+000) (18, -2.75569379329681400000e-001) (19, 4.03003501892089840000e+000) (20, 4.55118799209594730000e+000) (21, 6.25783801078796390000e-001) (22, 5.24204254150390630000e-001) (23, -1.26138496398925780000e+000) (24, -8.63220512866973880000e-001) (25, 8.01067590713500980000e-001) (26, 1.99133288860321040000e+000) (27, 9.61965739727020260000e-001) (28, 3.96032285690307620000e+000) (29, -4.21188920736312870000e-001) (30, 2.23992776870727540000e+000) (31, -4.65629756450653080000e-001) (32, 1.00327610969543460000e+000) (33, 1.32127118110656740000e+000) (34, -2.00314593315124510000e+000) (35, -6.25440931320190430000e+000) (36, -4.91037797927856450000e+000) (37, -2.95445752143859860000e+000) (38, 4.14858192205429080000e-001) (39, 1.93833208084106450000e+000) (40, 2.28605508804321290000e+000) (41, 3.80104392766952510000e-001) (42, -5.47688603401184080000e-001) (43, 2.73809134960174560000e-002) (44, 7.32073962688446040000e-001) (45, 1.23419332504272460000e+000) (46, 1.47987270355224610000e+000) (47, -2.28934898972511290000e-001) (48, 3.71606767177581790000e-001) (49, 3.47701740264892580000e+000) (50, -2.21739888191223140000e+000) (51, 4.32640314102172850000e+000) (52, 2.75890445709228520000e+000) (53, 1.90469241142272950000e+000) (54, 1.10608613491058350000e+000) (55, -3.13613986968994140000e+000) (56, 2.62464451789855960000e+000) (57, 3.49003434181213380000e-001) (58, -2.32060813903808590000e+000) (59, 9.13517475128173830000e-002) (60, 2.19463491439819340000e+000) (61, 2.21401190757751460000e+000) (62, -2.79300719499588010000e-001) (63, -5.37823259830474850000e-001) (64, -1.27317622303962710000e-001) (65, 3.46874713897705080000e-001) (66, 1.95763006806373600000e-001) (67, 1.16455920040607450000e-001) (68, 6.35768294334411620000e-001) (69, 2.56624072790145870000e-001) (70, -1.52500411495566370000e-002) (0, -9.50844213366508480000e-002) (1, 5.06694555282592770000e+000) (2, -2.43443226814270020000e+000) (3, 1.01523029804229740000e+000) (4, 5.77142775058746340000e-001) (5, 2.51870107650756840000e+000) (6, 5.69759368896484380000e-001) (7, 9.52583998441696170000e-002) (8, -1.08070111274719240000e+000) (9, -6.02902472019195560000e-003) (10, -1.07173132896423340000e+000) (11, 4.09329271316528320000e+000) (12, -1.28854170441627500000e-001) (13, 1.23865437507629390000e+000) (14, -1.13385468721389770000e-001) (15, 5.98294079303741460000e-001) (16, 6.26560628414154050000e-001) (17, -4.86543118953704830000e-001) (18, 2.66971532255411150000e-004) (19, -1.18731284141540530000e+000) (20, -1.60750463604927060000e-001) (21, -6.70457541942596440000e-001) (22, -9.91131782531738280000e-001) (23, -1.72365868091583250000e+000) (24, -3.62248629331588750000e-001) (25, -2.98478543758392330000e-001) (26, 1.06139868497848510000e-001) (27, -2.08981823921203610000e+000) (28, 9.28381800651550290000e-001) (29, 1.21421062946319580000e+000) (30, -1.69407093524932860000e+000) (31, -1.08335006237030030000e+000) (32, -8.98761451244354250000e-001) (33, 1.75556111335754390000e+000) (34, 2.91761493682861330000e+000) (35, -1.28070139884948730000e+000) (36, 1.83482635021209720000e+000) (37, -4.45475339889526370000e+000) (38, 6.03316843509674070000e-001) (39, 3.22143411636352540000e+000) (40, -2.88547110557556150000e+000) (41, -1.53940689563751220000e+000) (42, 1.61026239395141600000e+000) (43, -4.27868700027465820000e+000) (44, 3.45199257135391240000e-001) (45, 1.43365681171417240000e+000) (46, -1.57561755180358890000e+000) (47, 9.52570065855979920000e-002) (48, -5.60360789299011230000e-001) (49, 1.13220834732055660000e+000) (50, 1.87923634052276610000e+000) (51, 3.64703249931335450000e+000) (52, 1.34621763229370120000e+000) (53, -4.56759643554687500000e+000) (54, -1.40456426143646240000e+000) (55, -4.17225980758666990000e+000) (56, 6.69127225875854490000e-001) (57, 2.59295368194580080000e+000) (58, -1.37775182723999020000e+000) (59, 9.13965106010437010000e-001) (60, 2.21628379821777340000e+000) (61, 2.25686788558959960000e+000) (62, -1.38195097446441650000e+000) (63, -1.11298596858978270000e+000) (64, -4.25895377993583680000e-002) (65, 9.92940723896026610000e-001) (66, 2.89190500974655150000e-001) (67, 2.01500296592712400000e+000) (68, 4.61887031793594360000e-001) (69, 6.66350424289703370000e-001) (70, 3.29935163259506230000e-001) (71, 1.78458429872989650000e-002) (0, 1.18313968181610110000e-001) (1, 2.11600184440612790000e+000) (2, 1.01212632656097410000e+000) (3, -8.38494420051574710000e-001) (4, -8.42648983001708980000e-001) (5, -6.50514483451843260000e-001) (6, -7.48180925846099850000e-001) (7, -1.48310792446136470000e+000) (8, 5.13207167387008670000e-002) (9, 1.16402602195739750000e+000) (10, 8.74583959579467770000e-001) (11, 1.61862239241600040000e-001) (12, 7.12906956672668460000e-001) (13, -6.29690885543823240000e-001) (14, 2.67601579427719120000e-001) (15, 1.39723050594329830000e+000) (16, 2.69835768267512320000e-003) (17, 1.37505245208740230000e+000) (18, -4.86853092908859250000e-001) (19, 8.06580603122711180000e-001) (20, 9.54350709915161130000e-001) (21, 1.46942055225372310000e+000) (22, -1.49359572678804400000e-002) (23, 7.69185926765203480000e-003) (24, 2.95771092176437380000e-001) (25, 9.75149348378181460000e-002) (26, -1.39100885391235350000e+000) (27, -1.29496836662292480000e+000) (28, -3.09686005115509030000e-001) (29, 1.44681501388549800000e+000) (30, -6.02368563413620000000e-002) (31, -1.43192625045776370000e+000) (32, -5.95482707023620610000e-001) (33, -6.30877852439880370000e-001) (34, 1.49266266822814940000e+000) (35, -1.33369815349578860000e+000) (36, 1.03718137741088870000e+000) (37, -5.46470165252685550000e-001) (38, -2.52875208854675290000e+000) (39, -4.54002678394317630000e-001) (40, -3.91929864883422850000e-001) (41, -2.11113348603248600000e-001) (42, 1.53763473033905030000e-001) (43, 2.55419731140136720000e-001) (44, -3.67725640535354610000e-001) (45, -1.41056835651397710000e+000) (46, -1.74058067798614500000e+000) (47, 7.36880302429199220000e-001) (48, 9.99063968658447270000e-001) (49, -1.98780083656311040000e+000) (50, 7.95349717140197750000e-001) (51, 2.50672727823257450000e-001) (52, 1.67886757850646970000e+000) (53, 5.50090074539184570000e-001) (54, 2.84533691406250000000e+000) (55, -2.00667753815650940000e-002) (56, 1.19031751155853270000e+000) (57, -1.49804806709289550000e+000) (58, -1.34335482120513920000e+000) (59, -2.00845837593078610000e-001) (60, 1.01769566535949710000e+000) (61, 5.68514131009578700000e-002) (62, -1.06727612018585210000e+000) (63, -3.77813220024108890000e-001) (64, -2.20715269446372990000e-001) (65, 2.50842541456222530000e-001) (66, -2.59136259555816650000e-001) (67, 8.82019102573394780000e-001) (68, 1.99335694313049320000e-001) (69, 1.29109203815460210000e-001) (70, -3.52706722915172580000e-002) (71, 1.81787639856338500000e-001) (72, 3.38742956519126890000e-002) (0, -7.10472106933593750000e-001) (1, 1.64542943239212040000e-002) (2, -1.62210345268249510000e+000) (3, 1.03223693370819090000e+000) (4, -9.50103104114532470000e-002) (5, 1.36002016067504880000e+000) (6, 1.41337883472442630000e+000) (7, -2.15785443782806400000e-001) (8, -7.42065489292144780000e-001) (9, -7.04693138599395750000e-001) (10, 6.04465603828430180000e-001) (11, -4.62680667638778690000e-001) (12, 1.13290719687938690000e-001) (13, -1.43261671066284180000e+000) (14, -1.04285812377929690000e+000) (15, -3.39629745483398440000e+000) (16, 1.83927655220031740000e+000) (17, 7.31661200523376460000e-001) (18, -1.58362138271331790000e+000) (19, -2.87044852972030640000e-001) (20, -3.12945991754531860000e-001) (21, 1.25412797927856450000e+000) (22, 7.85315990447998050000e-001) (23, -3.13943326473236080000e-002) (24, 4.27107304334640500000e-001) (25, -2.46836400032043460000e+000) (26, 9.23475325107574460000e-001) (27, 1.84733605384826660000e+000) (28, 4.31069910526275630000e-001) (29, 6.50579631328582760000e-001) (30, -1.32047510147094730000e+000) (31, -4.33416932821273800000e-001) (32, -4.74536895751953130000e-001) (33, -8.35686266422271730000e-001) (34, -1.61705386638641360000e+000) (35, -1.09665524959564210000e+000) (36, -1.38366484642028810000e+000) (37, -1.68627929687500000000e+000) (38, 1.18308448791503910000e+000) (39, 1.06959164142608640000e+000) (40, 2.09906864166259770000e+000) (41, 1.98016309738159180000e+000) (42, 2.48540386557579040000e-001) (43, -7.35964626073837280000e-002) (44, 1.07346820831298830000e+000) (45, 9.51186418533325200000e-001) (46, 5.27218878269195560000e-001) (47, -2.75655716657638550000e-001) (48, 5.81140100955963130000e-001) (49, 2.04351589083671570000e-001) (50, -1.43603253364562990000e+000) (51, -4.61289346218109130000e-001) (52, 5.55286586284637450000e-001) (53, 3.66971552371978760000e-001) (54, -8.06306600570678710000e-001) (55, -8.33633184432983400000e-001) (56, -2.49747323989868160000e+000) (57, -6.31956100463867190000e-001) (58, -2.80131131410598750000e-001) (59, -5.45139610767364500000e-001) (60, -4.03772026300430300000e-001) (61, 7.23147988319396970000e-001) (62, 3.52812552452087400000e+000) (63, 2.36541819572448730000e+000) (64, -7.07874715328216550000e-001) (65, 1.70599073171615600000e-001) (66, -1.29947468638420100000e-001) (67, -3.24445843696594240000e-001) (68, -2.08440139889717100000e-001) (69, 7.72518098354339600000e-001) (70, -3.17640274763107300000e-001) (71, -1.42685323953628540000e-001) (72, -1.16829477250576020000e-001) (73, -3.02628099918365480000e-001) (0, -5.92365443706512450000e-001) (1, -8.57701450586318970000e-002) (2, 4.11820352077484130000e-001) (3, 7.91999548673629760000e-002) (4, 3.79692763090133670000e-001) (5, -7.58048295974731450000e-002) (6, -1.63439646363258360000e-001) (7, 7.77456387877464290000e-002) (8, 1.35702356696128850000e-001) (9, 5.08552312850952150000e-001) (10, -6.28507971763610840000e-001) (11, -1.00094921886920930000e-001) (12, -1.59360051155090330000e+000) (13, -1.90214842557907100000e-001) (14, 2.72868145257234570000e-002) (15, 4.00663226842880250000e-001) (16, -2.80788183212280270000e-001) (17, 1.68187111616134640000e-001) (18, 2.95314669609069820000e-001) (19, 3.11475187540054320000e-001) (20, 3.03636342287063600000e-001) (21, -9.19116511940956120000e-002) (22, -3.08050185441970830000e-001) (23, -1.52300372719764710000e-001) (24, 7.48133599758148190000e-001) (25, 8.65647137165069580000e-001) (26, -3.22165668010711670000e-001) (27, 5.06167590618133540000e-001) (28, 2.31504455208778380000e-001) (29, 2.38537266850471500000e-001) (30, -1.04175068438053130000e-001) (31, 4.83177020214498040000e-004) (32, -5.14484167098999020000e-001) (33, -1.25262629985809330000e+000) (34, 1.49011209607124330000e-001) (35, -3.18121254444122310000e-001) (36, 4.22440767288208010000e-001) (37, -2.29483544826507570000e-002) (38, -4.72574055194854740000e-001) (39, -2.80161470174789430000e-001) (40, -6.50385975837707520000e-001) (41, -5.09237408638000490000e-001) (42, 1.08601517975330350000e-001) (43, -2.92841166257858280000e-001) (44, -8.45039606094360350000e-001) (45, -3.50291460752487180000e-001) (46, 7.93401002883911130000e-001) (47, 6.18303239345550540000e-001) (48, 1.35540515184402470000e-001) (49, -6.64511442184448240000e-001) (50, -2.26920396089553830000e-001) (51, -4.03205633163452150000e-001) (52, 1.16037644445896150000e-001) (53, 4.06775236129760740000e-001) (54, 8.74192774295806880000e-001) (55, 5.66538572311401370000e-001) (56, -7.45635032653808590000e-002) (57, 5.66425779834389690000e-003) (58, -3.66056531667709350000e-001) (59, -3.93445521593093870000e-001) (60, -1.03456258773803710000e+000) (61, -6.90127551555633540000e-001) (62, 1.89746946096420290000e-001) (63, 7.73772776126861570000e-001) (64, 4.61640298366546630000e-001) (65, -1.74479126930236820000e-001) (66, -1.34498059749603270000e-001) (67, -7.06116259098052980000e-002) (68, 7.50460755079984660000e-003) (69, 4.59725297987461090000e-002) (70, 6.85081584379076960000e-003) (71, 5.70036061108112340000e-002) (72, -1.03650249540805820000e-001) (73, -2.45094322599470620000e-003) (74, 5.15439547598361970000e-002) (0, -7.60330706834793090000e-002) (1, 4.12859022617340090000e-002) (2, -5.59461899101734160000e-002) (3, 2.90851533412933350000e-001) (4, 5.87276041507720950000e-001) (5, -2.60884404182434080000e-001) (6, 4.05266471207141880000e-002) (7, 1.85051605105400090000e-001) (8, 1.11784148216247560000e+000) (9, 2.13409498333930970000e-001) (10, 6.43069982528686520000e-001) (11, 3.57176691293716430000e-001) (12, 1.79885840415954590000e+000) (13, 3.82807344198226930000e-001) (14, 3.23741704225540160000e-001) (15, 1.87805116176605220000e-001) (16, -8.88906940817832950000e-002) (17, -5.22134661674499510000e-001) (18, 4.99887436628341670000e-001) (19, -4.50825318694114690000e-002) (20, 7.73252010345458980000e-001) (21, 7.38699436187744140000e-002) (22, 1.81616887450218200000e-001) (23, 1.79169788956642150000e-001) (24, 1.90425026416778560000e+000) (25, 9.93589535355567930000e-002) (26, 3.05601358413696290000e-001) (27, -4.85301911830902100000e-001) (28, 1.41529262065887450000e+000) (29, 5.64853608608245850000e-001) (30, 5.98428010940551760000e-001) (31, -1.79503336548805240000e-002) (32, 1.15906164050102230000e-001) (33, 1.17750298976898190000e+000) (34, 3.46986562013626100000e-001) (35, -4.85311597585678100000e-001) (36, -1.67959645390510560000e-001) (37, -2.39992246031761170000e-001) (38, -2.33104303479194640000e-001) (39, 1.36764422059059140000e-001) (40, 2.45977923274040220000e-001) (41, 1.05546402931213380000e+000) (42, -1.52556911110877990000e-001) (43, 2.46148630976676940000e-001) (44, -2.83789873123168950000e-001) (45, 2.87815272808074950000e-001) (46, 4.75073903799057010000e-002) (47, -2.23398402333259580000e-001) (48, 3.50302994251251220000e-001) (49, -3.89164201915264130000e-002) (50, 4.79669153690338130000e-001) (51, -5.11334896087646480000e-001) (52, -3.29391956329345700000e-001) (53, 9.45030990988016130000e-003) (54, 1.58371710777282710000e+000) (55, 2.90170252323150630000e-001) (56, 5.18732309341430660000e-001) (57, 1.19829285144805910000e+000) (58, 2.77932345867156980000e-001) (59, 8.18595290184021000000e-001) (60, 1.35858550667762760000e-001) (61, -1.39235639572143550000e+000) (62, -6.24728873372077940000e-002) (63, -2.56620854139328000000e-001) (64, -2.09431099891662600000e+000) (65, 8.22475403547286990000e-002) (66, -5.12492731213569640000e-002) (67, -5.88373607024550440000e-003) (68, 6.06392398476600650000e-002) (69, 4.38794046640396120000e-002) (70, -1.51330575346946720000e-001) (71, 1.54007807374000550000e-001) (72, 1.42475664615631100000e-001) (73, 3.59612405300140380000e-002) (74, 1.18538238108158110000e-001) (0, -4.14082199335098270000e-001) (1, 5.83903908729553220000e-001) (2, 6.65338754653930660000e-001) (3, 1.30581200122833250000e+000) (4, -7.47394621372222900000e-001) (5, -5.19840419292449950000e-001) (6, -6.59132301807403560000e-001) (7, 2.61366754770278930000e-001) (8, -2.75275230407714840000e-001) (9, 1.20341730117797850000e+000) (10, 4.09307658672332760000e-001) (11, 5.77255129814147950000e-001) (12, -6.47765457630157470000e-001) (13, -1.91502615809440610000e-001) (14, -1.44527530670166020000e+000) (15, -8.36503028869628910000e-001) (16, -4.93021756410598750000e-001) (17, -1.17037785053253170000e+000) (18, -6.89480423927307130000e-001) (19, -2.43321374058723450000e-001) (20, -5.08126139640808110000e-001) (21, 3.27753394842147830000e-001) (22, 1.22169077396392820000e+000) (23, 3.98385256528854370000e-001) (24, -1.05409681797027590000e+000) (25, -8.16559731960296630000e-001) (26, -8.52928280830383300000e-001) (27, -4.80065584182739260000e-001) (28, -9.21776890754699710000e-001) (29, 2.90187776088714600000e-001) (30, 1.51501274108886720000e+000) (31, 6.35805606842041020000e-001) (32, 6.42958462238311770000e-001) (33, 4.39183890819549560000e-001) (34, -5.43842673301696780000e-001) (35, 3.03220629692077640000e+000) (36, 1.08948981761932370000e+000) (37, 2.87410306930541990000e+000) (38, 5.33566832542419430000e-001) (39, -4.13574367761611940000e-001) (40, -5.46989917755126950000e-001) (41, 3.32217574119567870000e-001) (42, -2.80097931623458860000e-001) (43, 6.26243352890014650000e-001) (44, -2.92798787355422970000e-001) (45, 5.11949956417083740000e-001) (46, 2.98667043447494510000e-001) (47, -1.22576821595430370000e-002) (48, 9.42025333642959590000e-002) (49, 1.97956468909978870000e-002) (50, 1.37740576267242430000e+000) (51, -1.18853226304054260000e-001) (52, -3.98790478706359860000e-001) (53, -4.12777483463287350000e-001) (54, -6.99568033218383790000e-001) (55, 1.54607558250427250000e+000) (56, -9.21553313732147220000e-001) (57, -4.35572415590286250000e-001) (58, 1.94375669956207280000e+000) (59, 2.76064825057983400000e+000) (60, 1.99813818931579590000e+000) (61, -1.38439655303955080000e+000) (62, -4.53591376543045040000e-001) (63, -3.84708046913146970000e-001) (64, 6.21276736259460450000e-001) (65, -2.24248766899108890000e-001) (66, -1.05362921953201290000e-001) (67, -2.77679771184921260000e-001) (68, -5.64509868621826170000e-001) (69, -7.07296848297119140000e-001) (70, 8.67386627942323680000e-003) (71, -2.73419171571731570000e-002) (72, -8.21818783879280090000e-003) (73, 2.19612335786223410000e-003) (74, 1.22769288718700410000e-002) (0, 5.65773211419582370000e-002) (1, -4.63647961616516110000e-001) (2, -3.58527809381484990000e-001) (3, 3.21664124727249150000e-001) (4, 1.67984858155250550000e-001) (5, 2.39479094743728640000e-001) (6, 1.33668169379234310000e-001) (7, 3.13564747571945190000e-001) (8, 3.00819307565689090000e-001) (9, -3.88104319572448730000e-001) (10, -4.90963935852050780000e-001) (11, 1.12300515174865720000e-001) (12, 9.76938009262084960000e-002) (13, 7.71899223327636720000e-001) (14, 4.37230795621871950000e-001) (15, -2.06001460552215580000e-001) (16, -1.09793007373809810000e-001) (17, -5.90491235256195070000e-001) (18, 1.06350123882293700000e+000) (19, -3.71348798274993900000e-001) (20, -4.65404838323593140000e-002) (21, -9.74183857440948490000e-001) (22, -9.31543946266174320000e-001) (23, -3.65167587995529170000e-001) (24, -3.40472757816314700000e-002) (25, 6.08726859092712400000e-001) (26, 5.91622650623321530000e-001) (27, 1.54969096183776860000e-001) (28, -4.66874241828918460000e-001) (29, -6.86873435974121090000e-001) (30, -2.43862435221672060000e-001) (31, 4.00677680969238280000e-001) (32, -4.31473702192306520000e-001) (33, 3.43020468950271610000e-001) (34, -2.58112996816635130000e-001) (35, 3.83106857538223270000e-001) (36, -7.11628854274749760000e-001) (37, -7.18599557876586910000e-002) (38, 9.92935597896575930000e-001) (39, 3.58643867075443270000e-002) (40, -3.93134176731109620000e-001) (41, -1.07307672500610350000e+000) (42, 1.81237265467643740000e-001) (43, -3.44697535037994380000e-001) (44, -2.24341958761215210000e-001) (45, 4.37476247549057010000e-001) (46, 4.24804300069808960000e-001) (47, 5.90163469314575200000e-002) (48, -4.24072533845901490000e-001) (49, 5.65518498420715330000e-001) (50, -4.70563210546970370000e-002) (51, 2.56313532590866090000e-001) (52, -5.00566542148590090000e-001) (53, -4.69459801912307740000e-001) (54, -9.34988737106323240000e-001) (55, -5.76233714818954470000e-002) (56, 7.71167039871215820000e-001) (57, 1.01261043548583980000e+000) (58, -6.32935315370559690000e-002) (59, -7.96906091272830960000e-003) (60, -2.24915415048599240000e-001) (61, 3.37883643805980680000e-002) (62, -1.69567406177520750000e-001) (63, 1.35761678218841550000e-001) (64, 3.83408576250076290000e-001) (65, -1.18916511535644530000e-001) (66, 1.21666662395000460000e-001) (67, -1.27091199159622190000e-001) (68, -2.14036069810390470000e-002) (69, -2.26869899779558180000e-002) (70, 1.38550892472267150000e-001) (71, -1.83598268777132030000e-002) (72, 1.23939812183380130000e-001) (73, -2.25212648510932920000e-001) (74, 1.37480184435844420000e-001) (0, -2.57161587476730350000e-001) (1, 5.93388497829437260000e-001) (2, -4.38900478184223180000e-002) (3, 1.53841018676757810000e-001) (4, -4.32106852531433110000e-002) (5, -5.07927834987640380000e-001) (6, -9.18354243040084840000e-002) (7, 7.81787633895874020000e-002) (8, 1.52023240923881530000e-001) (9, -4.68497544527053830000e-001) (10, -1.93304628133773800000e-001) (11, -4.66630846261978150000e-001) (12, 7.47218608856201170000e-001) (13, 1.15883916616439820000e-001) (14, 9.62810337543487550000e-001) (15, 9.08345580101013180000e-002) (16, -2.23197370767593380000e-001) (17, 7.19647645950317380000e-001) (18, 3.32511693239212040000e-001) (19, 4.87682133913040160000e-001) (20, 5.61457633972167970000e-001) (21, -2.18457370996475220000e-001) (22, -1.13330334424972530000e-001) (23, 4.99878972768783570000e-002) (24, 9.68624949455261230000e-001) (25, -5.00972628593444820000e-001) (26, 3.03050786256790160000e-001) (27, -4.68156635761260990000e-001) (28, 6.63620293140411380000e-001) (29, 4.40549552440643310000e-001) (30, 4.95583564043045040000e-001) (31, -2.26279199123382570000e-001) (32, 5.55252850055694580000e-001) (33, -2.92552392929792400000e-002) (34, -1.22849293053150180000e-001) (35, 7.19685971736907960000e-001) (36, 1.46099877357482910000e+000) (37, -5.95490157604217530000e-001) (38, -2.03964546322822570000e-001) (39, -5.42463421821594240000e-001) (40, 2.51035839319229130000e-001) (41, 1.14408180117607120000e-001) (42, 2.93841242790222170000e-001) (43, -1.37854591012001040000e-001) (44, 6.39244019985198970000e-001) (45, -2.24692281335592270000e-002) (46, 6.58622026443481450000e-001) (47, 7.05301165580749510000e-001) (48, 3.36109727621078490000e-001) (49, 3.69076281785964970000e-001) (50, -4.98304814100265500000e-001) (51, 6.46750867366790770000e-001) (52, 9.30518954992294310000e-002) (53, 8.09158235788345340000e-002) (54, -8.92291486263275150000e-001) (55, -5.58816790580749510000e-001) (56, 4.82278019189834590000e-001) (57, -2.85265862941741940000e-001) (58, 5.80970346927642820000e-001) (59, -7.28788733482360840000e-001) (60, 2.00250625610351560000e+000) (61, -4.55321490764617920000e-001) (62, -6.74663390964269640000e-003) (63, 5.17613947391510010000e-001) (64, -1.27089965343475340000e+000) (65, -2.15199813246726990000e-001) (66, 1.27098813652992250000e-001) (67, 6.64560571312904360000e-002) (68, -5.74077852070331570000e-003) (69, 2.04354375600814820000e-001) (70, -5.19011281430721280000e-002) (71, -1.73595268279314040000e-002) (72, 6.01840205490589140000e-003) (73, -5.99571689963340760000e-002) (74, -4.47270572185516360000e-002) (0, -4.04958814382553100000e-001) (1, -5.53629100322723390000e-001) (2, 2.34717935323715210000e-001) (3, -2.29596182703971860000e-001) (4, -2.20179393887519840000e-001) (5, -6.55478894710540770000e-001) (6, -5.66453397274017330000e-001) (7, -5.04049122333526610000e-001) (8, -3.36801797151565550000e-001) (9, -3.51390570402145390000e-001) (10, 3.15138906240463260000e-001) (11, -3.65384638309478760000e-001) (12, 4.20832425355911250000e-001) (13, 2.88502395153045650000e-001) (14, 4.97939079999923710000e-001) (15, 2.26835474371910100000e-001) (16, 4.13437426090240480000e-001) (17, 4.24247264862060550000e-001) (18, -6.69861361384391780000e-002) (19, 4.93139564990997310000e-001) (20, 5.80393254756927490000e-001) (21, 1.83318648487329480000e-002) (22, 3.50453943014144900000e-001) (23, 7.53851095214486120000e-003) (24, -2.79252499341964720000e-001) (25, 3.09937447309494020000e-001) (26, -2.04356148838996890000e-001) (27, -4.04546797275543210000e-001) (28, -6.97227776050567630000e-001) (29, -6.75488829612731930000e-001) (30, 1.38416558504104610000e-001) (31, 3.23526263236999510000e-001) (32, -2.67384856939315800000e-001) (33, -3.11042815446853640000e-001) (34, 4.96512800455093380000e-002) (35, 3.79642844200134280000e-001) (36, 6.68838798999786380000e-001) (37, 5.54726779460906980000e-001) (38, -2.97349661588668820000e-001) (39, -2.22268432378768920000e-001) (40, -3.71241062879562380000e-001) (41, -1.31348609924316410000e+000) (42, 3.17312240600585940000e-001) (43, -4.13465231657028200000e-001) (44, 4.03571426868438720000e-002) (45, -2.58146584033966060000e-001) (46, -4.09395098686218260000e-002) (47, -5.08113026618957520000e-001) (48, -2.34696179628372190000e-001) (49, 3.45154613256454470000e-001) (50, -3.81207019090652470000e-001) (51, 6.03702485561370850000e-001) (52, 9.61655914783477780000e-001) (53, 4.90311324596405030000e-001) (54, 1.43062964081764220000e-001) (55, -2.37732410430908200000e-001) (56, -6.76767408847808840000e-001) (57, 4.36769649386405940000e-002) (58, -1.02816820144653320000e+000) (59, 5.91381847858428960000e-001) (60, -1.59284985065460210000e+000) (61, -2.27311775088310240000e-001) (62, -6.94053828716278080000e-001) (63, -5.89237473905086520000e-002) (64, 5.12791395187377930000e-001) (65, 1.47866606712341310000e-001) (66, -1.17430366575717930000e-001) (67, -2.06212718039751050000e-002) (68, 4.84743267297744750000e-002) (69, -5.82373701035976410000e-003) (70, -1.32421404123306270000e-003) (71, -2.63398051261901860000e-001) (72, 3.16323675215244290000e-002) (73, -1.62397604435682300000e-002) (74, 3.34728807210922240000e-002) (0, 2.47197002172470090000e-001) (1, -6.66461765766143800000e-001) (2, 3.13722461462020870000e-001) (3, -1.11456143856048580000e+000) (4, -1.04747068881988530000e+000) (5, -2.93274492025375370000e-001) (6, -6.49686813354492190000e-001) (7, -8.03098455071449280000e-002) (8, -2.53187358379364010000e-001) (9, -2.07750454545021060000e-001) (10, 4.65088963508605960000e-001) (11, -4.28940862417221070000e-001) (12, 1.32823657989501950000e+000) (13, 2.36220687627792360000e-001) (14, -4.53948289155960080000e-001) (15, -5.59838652610778810000e-001) (16, -2.68101453781127930000e-001) (17, -1.43318693153560160000e-003) (18, 1.83351829648017880000e-001) (19, 2.53766030073165890000e-001) (20, 4.91644293069839480000e-001) (21, 1.59933358430862430000e-001) (22, -4.55631524324417110000e-001) (23, 1.24325335025787350000e-001) (24, -2.02717781066894530000e-001) (25, -1.19699068367481230000e-001) (26, -2.42348387837409970000e-001) (27, -1.96024999022483830000e-001) (28, -1.28281378746032710000e+000) (29, -3.28703969717025760000e-001) (30, -2.45982304215431210000e-001) (31, -8.85486304759979250000e-002) (32, 3.10363620519638060000e-001) (33, -4.44901660084724430000e-002) (34, -1.34076267480850220000e-001) (35, 6.68091997504234310000e-002) (36, -5.27441740036010740000e-001) (37, 3.00908356904983520000e-001) (38, 4.58719432353973390000e-001) (39, -4.76485550403594970000e-001) (40, 4.16483640670776370000e-001) (41, 2.89516925811767580000e-001) (42, -2.38766521215438840000e-001) (43, 6.32417201995849610000e-001) (44, -4.78865280747413640000e-002) (45, -1.47512823343276980000e-001) (46, -1.50362342596054080000e-001) (47, -8.05160589516162870000e-003) (48, 3.64090770483016970000e-001) (49, -5.88476359844207760000e-001) (50, 4.68806214630603790000e-002) (51, -4.66979444026947020000e-001) (52, 1.87543313950300220000e-002) (53, 4.96256738901138310000e-001) (54, 1.91993445158004760000e-001) (55, 7.98682510852813720000e-001) (56, 6.39353215694427490000e-001) (57, -4.34988051652908330000e-001) (58, 7.29928985238075260000e-002) (59, 8.52498933672904970000e-002) (60, 4.72188621759414670000e-001) (61, 1.59396260976791380000e-001) (62, -9.50747281312942500000e-002) (63, -6.12401783466339110000e-001) (64, 5.67584037780761720000e-001) (65, -3.76656055450439450000e-002) (66, 5.22183068096637730000e-002) (67, -1.15596756339073180000e-001) (68, -8.07432234287261960000e-002) (69, -1.14407062530517580000e-001) (70, 4.93173450231552120000e-002) (71, 1.13347768783569340000e-002) (72, -1.63736388087272640000e-001) (73, 6.90644681453704830000e-002) (74, 1.18012316524982450000e-002) (0, 1.05664539337158200000e+000) (1, 1.08036255836486820000e+000) (2, 1.44954174757003780000e-001) (3, 2.18565419316291810000e-001) (4, 3.37111800909042360000e-001) (5, 1.55543506145477290000e-001) (6, -1.12875604629516600000e+000) (7, 5.88555671274662020000e-002) (8, 6.16413235664367680000e-001) (9, 1.09704065322875980000e+000) (10, -1.42167150974273680000e-001) (11, 2.87413954734802250000e-001) (12, 3.87576073408126830000e-001) (13, 4.91375476121902470000e-002) (14, -6.47869408130645750000e-002) (15, 3.24491471052169800000e-001) (16, -2.03797556459903720000e-002) (17, -9.65895801782608030000e-002) (18, -6.95922970771789550000e-002) (19, 3.66541981697082520000e-001) (20, -1.30800038576126100000e-001) (21, -1.50491312146186830000e-001) (22, 7.34370291233062740000e-001) (23, 2.12448760867118840000e-002) (24, 6.38487279415130620000e-001) (25, -6.91319346427917480000e-001) (26, 1.66492462158203130000e-001) (27, -5.12092523276805880000e-002) (28, 5.44157981872558590000e-001) (29, -5.41918873786926270000e-001) (30, 1.27795505523681640000e+000) (31, -6.73805296421051030000e-001) (32, 7.51393884420394900000e-002) (33, 1.60802257061004640000e+000) (34, -5.49909658730030060000e-002) (35, -2.22290512174367900000e-002) (36, -3.77940773963928220000e-001) (37, -3.86564761400222780000e-001) (38, -3.18186074495315550000e-001) (39, -2.13618993759155270000e-001) (40, 1.01091638207435610000e-001) (41, 1.04020610451698300000e-001) (42, 7.53527462482452390000e-001) (43, -4.41028416156768800000e-001) (44, 1.50378599762916560000e-001) (45, -1.93162068724632260000e-001) (46, -3.36234241724014280000e-001) (47, -3.48982140421867370000e-002) (48, -6.86179995536804200000e-001) (49, -2.51446843147277830000e-001) (50, -1.45741418004035950000e-001) (51, 2.36768111586570740000e-001) (52, 5.30829071998596190000e-001) (53, 6.39033198356628420000e-001) (54, 1.00665414333343510000e+000) (55, -9.74180281162261960000e-001) (56, 6.28532111644744870000e-001) (57, -5.45808970928192140000e-001) (58, -5.19032835960388180000e-001) (59, -9.05957579612731930000e-001) (60, -1.30616331100463870000e+000) (61, 7.48982131481170650000e-001) (62, 1.22702515125274660000e+000) (63, -1.50436475872993470000e-001) (64, -1.09515488147735600000e+000) (65, -8.08703526854515080000e-002) (66, 9.80755165219306950000e-002) (67, -1.42695633694529530000e-002) (68, 1.37842819094657900000e-001) (69, 7.86197781562805180000e-002) (70, 1.01227901875972750000e-001) (71, -2.03127656131982800000e-002) (72, 6.03574365377426150000e-002) (73, -1.68133992701768880000e-002) (74, 2.58856676518917080000e-002) (0, -5.50031028687953950000e-002) (1, -1.52392649650573730000e+000) (2, -1.12957000732421870000e+000) (3, -6.93259894847869870000e-001) (4, -2.25391507148742680000e+000) (5, 6.15745335817337040000e-002) (6, -4.71877187490463260000e-001) (7, 2.65337914228439330000e-001) (8, -6.33683323860168460000e-001) (9, -9.19652462005615230000e-001) (10, 1.53013572096824650000e-001) (11, 1.99896201491355900000e-001) (12, -8.23225677013397220000e-001) (13, -1.71713486313819890000e-001) (14, -8.13138902187347410000e-001) (15, 2.96992093324661250000e-001) (16, 2.88078542798757550000e-002) (17, -9.35414135456085210000e-001) (18, 4.34174478054046630000e-001) (19, -2.19395413994789120000e-001) (20, -5.33281043171882630000e-002) (21, -4.89843308925628660000e-001) (22, -6.37807250022888180000e-001) (23, -4.57882225513458250000e-001) (24, -6.91319167613983150000e-001) (25, -5.85464596748352050000e-001) (26, 4.38847094774246220000e-001) (27, -3.67090851068496700000e-001) (28, 2.99995362758636470000e-001) (29, -2.50264396890997890000e-003) (30, -4.67200517654418950000e-001) (31, 2.28324010968208310000e-001) (32, -1.57577335834503170000e+000) (33, -1.71277666091918950000e+000) (34, 2.45074152946472170000e-001) (35, -1.57080066204071040000e+000) (36, -2.09740614891052250000e+000) (37, -4.22500073909759520000e-001) (38, -7.41116479039192200000e-002) (39, 6.43696904182434080000e-001) (40, -1.77087831497192380000e+000) (41, -2.40440055727958680000e-001) (42, -2.76025474071502690000e-001) (43, -1.01904861629009250000e-001) (44, -1.34510755538940430000e+000) (45, 3.56732457876205440000e-001) (46, -1.05284452438354490000e+000) (47, -1.05735433101654050000e+000) (48, -1.49742633104324340000e-001) (49, -1.01566517353057860000e+000) (50, -3.28050166368484500000e-001) (51, -7.44631409645080570000e-001) (52, -3.84640097618103030000e-001) (53, -6.15135967731475830000e-001) (54, -1.52811908721923830000e+000) (55, -2.08563506603240970000e-001) (56, -1.48950922489166260000e+000) (57, -4.60962474346160890000e-001) (58, 2.49049276113510130000e-001) (59, 4.35706079006195070000e-001) (60, 1.59879577159881590000e+000) (61, 5.88393628597259520000e-001) (62, -1.82150200009346010000e-001) (63, -8.56674492359161380000e-001) (64, 3.46604847908020020000e+000) (65, 6.53242349624633790000e-001) (66, 1.99488867074251170000e-002) (67, -1.01375514641404150000e-002) (68, 6.06687506660819050000e-003) (69, 9.36770625412464140000e-003) (70, 5.83323603495955470000e-003) (71, 2.81536928378045560000e-003) (72, 3.84103826945647600000e-004) (73, -1.43138589337468150000e-002) (74, -2.06153141334652900000e-003) (0, -5.34039735794067380000e-001) (1, 2.56881654262542720000e-001) (2, -8.49008023738861080000e-001) (3, 1.32884550094604490000e+000) (4, 3.12950789928436280000e-001) (5, 3.74474078416824340000e-001) (6, 3.93064558506011960000e-001) (7, 6.13314509391784670000e-001) (8, 1.31531393527984620000e+000) (9, 7.31171011924743650000e-001) (10, -1.14758476614952090000e-001) (11, 3.76657456159591670000e-001) (12, -3.08609992265701290000e-001) (13, 8.73650461435317990000e-002) (14, 4.38154906034469600000e-001) (15, 3.84986847639083860000e-001) (16, 7.98196613788604740000e-001) (17, 7.00488388538360600000e-001) (18, -5.22151112556457520000e-001) (19, 2.52489507198333740000e-001) (20, -1.22833602130413060000e-001) (21, 7.16415569186210630000e-002) (22, -5.26809729635715480000e-002) (23, -2.79695063829422000000e-001) (24, -7.49518215656280520000e-001) (25, -5.64633131027221680000e-001) (26, 3.72161678969860080000e-002) (27, -3.09494733810424800000e-001) (28, 8.20358246564865110000e-002) (29, -7.60221779346466060000e-002) (30, -5.74079155921936040000e-002) (31, 1.25114485621452330000e-001) (32, 8.57296824455261230000e-001) (33, -5.44198215007781980000e-001) (34, 6.60101771354675290000e-001) (35, -1.28940045833587650000e-001) (36, 7.58104860782623290000e-001) (37, 4.49105836451053620000e-002) (38, 2.74750739336013790000e-001) (39, 7.76633620262146000000e-002) (40, -9.95179831981658940000e-001) (41, 8.20981383323669430000e-001) (42, 1.47576361894607540000e-001) (43, -4.97350275516510010000e-001) (44, -2.90785253047943120000e-001) (45, -4.76145535707473750000e-001) (46, -5.84677994251251220000e-001) (47, -2.15197145938873290000e-001) (48, 7.72851705551147460000e-002) (49, 1.57406345009803770000e-001) (50, 1.66506934911012650000e-002) (51, 2.32511654496192930000e-001) (52, 3.60955387353897090000e-001) (53, -7.28568196296691890000e-001) (54, -1.30847215652465820000e+000) (55, -1.47044643759727480000e-001) (56, 2.42709040641784670000e+000) (57, 5.20402332767844200000e-003) (58, 1.00272977352142330000e+000) (59, -1.12942898273468020000e+000) (60, 2.80026167631149290000e-001) (61, -5.09679056704044340000e-002) (62, 1.91847398877143860000e-001) (63, 1.20748169720172880000e-001) (64, -6.56657576560974120000e-001) (65, 1.27124711871147160000e-001) (66, -6.41345754265785220000e-002) (67, 3.12304887920618060000e-002) (68, -7.36478762701153760000e-003) (69, -8.12398120760917660000e-002) (70, 1.59163028001785280000e-002) (71, 2.03410312533378600000e-002) (72, 4.74963057786226270000e-003) (73, -6.56457394361495970000e-002) (74, -6.36578500270843510000e-002) (0, -2.20172309875488280000e+000) (1, -1.60253480076789860000e-001) (2, -6.30165696144104000000e-001) (3, 1.35969710350036620000e+000) (4, 4.89690601825714110000e-002) (5, 4.70713347196578980000e-001) (6, 1.66990116238594060000e-001) (7, -1.15208312869071960000e-001) (8, 7.53147006034851070000e-001) (9, -6.84839606285095210000e-001) (10, 1.07688985764980320000e-001) (11, -6.01948857307434080000e-001) (12, -5.29911279678344730000e-001) (13, -2.67608821392059330000e-001) (14, 5.93815505504608150000e-001) (15, 6.33997991681098940000e-002) (16, 1.66183638572692870000e+000) (17, -3.76403957605361940000e-001) (18, 7.66539722681045530000e-002) (19, -4.82596784830093380000e-001) (20, -3.68077814579010010000e-001) (21, -3.41505289077758790000e-001) (22, 2.14314743876457210000e-001) (23, -1.79768294095993040000e-001) (24, -1.56218349933624270000e+000) (25, -5.85978686809539790000e-001) (26, -5.62229394912719730000e-001) (27, -2.31599643826484680000e-001) (28, -3.62384825944900510000e-001) (29, -2.63945430517196660000e-001) (30, 8.37585628032684330000e-001) (31, 9.61550995707511900000e-002) (32, -2.18959018588066100000e-001) (33, -6.34359538555145260000e-001) (34, -1.60231888294219970000e-001) (35, 2.02537953853607180000e-001) (36, -1.10086548328399660000e+000) (37, -2.38807927817106250000e-002) (38, 7.52842798829078670000e-002) (39, 3.91467720270156860000e-001) (40, 1.26543593406677250000e+000) (41, -7.32203781604766850000e-001) (42, 5.12667894363403320000e-001) (43, -3.35410475730896000000e-001) (44, 5.10093510150909420000e-001) (45, 9.61329713463783260000e-002) (46, -3.23479287326335910000e-002) (47, -8.57722908258438110000e-002) (48, 5.23066699504852290000e-001) (49, -3.08412194252014160000e-001) (50, -2.24756643176078800000e-001) (51, -2.98920907080173490000e-002) (52, -2.14971035718917850000e-001) (53, 2.79813081026077270000e-001) (54, 9.36003923416137700000e-001) (55, 1.47750198841094970000e-001) (56, -1.82025671005249020000e+000) (57, 1.50530785322189330000e-001) (58, -1.44181215763092040000e+000) (59, 2.48052191734313960000e+000) (60, 5.10187387466430660000e-001) (61, 7.14017212390899660000e-001) (62, -1.43221735954284670000e-001) (63, 2.21882030367851260000e-001) (64, 6.90078377723693850000e-001) (65, -3.02818696945905690000e-002) (66, 4.64966148138046260000e-002) (67, 7.78340771794319150000e-002) (68, -9.74783673882484440000e-003) (69, -8.93133867066353560000e-004) (70, 5.49095496535301210000e-002) (71, 3.05221993476152420000e-002) (72, 4.51395362615585330000e-002) (73, 5.19554950296878810000e-002) (74, -2.39589810371398930000e-002) (0, -5.41428089141845700000e-001) (1, 5.39400756359100340000e-001) (2, -1.06596782803535460000e-001) (3, -2.70237892866134640000e-001) (4, -3.04274857044219970000e-001) (5, -2.46186941862106320000e-001) (6, -1.28655418753623960000e-001) (7, -2.99471467733383180000e-001) (8, -8.37969899177551270000e-001) (9, 1.20635533332824710000e+000) (10, 4.13455009460449220000e-001) (11, 4.76405084133148190000e-001) (12, -3.21457773447036740000e-001) (13, -1.40456974506378170000e-001) (14, -7.15302646160125730000e-001) (15, -9.02948603034019470000e-002) (16, -2.57285624742507930000e-001) (17, -7.88417458534240720000e-001) (18, -1.53221532702445980000e-001) (19, -1.96293324232101440000e-001) (20, -2.88356959819793700000e-001) (21, 2.00005201622843740000e-003) (22, -1.52985611930489540000e-002) (23, 2.54386484622955320000e-001) (24, -6.01025700569152830000e-001) (25, -1.95650279521942140000e-001) (26, -7.74907827377319340000e-001) (27, -4.06326115131378170000e-001) (28, -4.57645773887634280000e-001) (29, 1.15667954087257390000e-001) (30, -1.15486033260822300000e-001) (31, 3.30047607421875000000e-001) (32, -5.54200530052185060000e-001) (33, -5.21121561527252200000e-001) (34, -3.13360810279846190000e-001) (35, -1.25293421745300290000e+000) (36, -5.64272046089172360000e-001) (37, -9.66412365436553960000e-001) (38, 3.82481426000595090000e-001) (39, 7.50120460987091060000e-001) (40, -2.81192302703857420000e-001) (41, -3.58430683612823490000e-001) (42, 1.13812215626239780000e-001) (43, -1.53194904327392580000e-001) (44, -1.01112611591815950000e-001) (45, -2.38675877451896670000e-001) (46, 3.91407042741775510000e-001) (47, 3.84654432535171510000e-001) (48, 7.95577391982078550000e-002) (49, 1.27277195453643800000e-001) (50, -2.85515129566192630000e-001) (51, 4.80520695447921750000e-001) (52, 3.11356902122497560000e-001) (53, 1.80695444345474240000e-001) (54, -7.31246948242187500000e-001) (55, -6.35099947452545170000e-001) (56, 9.01115000247955320000e-001) (57, -1.65781099349260330000e-002) (58, -3.57696950435638430000e-001) (59, -6.36427998542785640000e-001) (60, -5.85077524185180660000e-001) (61, -7.89014637470245360000e-001) (62, -7.53855943679809570000e-001) (63, 9.24182236194610600000e-002) (64, 1.10137188434600830000e+000) (65, 1.16459220647811890000e-001) (66, 1.28965198993682860000e-001) (67, 1.06385119259357450000e-001) (68, 7.44340345263481140000e-002) (69, 1.58831462264060970000e-001) (70, -2.06187844276428220000e-001) (71, -1.44102135673165320000e-002) (72, -8.11517909169197080000e-002) (73, 1.48728877305984500000e-001) (74, 9.88182127475738530000e-002) (0, 5.74024677276611330000e-001) (1, 4.54286038875579830000e-001) (2, 2.23488941788673400000e-001) (3, 3.71976196765899660000e-001) (4, 3.37244510650634770000e-001) (5, 6.84646546840667720000e-001) (6, 4.66503381729125980000e-001) (7, -3.66815254092216490000e-002) (8, 3.85352700948715210000e-001) (9, -3.15274178981781010000e-001) (10, -3.91374856233596800000e-001) (11, -2.89543885737657550000e-002) (12, -5.50142824649810790000e-001) (13, 8.06365832686424260000e-002) (14, -1.38112470507621770000e-001) (15, 4.07694816589355470000e-001) (16, -4.46852296590805050000e-001) (17, 6.18416488170623780000e-001) (18, 2.18484327197074890000e-001) (19, 9.15641307830810550000e-001) (20, -1.37936949729919430000e-001) (21, -4.85604882240295410000e-001) (22, -5.16078531742095950000e-001) (23, -4.43822652101516720000e-001) (24, -5.96199035644531250000e-001) (25, -4.89973634481430050000e-001) (26, 4.27673965692520140000e-001) (27, 2.50345338135957720000e-002) (28, 1.61691397428512570000e-001) (29, -1.76662757992744450000e-001) (30, 3.03348064422607420000e-001) (31, -4.72391903400421140000e-001) (32, -6.02994970977306370000e-002) (33, -5.15318810939788820000e-001) (34, -1.31370231509208680000e-001) (35, -5.97524762153625490000e-001) (36, -8.81904304027557370000e-001) (37, 9.54524874687194820000e-002) (38, 2.15799137949943540000e-001) (39, 1.46668925881385800000e-001) (40, 4.28546935319900510000e-001) (41, 1.50034725666046140000e+000) (42, -1.27177648246288300000e-002) (43, -1.80387973785400390000e-001) (44, 3.82074326276779170000e-001) (45, 3.92367988824844360000e-001) (46, 8.48286390304565430000e-001) (47, 3.31831365823745730000e-001) (48, -8.84405016899108890000e-001) (49, -2.76015251874923710000e-002) (50, 7.57252335548400880000e-001) (51, 4.96775299310684200000e-001) (52, -3.90123963356018070000e-001) (53, -2.95040667057037350000e-001) (54, -5.21645545959472660000e-002) (55, -6.35440051555633540000e-001) (56, -1.24785137176513670000e+000) (57, -1.00046253204345700000e+000) (58, -3.53960663080215450000e-001) (59, 6.67297184467315670000e-001) (60, -4.11310017108917240000e-001) (61, 3.58329623937606810000e-001) (62, -1.89600270241498950000e-002) (63, -4.95432525873184200000e-001) (64, 2.93025702238082890000e-001) (65, 2.19613593071699140000e-002) (66, -7.29579553008079530000e-002) (67, 1.18636928498744960000e-001) (68, -9.98591780662536620000e-002) (69, -5.40259592235088350000e-002) (70, 1.40268906950950620000e-001) (71, -1.27548549789935350000e-003) (72, -8.65759849548339840000e-002) (73, 1.34073883295059200000e-001) (74, 3.35331819951534270000e-002) (0, 1.16536982357501980000e-001) (1, 9.14289355278015140000e-002) (2, -4.57647413015365600000e-001) (3, 4.34086561203002930000e-001) (4, 1.45425528287887570000e-001) (5, 1.03799307346343990000e+000) (6, 1.24429218471050260000e-001) (7, 9.13419425487518310000e-002) (8, -2.37240772694349290000e-002) (9, -6.83223783969879150000e-001) (10, 2.92299211025238040000e-001) (11, -3.13101947307586670000e-001) (12, 9.50686484575271610000e-002) (13, -9.28894937038421630000e-001) (14, -1.11777210235595700000e+000) (15, -1.08327531814575200000e+000) (16, 1.06130492687225340000e+000) (17, 1.35222685337066650000e+000) (18, -9.17009353637695310000e-001) (19, -8.44336897134780880000e-002) (20, 2.91305165737867360000e-002) (21, 8.57847332954406740000e-001) (22, 1.13352274894714360000e+000) (23, -2.44054179638624190000e-002) (24, -6.13491842523217200000e-003) (25, -7.90456056594848630000e-001) (26, 3.70429635047912600000e-001) (27, 1.20881569385528560000e+000) (28, 4.33794766664505000000e-001) (29, 1.23878888785839080000e-001) (30, -5.94931960105896000000e-001) (31, -4.20676887035369870000e-001) (32, -2.56996918469667430000e-002) (33, -1.10190916061401370000e+000) (34, -3.40054571628570560000e-001) (35, -7.79173254966735840000e-001) (36, -5.01904904842376710000e-001) (37, -8.78911375999450680000e-001) (38, 8.26126217842102050000e-001) (39, 9.00687634944915770000e-001) (40, 1.19536685943603520000e+000) (41, 8.20019245147705080000e-001) (42, -5.50795421004295350000e-002) (43, 2.19405785202980040000e-001) (44, 7.52947032451629640000e-001) (45, 6.72596812248229980000e-001) (46, 4.70252990722656250000e-001) (47, -1.34031608700752260000e-001) (48, 3.03863883018493650000e-001) (49, 1.37135371565818790000e-001) (50, -6.61453127861022950000e-001) (51, -3.62072318792343140000e-001) (52, 1.28749594092369080000e-001) (53, 2.50594466924667360000e-001) (54, -3.37303429841995240000e-002) (55, -2.43590444326400760000e-001) (56, -1.11951971054077150000e+000) (57, -6.26241683959960940000e-001) (58, -4.56283129751682280000e-002) (59, -2.44786709547042850000e-001) (60, 4.14353311061859130000e-002) (61, 5.20391523838043210000e-001) (62, 2.13021326065063480000e+000) (63, 9.56488132476806640000e-001) (64, -4.87067788839340210000e-001) (65, 1.32830113172531130000e-001) (66, -2.87159085273742680000e-002) (67, -1.12332329154014590000e-001) (68, -1.24985189177095890000e-003) (69, 1.12942636013031010000e-001) (70, -1.77553698420524600000e-001) (71, -9.68187078833580020000e-002) (72, -5.10543957352638240000e-002) (73, -1.66208863258361820000e-001) (74, -3.91614645719528200000e-001) (0, 6.94017708301544190000e-001) (1, 5.20601682364940640000e-002) (2, 9.10131558775901790000e-002) (3, 1.24284975230693820000e-001) (4, 5.55870868265628810000e-002) (5, 4.13006037473678590000e-001) (6, 3.20453494787216190000e-002) (7, -6.07331693172454830000e-001) (8, -6.28007888793945310000e-001) (9, 1.60950928926467900000e-001) (10, -2.75731366127729420000e-002) (11, 1.50920748710632320000e-001) (12, 1.16526208817958830000e-001) (13, 2.84619599580764770000e-001) (14, 1.14062738418579100000e+000) (15, 2.49780490994453430000e-001) (16, -1.20404374599456790000e+000) (17, -5.78516244888305660000e-001) (18, -8.98198664188385010000e-001) (19, -3.37341398000717160000e-001) (20, -4.63479161262512210000e-001) (21, 9.18192684650421140000e-001) (22, 1.19386576116085050000e-001) (23, -4.21012371778488160000e-001) (24, -3.82633477449417110000e-001) (25, 2.11632803082466130000e-001) (26, 6.28243863582611080000e-001) (27, 8.82686138153076170000e-001) (28, 9.86777663230896000000e-001) (29, 3.13582837581634520000e-001) (30, -1.25851404666900630000e+000) (31, -7.31493055820465090000e-001) (32, 3.95597629249095920000e-002) (33, 1.64896193891763690000e-002) (34, -3.51297765970230100000e-001) (35, 4.14192050695419310000e-001) (36, 6.66977405548095700000e-001) (37, 1.08359634876251220000e+000) (38, -3.31350386142730710000e-001) (39, -2.84212708473205570000e-001) (40, -5.95553159713745120000e-001) (41, -4.76629674434661870000e-001) (42, -5.31998991966247560000e-001) (43, 5.54121509194374080000e-002) (44, -2.73150801658630370000e-001) (45, 2.18047529458999630000e-001) (46, -5.97351431846618650000e-001) (47, -3.56503814458847050000e-001) (48, -5.41925251483917240000e-001) (49, 3.87576907873153690000e-001) (50, -3.75104278326034550000e-001) (51, 2.14936420321464540000e-001) (52, -7.59959965944290160000e-002) (53, 2.89522141218185420000e-001) (54, 1.50254166126251220000e+000) (55, 3.30264985561370850000e-001) (56, 3.48258674144744870000e-001) (57, 1.70657932758331300000e-001) (58, -4.76719528436660770000e-001) (59, -6.05209708213806150000e-001) (60, -8.16655516624450680000e-001) (61, 1.79543530941009520000e+000) (62, -1.63095921277999880000e-001) (63, -6.47163391113281250000e-001) (64, 5.37230551242828370000e-001) (65, 3.48302386701107030000e-002) (66, 6.12621754407882690000e-002) (67, 6.48858351632952690000e-003) (68, 1.12091034650802610000e-001) (69, 5.16406202223151920000e-004) (70, 8.28190296888351440000e-002) (71, -6.56127780675888060000e-002) (72, -5.67267239093780520000e-002) (73, 4.50076796114444730000e-002) (74, -7.61909037828445430000e-002) (0, 8.57838034629821780000e-001) (1, 3.93982529640197750000e-001) (2, 3.27727228403091430000e-001) (3, -3.64236533641815190000e-001) (4, 7.33648717403411870000e-001) (5, 7.15865075588226320000e-001) (6, 5.43701052665710450000e-001) (7, 5.22370696067810060000e-001) (8, 3.25375795364379880000e-001) (9, -1.13535189628601070000e+000) (10, 8.86987894773483280000e-002) (11, -9.10243615508079530000e-002) (12, 1.21922858059406280000e-001) (13, -4.96105760335922240000e-001) (14, -1.57761251926422120000e+000) (15, -7.71167755126953130000e-001) (16, -3.95170867443084720000e-001) (17, -7.90590167045593260000e-001) (18, 2.17683628201484680000e-001) (19, -1.04724109172821040000e+000) (20, -1.04047644138336180000e+000) (21, -1.26351818442344670000e-001) (22, -7.74671435356140140000e-002) (23, 3.35707008838653560000e-001) (24, 4.53673332929611210000e-001) (25, 4.11587476730346680000e-001) (26, -3.27419936656951900000e-001) (27, -1.46425932645797730000e-001) (28, -8.18493545055389400000e-001) (29, -1.62568494677543640000e-001) (30, -9.45181608200073240000e-001) (31, -1.55411902815103530000e-002) (32, -2.62670129537582400000e-001) (33, -7.45121777057647710000e-001) (34, 1.39480769634246830000e+000) (35, 6.68547630310058590000e-001) (36, 1.56137478351593020000e+000) (37, -1.52730077505111690000e-001) (38, -3.50833803415298460000e-001) (39, -4.28562104701995850000e-001) (40, -5.53782641887664790000e-001) (41, -5.24777233600616460000e-001) (42, 1.10714741051197050000e-001) (43, -9.76560115814208980000e-002) (44, -8.05939808487892150000e-002) (45, -5.81283152103424070000e-001) (46, -5.11895954608917240000e-001) (47, 1.81953296065330510000e-001) (48, -1.44513085484504700000e-001) (49, -9.49845910072326660000e-001) (50, 4.17593568563461300000e-001) (51, -1.18644475936889650000e+000) (52, -7.99396753311157230000e-001) (53, -4.56691533327102660000e-001) (54, 2.80068248510360720000e-001) (55, 7.50656008720397950000e-001) (56, -1.29267079755663870000e-002) (57, -4.82596457004547120000e-002) (58, 2.07910776138305660000e-001) (59, -7.49503791332244870000e-001) (60, -1.03528928756713870000e+000) (61, -2.24147409200668330000e-001) (62, 3.14775466918945310000e-001) (63, -2.87732686847448350000e-002) (64, 9.99829053878784180000e-001) (65, -2.95167248696088790000e-002) (66, 2.16096080839633940000e-002) (67, 1.13160602748394010000e-001) (68, 7.65686184167861940000e-002) (69, -1.06080725789070130000e-001) (70, 9.94149036705493930000e-003) (71, 4.65048253536224370000e-001) (72, -8.53585079312324520000e-004) (73, 3.65330558270215990000e-003) (74, 1.54932737350463870000e-002) (0, 6.53882086277008060000e-001) (1, -7.22413286566734310000e-002) (2, 6.23704157769680020000e-002) (3, -8.45442056655883790000e-001) (4, -9.61479902267456050000e-001) (5, -6.25476062297821040000e-001) (6, -5.45015156269073490000e-001) (7, -1.25337317585945130000e-001) (8, -9.55087780952453610000e-001) (9, -9.54576134681701660000e-001) (10, -2.09289476275444030000e-001) (11, -5.14931261539459230000e-001) (12, -2.04250305891036990000e-001) (13, -3.11112463474273680000e-001) (14, -3.77409309148788450000e-002) (15, -2.72720813751220700000e-001) (16, -2.26934373378753660000e-001) (17, -3.51831793785095210000e-001) (18, 1.20821110904216770000e-002) (19, -2.11907029151916500000e-001) (20, -1.09328078106045720000e-002) (21, 5.71159541606903080000e-001) (22, 2.90880531072616580000e-001) (23, -4.07494418323040010000e-002) (24, 4.91034209728240970000e-001) (25, 6.29797577857971190000e-001) (26, 5.53836166858673100000e-001) (27, 2.80565530061721800000e-001) (28, 6.61750018596649170000e-001) (29, 5.89707732200622560000e-001) (30, 5.72672963142395020000e-001) (31, 4.17180471122264860000e-002) (32, 6.61758422851562500000e-001) (33, 6.78073883056640630000e-001) (34, 2.23128914833068850000e-001) (35, 5.08881151676177980000e-001) (36, 8.73434245586395260000e-001) (37, -1.71359851956367490000e-001) (38, -8.60254406929016110000e-001) (39, -9.57793712615966800000e-001) (40, 7.46990859508514400000e-001) (41, -8.92231404781341550000e-001) (42, -1.35641887784004210000e-001) (43, 1.59911200404167180000e-001) (44, 1.76837474107742310000e-001) (45, -5.22263944149017330000e-001) (46, -4.29530590772628780000e-001) (47, -9.43249091506004330000e-003) (48, -4.57556158304214480000e-001) (49, 5.73066174983978270000e-001) (50, 1.72246530652046200000e-001) (51, 3.60679984092712400000e-001) (52, 2.73203998804092410000e-001) (53, -1.96690648794174190000e-001) (54, 3.13036471605300900000e-001) (55, -2.05141827464103700000e-001) (56, 6.89954578876495360000e-001) (57, 9.24788236618041990000e-001) (58, 1.85080856084823610000e-001) (59, -1.24461567401885990000e+000) (60, -1.01375114917755130000e+000) (61, -3.44342023134231570000e-001) (62, -4.23742413520812990000e-001) (63, 2.97618299722671510000e-001) (64, 1.70188039541244510000e-001) (65, -1.46329537034034730000e-001) (66, -1.87915995717048650000e-001) (67, 1.39498040080070500000e-001) (68, 3.02066542208194730000e-002) (69, 8.28350037336349490000e-002) (70, 2.47888397425413130000e-002) (71, 2.57940907031297680000e-002) (72, 7.65517652034759520000e-002) (73, 2.74523105472326280000e-002) (74, -5.45421317219734190000e-002) (0, 3.48822832107543950000e-001) (1, -8.88320684432983400000e-001) (2, 3.65462422370910640000e-001) (3, -5.95505833625793460000e-001) (4, 2.85798907279968260000e-001) (5, -4.19515818357467650000e-001) (6, -3.81384938955307010000e-002) (7, 2.95658499002456670000e-001) (8, 1.55014142394065860000e-001) (9, -3.83883327245712280000e-001) (10, -1.03347981348633770000e-002) (11, -3.62604916095733640000e-001) (12, -5.20619153976440430000e-001) (13, 1.65213290601968770000e-002) (14, 3.95858824253082280000e-001) (15, 9.65737640857696530000e-001) (16, -5.82920014858245850000e-001) (17, 1.51414945721626280000e-001) (18, -2.39554509520530700000e-001) (19, -2.01184004545211790000e-001) (20, -3.60500246286392210000e-001) (21, -1.45156130194664000000e-001) (22, 3.85809898376464840000e-001) (23, 7.29527473449707030000e-001) (24, 1.19794989004731180000e-002) (25, 5.96719622611999510000e-001) (26, -1.96665272116661070000e-001) (27, 3.01138967275619510000e-001) (28, 1.14266514778137210000e+000) (29, -2.04169824719429020000e-001) (30, 7.83149838447570800000e-001) (31, 2.72018998861312870000e-001) (32, 9.38236236572265630000e-001) (33, 3.53795766830444340000e-001) (34, 5.12431204319000240000e-001) (35, -1.56036600470542910000e-001) (36, 1.00642955303192140000e+000) (37, 2.57615804672241210000e-001) (38, -3.33431363105773930000e-001) (39, -5.23771829903125760000e-002) (40, -8.90367999672889710000e-002) (41, 5.58144032955169680000e-001) (42, -3.87141555547714230000e-001) (43, 1.31000414490699770000e-001) (44, 1.01491294801235200000e-001) (45, -1.72473907470703130000e-001) (46, 8.76607671380043030000e-002) (47, -9.42595582455396650000e-003) (48, -4.09922748804092410000e-001) (49, 9.56065118312835690000e-001) (50, 1.86710618436336520000e-002) (51, 3.17928902804851530000e-002) (52, -3.56057703495025630000e-001) (53, 5.67050464451313020000e-002) (54, 4.14181828498840330000e-001) (55, -3.34737509489059450000e-001) (56, -8.82769972085952760000e-002) (57, -6.75582528114318850000e-001) (58, 1.88137397170066830000e-001) (59, -6.86234831809997560000e-001) (60, -7.88476407527923580000e-001) (61, -2.32119902968406680000e-001) (62, -1.01165449619293210000e+000) (63, -9.30843472480773930000e-001) (64, -2.16455280780792240000e-001) (65, -1.85900032520294190000e-002) (66, 9.74973291158676150000e-002) (67, -1.85464665293693540000e-001) (68, 2.07234501838684080000e-001) (69, -2.07566291093826290000e-001) (70, -2.86778658628463750000e-002) (71, 3.09904310852289200000e-002) (72, -1.15658313035964970000e-001) (73, -8.87458845973014830000e-002) (74, 9.15055647492408750000e-002) (0, 1.67290544509887700000e+000) (1, 4.02166157960891720000e-001) (2, 8.08804094791412350000e-001) (3, -4.01795715093612670000e-001) (4, 1.09637069702148440000e+000) (5, -2.92797446250915530000e-001) (6, 7.65738710761070250000e-002) (7, -4.05913561582565310000e-001) (8, 1.41370400786399840000e-001) (9, 1.01142203807830810000e+000) (10, -4.94265019893646240000e-001) (11, 7.98219263553619380000e-001) (12, -5.41743814945220950000e-001) (13, -7.61470496654510500000e-002) (14, 4.36775565147399900000e-001) (15, 7.04547703266143800000e-001) (16, -4.47266250848770140000e-001) (17, 6.70768976211547850000e-001) (18, -3.80912832915782930000e-002) (19, -6.03168038651347160000e-003) (20, 2.05252632498741150000e-001) (21, 2.18910545110702510000e-001) (22, 2.44131565093994140000e-001) (23, 6.08412444591522220000e-001) (24, 1.42808318138122560000e+000) (25, -5.52346520125865940000e-002) (26, -2.39622637629508970000e-001) (27, -2.26496368646621700000e-001) (28, -7.67243146896362300000e-001) (29, 9.20973718166351320000e-002) (30, -1.33887410163879390000e+000) (31, -4.91216689348220830000e-001) (32, -6.86262369155883790000e-001) (33, 1.71033307909965520000e-001) (34, -6.19935058057308200000e-002) (35, -3.20158809423446660000e-001) (36, 2.11550712585449220000e-001) (37, -1.84762060642242430000e-001) (38, 3.66308480501174930000e-001) (39, 5.61487197875976560000e-001) (40, 7.36393272876739500000e-001) (41, 1.75320401787757870000e-001) (42, -8.56336951255798340000e-001) (43, 8.44378888607025150000e-001) (44, 9.52417626976966860000e-002) (45, 6.06848955154418950000e-001) (46, 2.32304692268371580000e-001) (47, 4.06144142150878910000e-001) (48, 1.50839769840240480000e+000) (49, 3.98734241724014280000e-001) (50, 2.66207247972488400000e-001) (51, -9.37732681632041930000e-002) (52, 1.71142995357513430000e-001) (53, -6.38751387596130370000e-002) (54, -4.30663704872131350000e-001) (55, 1.00730764865875240000e+000) (56, -3.17286223173141480000e-001) (57, 1.18983134627342220000e-001) (58, 5.64620077610015870000e-001) (59, 2.09174975752830510000e-002) (60, 1.42111527919769290000e+000) (61, 5.74301481246948240000e-001) (62, -3.01897585391998290000e-001) (63, 2.26415082812309270000e-001) (64, -1.38347136974334720000e+000) (65, -4.99212183058261870000e-002) (66, 7.40011362358927730000e-003) (67, 8.04722607135772710000e-002) (68, -3.79714369773864750000e-002) (69, -1.83916334062814710000e-002) (70, 3.05772293359041210000e-002) (71, -1.46030828356742860000e-001) (72, 6.48575499653816220000e-002) (73, 6.40682727098464970000e-002) (74, 1.18478294461965560000e-002) (0, 3.24261218309402470000e-001) (1, -1.49305611848831180000e-001) (2, -8.37479531764984130000e-002) (3, -4.22038376331329350000e-001) (4, -1.06935334205627440000e+000) (5, -3.89060258865356450000e-001) (6, 2.96891093254089360000e-001) (7, 4.12231013178825380000e-002) (8, -1.53569591045379640000e+000) (9, -1.06896591186523440000e+000) (10, -2.35234457068145280000e-003) (11, -5.65086267888545990000e-002) (12, -3.60947459936141970000e-001) (13, 2.63325244188308720000e-001) (14, -3.77736091613769530000e-001) (15, -3.13465237617492680000e-001) (16, -2.96997576951980590000e-001) (17, 4.21716153621673580000e-001) (18, -1.17347799241542820000e-002) (19, 7.66815692186355590000e-002) (20, -3.12320291996002200000e-001) (21, -3.41660618782043460000e-001) (22, -5.64144670963287350000e-001) (23, -2.60874450206756590000e-001) (24, -1.31789827346801760000e+000) (25, 9.82299029827117920000e-001) (26, -4.74366545677185060000e-001) (27, 6.57435283064842220000e-002) (28, -1.02162551879882810000e+000) (29, 1.84607595205307010000e-001) (30, -6.49811565876007080000e-001) (31, 7.33219921588897710000e-001) (32, 9.21020209789276120000e-002) (33, 2.05587208271026610000e-001) (34, -3.17956745624542240000e-001) (35, 3.71343076229095460000e-001) (36, -2.15350762009620670000e-001) (37, 3.71908932924270630000e-001) (38, -3.60527426004409790000e-001) (39, -1.75098344683647160000e-001) (40, -8.04615855216979980000e-001) (41, 6.24631762504577640000e-001) (42, -1.45267769694328310000e-001) (43, 1.69254779815673830000e-001) (44, 4.93656434118747710000e-002) (45, 3.04298877716064450000e-001) (46, 3.15423011779785160000e-001) (47, -2.30791606009006500000e-002) (48, -5.15202224254608150000e-001) (49, 1.04946926236152650000e-001) (50, 4.81097042560577390000e-001) (51, 3.58643412590026860000e-001) (52, -9.42573472857475280000e-002) (53, -2.87913382053375240000e-001) (54, 2.29015618562698360000e-001) (55, 1.61826997995376590000e-001) (56, -1.39936208724975590000e-001) (57, -1.85940146446228030000e-001) (58, 4.64015007019042970000e-001) (59, 5.20604215562343600000e-002) (60, 1.73375979065895080000e-001) (61, -4.38330620527267460000e-001) (62, 8.33411216735839840000e-001) (63, 5.27783989906311040000e-001) (64, 1.42602789402008060000e+000) (65, 2.79798768460750580000e-002) (66, 8.23091641068458560000e-002) (67, 1.55942484736442570000e-001) (68, -1.31939232349395750000e-001) (69, -2.02967628836631770000e-001) (70, -1.08513228595256810000e-001) (71, -4.25159074366092680000e-002) (72, 9.71489101648330690000e-002) (73, -2.33965609222650530000e-002) (74, 2.81509384512901310000e-002) (0, -1.28368544578552250000e+000) (1, 1.26823320984840390000e-001) (2, -7.63535022735595700000e-001) (3, 2.41208858788013460000e-002) (4, -8.70522022247314450000e-001) (5, -3.03377389907836910000e-001) (6, 1.04828166961669920000e+000) (7, -1.86589941382408140000e-001) (8, -1.07113981246948240000e+000) (9, 5.70683479309082030000e-001) (10, 1.67793841683305800000e-004) (11, 2.45065495371818540000e-001) (12, 8.79490934312343600000e-003) (13, 9.50090936385095120000e-004) (14, 9.40204441547393800000e-001) (15, -1.08741903305053710000e+000) (16, -1.65122270584106450000e-001) (17, -1.66904175281524660000e+000) (18, -9.44495424628257750000e-002) (19, -2.08134666085243230000e-001) (20, -2.23192527890205380000e-001) (21, -7.12377429008483890000e-002) (22, -7.16339230537414550000e-001) (23, -3.42305809259414670000e-001) (24, 9.82834339141845700000e-001) (25, -8.64703774452209470000e-001) (26, 3.48032772541046140000e-001) (27, -6.48602619767189030000e-002) (28, -1.95622697472572330000e-001) (29, 5.79333841800689700000e-001) (30, -8.30918788909912110000e-001) (31, 2.60801576077938080000e-002) (32, -3.27975004911422730000e-001) (33, 7.53064513206481930000e-001) (34, -1.04537665843963620000e+000) (35, 1.82956382632255550000e-001) (36, -8.10043990612030030000e-001) (37, -3.06243062019348140000e-001) (38, -2.33841180801391600000e-001) (39, -2.57181137800216670000e-001) (40, 1.46032169461250310000e-001) (41, 6.31172299385070800000e-001) (42, 4.85907346010208130000e-001) (43, 1.22412040829658510000e-001) (44, -8.83362144231796260000e-002) (45, 6.54674842953681950000e-002) (46, -3.65412491373717780000e-003) (47, 9.76061597466468810000e-002) (48, -6.11934542655944820000e-001) (49, -7.35384106636047360000e-001) (50, -4.88691210746765140000e-001) (51, -2.50919222831726070000e-001) (52, -2.58928239345550540000e-001) (53, -3.70161123573780060000e-002) (54, -1.20424103736877440000e+000) (55, -3.87199729681015010000e-001) (56, -8.54795217514038090000e-001) (57, 7.30805099010467530000e-001) (58, -3.95938724279403690000e-001) (59, 1.89459607005119320000e-001) (60, -4.96106505393981930000e-001) (61, -3.27589243650436400000e-001) (62, -3.78295004367828370000e-001) (63, 4.84596252441406250000e-001) (64, 1.32172644138336180000e+000) (65, -4.20531220734119420000e-002) (66, -7.58930966258049010000e-002) (67, -1.49664908647537230000e-001) (68, -1.73746958374977110000e-001) (69, 5.65256416797637940000e-001) (70, -3.52442637085914610000e-002) (71, -6.30627479404211040000e-003) (72, -6.59942207857966420000e-003) (73, -6.75856834277510640000e-004) (74, -6.33470267057418820000e-002) (0, -1.31418156623840330000e+000) (1, -8.95583450794219970000e-001) (2, 3.78911644220352170000e-001) (3, -7.17926323413848880000e-001) (4, 1.74277198314666750000e+000) (5, 5.82502841949462890000e-001) (6, 4.45440381765365600000e-001) (7, -2.00788587331771850000e-001) (8, 5.11819839477539060000e-001) (9, 5.26141345500946040000e-001) (10, -7.66261890530586240000e-002) (11, -1.62528440356254580000e-001) (12, -1.73519819974899290000e-001) (13, -4.91700112819671630000e-001) (14, -1.18368411064147950000e+000) (15, -4.31514799594879150000e-001) (16, 5.90171933174133300000e-001) (17, 1.05934238433837890000e+000) (18, -2.57914394140243530000e-001) (19, -5.55246099829673770000e-002) (20, 1.50273755192756650000e-001) (21, 5.62983117997646330000e-002) (22, -4.28456783294677730000e-001) (23, -1.92847520112991330000e-001) (24, -1.09365057945251460000e+000) (25, 3.19697737693786620000e-001) (26, -2.99960613250732420000e-001) (27, -7.58979693055152890000e-002) (28, -2.18568056821823120000e-001) (29, -2.03750222921371460000e-001) (30, -4.03399020433425900000e-002) (31, 2.61860579252243040000e-001) (32, -7.11273476481437680000e-002) (33, 1.04154324531555180000e+000) (34, -2.92052239179611210000e-001) (35, -4.37849342823028560000e-001) (36, -1.28101956844329830000e+000) (37, -2.56814599037170410000e-001) (38, 1.89080074429512020000e-001) (39, 5.77227771282196040000e-001) (40, 7.38651514053344730000e-001) (41, -7.82035768032073970000e-001) (42, -1.58578008413314820000e-001) (43, -2.41628512740135190000e-002) (44, 4.20992940664291380000e-001) (45, -5.91392636299133300000e-001) (46, -1.07413804531097410000e+000) (47, -4.85454648733139040000e-001) (48, 3.69551002979278560000e-001) (49, -2.05383315682411190000e-001) (50, -1.48648411035537720000e-001) (51, -3.62518280744552610000e-001) (52, -7.32417125254869460000e-003) (53, 3.39085087180137630000e-002) (54, -4.26378488540649410000e-001) (55, -4.02346760034561160000e-001) (56, -3.15855219960212710000e-002) (57, -2.05448478460311890000e-001) (58, 2.66307830810546880000e-001) (59, 5.54258823394775390000e-002) (60, 1.45384228229522710000e+000) (61, 4.68006938695907590000e-001) (62, -1.53269588947296140000e-001) (63, -4.12637174129486080000e-001) (64, 3.66157948970794680000e-001) (65, -6.25174865126609800000e-002) (66, -6.54630586504936220000e-002) (67, -4.43669920787215230000e-003) (68, 8.46915990114212040000e-002) (69, 1.39431627467274670000e-002) (70, 5.12060038745403290000e-002) (71, -1.13704949617385860000e-002) (72, -8.92734900116920470000e-003) (73, 3.76715697348117830000e-002) (74, -2.43519637733697890000e-002) 
