FANN_FLO_2.1
num_layers=12
learning_rate=0.700000
connection_rate=1.000000
network_type=1
learning_momentum=0.000000
training_algorithm=2
train_error_function=0
train_stop_function=0
cascade_output_change_fraction=0.010000
quickprop_decay=-0.000100
quickprop_mu=1.750000
rprop_increase_factor=1.200000
rprop_decrease_factor=0.500000
rprop_delta_min=0.000000
rprop_delta_max=50.000000
rprop_delta_zero=0.100000
cascade_output_stagnation_epochs=12
cascade_candidate_change_fraction=0.010000
cascade_candidate_stagnation_epochs=12
cascade_max_out_epochs=500
cascade_min_out_epochs=50
cascade_max_cand_epochs=500
cascade_min_cand_epochs=50
cascade_num_candidate_groups=2
bit_fail_limit=3.49999994039535520000e-001
cascade_candidate_limit=1.00000000000000000000e+003
cascade_weight_multiplier=4.00000005960464480000e-001
cascade_activation_functions_count=10
cascade_activation_functions=3 5 7 8 10 11 14 15 16 17 
cascade_activation_steepnesses_count=4
cascade_activation_steepnesses=2.50000000000000000000e-001 5.00000000000000000000e-001 7.50000000000000000000e-001 1.00000000000000000000e+000 
layer_sizes=65 1 1 1 1 1 1 1 1 1 1 10 
scale_included=0
neurons (num_inputs, activation_function, activation_steepness)=(0, 0, 0.00000000000000000000e+000) (0, 0, 0.00000000000000000000e+000) (0, 0, 0.00000000000000000000e+000) (0, 0, 0.00000000000000000000e+000) (0, 0, 0.00000000000000000000e+000) (0, 0, 0.00000000000000000000e+000) (0, 0, 0.00000000000000000000e+000) (0, 0, 0.00000000000000000000e+000) (0, 0, 0.00000000000000000000e+000) (0, 0, 0.00000000000000000000e+000) (0, 0, 0.00000000000000000000e+000) (0, 0, 0.00000000000000000000e+000) (0, 0, 0.00000000000000000000e+000) (0, 0, 0.00000000000000000000e+000) (0, 0, 0.00000000000000000000e+000) (0, 0, 0.00000000000000000000e+000) (0, 0, 0.00000000000000000000e+000) (0, 0, 0.00000000000000000000e+000) (0, 0, 0.00000000000000000000e+000) (0, 0, 0.00000000000000000000e+000) (0, 0, 0.00000000000000000000e+000) (0, 0, 0.00000000000000000000e+000) (0, 0, 0.00000000000000000000e+000) (0, 0, 0.00000000000000000000e+000) (0, 0, 0.00000000000000000000e+000) (0, 0, 0.00000000000000000000e+000) (0, 0, 0.00000000000000000000e+000) (0, 0, 0.00000000000000000000e+000) (0, 0, 0.00000000000000000000e+000) (0, 0, 0.00000000000000000000e+000) (0, 0, 0.00000000000000000000e+000) (0, 0, 0.00000000000000000000e+000) (0, 0, 0.00000000000000000000e+000) (0, 0, 0.00000000000000000000e+000) (0, 0, 0.00000000000000000000e+000) (0, 0, 0.00000000000000000000e+000) (0, 0, 0.00000000000000000000e+000) (0, 0, 0.00000000000000000000e+000) (0, 0, 0.00000000000000000000e+000) (0, 0, 0.00000000000000000000e+000) (0, 0, 0.00000000000000000000e+000) (0, 0, 0.00000000000000000000e+000) (0, 0, 0.00000000000000000000e+000) (0, 0, 0.00000000000000000000e+000) (0, 0, 0.00000000000000000000e+000) (0, 0, 0.00000000000000000000e+000) (0, 0, 0.00000000000000000000e+000) (0, 0, 0.00000000000000000000e+000) (0, 0, 0.00000000000000000000e+000) (0, 0, 0.00000000000000000000e+000) (0, 0, 0.00000000000000000000e+000) (0, 0, 0.00000000000000000000e+000) (0, 0, 0.00000000000000000000e+000) (0, 0, 0.00000000000000000000e+000) (0, 0, 0.00000000000000000000e+000) (0, 0, 0.00000000000000000000e+000) (0, 0, 0.00000000000000000000e+000) (0, 0, 0.00000000000000000000e+000) (0, 0, 0.00000000000000000000e+000) (0, 0, 0.00000000000000000000e+000) (0, 0, 0.00000000000000000000e+000) (0, 0, 0.00000000000000000000e+000) (0, 0, 0.00000000000000000000e+000) (0, 0, 0.00000000000000000000e+000) (0, 0, 0.00000000000000000000e+000) (65, 17, 5.00000000000000000000e-001) (66, 16, 1.00000000000000000000e+000) (67, 8, 5.00000000000000000000e-001) (68, 15, 7.50000000000000000000e-001) (69, 14, 1.00000000000000000000e+000) (70, 8, 7.50000000000000000000e-001) (71, 14, 1.00000000000000000000e+000) (72, 8, 7.50000000000000000000e-001) (73, 15, 1.00000000000000000000e+000) (74, 8, 1.00000000000000000000e+000) (75, 5, 5.00000000000000000000e-001) (75, 5, 5.00000000000000000000e-001) (75, 5, 5.00000000000000000000e-001) (75, 5, 5.00000000000000000000e-001) (75, 5, 5.00000000000000000000e-001) (75, 5, 5.00000000000000000000e-001) (75, 5, 5.00000000000000000000e-001) (75, 5, 5.00000000000000000000e-001) (75, 5, 5.00000000000000000000e-001) (75, 5, 5.00000000000000000000e-001) 
connections (connected_to_neuron, weight)=(0, 2.65073925256729130000e-001) (1, -9.60121899843215940000e-002) (2, 3.39721515774726870000e-002) (3, 9.16430056095123290000e-001) (4, 7.30250775814056400000e-001) (5, 5.37645757198333740000e-001) (6, 1.92656004428863530000e+000) (7, 1.11940228939056400000e+000) (8, 1.91768074035644530000e+000) (9, 1.71198856830596920000e+000) (10, 1.81861686706542970000e+000) (11, 1.17830336093902590000e+000) (12, 2.03580522537231450000e+000) (13, 6.82329058647155760000e-001) (14, 1.87146925926208500000e+000) (15, 9.91559028625488280000e-001) (16, 1.12007582187652590000e+000) (17, 3.28330516815185550000e+000) (18, 6.67236864566802980000e-001) (19, 1.63536298274993900000e+000) (20, 2.97503054141998290000e-001) (21, 6.40836834907531740000e-001) (22, 1.73112130165100100000e+000) (23, -1.84350922703742980000e-001) (24, 1.87258911132812500000e+000) (25, 6.51542127132415770000e-001) (26, 1.08794057369232180000e+000) (27, -1.13305711746215820000e+000) (28, 1.71962618827819820000e+000) (29, 7.51464486122131350000e-001) (30, 1.29629886150360110000e+000) (31, 9.63097333908081050000e-001) (32, 2.44374203681945800000e+000) (33, 9.39090013504028320000e-001) (34, -2.98963248729705810000e-001) (35, -1.48189973831176760000e+000) (36, 1.37556767463684080000e+000) (37, 1.50962507724761960000e+000) (38, 7.00407266616821290000e-001) (39, 8.67974877357482910000e-001) (40, 1.60085391998291020000e+000) (41, 2.63571810722351070000e+000) (42, -8.72891724109649660000e-001) (43, 1.77142286300659180000e+000) (44, 4.49135720729827880000e-001) (45, -4.30666446685791020000e-001) (46, 5.93075811862945560000e-001) (47, 1.50663852691650390000e-001) (48, 1.30129003524780270000e+000) (49, -5.28975665569305420000e-001) (50, 8.73864591121673580000e-001) (51, -2.60969042778015140000e-001) (52, 8.53629648685455320000e-001) (53, 3.31747889518737790000e-001) (54, 2.21256613731384280000e+000) (55, -1.00250110030174260000e-001) (56, 1.88487815856933590000e+000) (57, 1.23567986488342290000e+000) (58, -7.93267190456390380000e-001) (59, 1.16841232776641850000e+000) (60, -4.26671326160430910000e-001) (61, -1.54167008399963380000e+000) (62, 2.00952339172363280000e+000) (63, 1.53887987136840820000e+000) (64, -1.14699751138687130000e-002) (0, 2.39237689971923830000e+000) (1, 2.00989222526550290000e+000) (2, -6.11244253814220430000e-002) (3, 3.10809135437011720000e-001) (4, 4.09491181373596190000e-001) (5, 5.83685994148254390000e-001) (6, 4.15971577167510990000e-001) (7, -7.39749729633331300000e-001) (8, -1.43227145075798030000e-001) (9, 1.52771377563476560000e+000) (10, 3.34667228162288670000e-002) (11, 1.05825722217559810000e+000) (12, 8.66133496165275570000e-002) (13, 1.31806981563568120000e+000) (14, 2.81686663627624510000e+000) (15, 1.71903729438781740000e+000) (16, -7.15218961238861080000e-001) (17, 1.26688683032989500000e+000) (18, 2.44372054934501650000e-001) (19, -4.48271811008453370000e-001) (20, 1.60971045494079590000e+000) (21, 1.27838027477264400000e+000) (22, 1.19961059093475340000e+000) (23, 2.40204080939292910000e-001) (24, 3.28861027956008910000e-001) (25, 7.39091992378234860000e-001) (26, 1.44590362906455990000e-001) (27, 2.23183378577232360000e-001) (28, -1.84336471557617190000e+000) (29, -1.25526535511016850000e+000) (30, -2.54153180122375490000e+000) (31, -2.55671095848083500000e+000) (32, 8.27995538711547850000e-001) (33, 1.61513239145278930000e-001) (34, 1.60567128658294680000e+000) (35, -2.78834962844848630000e+000) (36, 8.26514422893524170000e-001) (37, 1.41714072227478030000e+000) (38, 7.14480459690093990000e-001) (39, -9.31176766753196720000e-002) (40, 9.63294446468353270000e-001) (41, 1.97367846965789790000e+000) (42, -1.64720392227172850000e+000) (43, 9.65641975402832030000e-001) (44, -1.36108353734016420000e-001) (45, 9.88311648368835450000e-001) (46, 2.71548676490783690000e+000) (47, 1.04713416099548340000e+000) (48, 2.26131990551948550000e-001) (49, 1.59346675872802730000e+000) (50, 3.14142346382141110000e-001) (51, 2.86939531564712520000e-001) (52, 4.34333562850952150000e-001) (53, -6.79688900709152220000e-002) (54, -1.68961822986602780000e-001) (55, 1.44249023869633670000e-002) (56, -3.01082253456115720000e-001) (57, 3.93693029880523680000e-001) (58, 1.20616185665130620000e+000) (59, -8.07205796241760250000e-001) (60, -9.33415710926055910000e-001) (61, -1.54519900679588320000e-001) (62, -1.54520595073699950000e+000) (63, -3.23108583688735960000e-001) (64, 1.56816244125366210000e+000) (65, -3.08880591392517090000e+000) (0, 2.96097230911254880000e+000) (1, 4.53265094757080080000e+000) (2, -6.89907604828476910000e-003) (3, 1.54201614856719970000e+000) (4, -2.31392955780029300000e+000) (5, -3.31684827804565430000e+000) (6, -1.04105472564697270000e+000) (7, -2.71680879592895510000e+000) (8, 7.11477220058441160000e-001) (9, -1.08564102649688720000e+000) (10, 2.06460046768188480000e+000) (11, -4.13806587457656860000e-001) (12, 1.17499279975891110000e+000) (13, 3.41754722595214840000e+000) (14, 3.28029799461364750000e+000) (15, 6.89733862876892090000e-001) (16, 9.05786454677581790000e-001) (17, 3.74040269851684570000e+000) (18, 5.30502021312713620000e-001) (19, -3.77707481384277340000e-001) (20, 1.09378266334533690000e+000) (21, -9.05297636985778810000e-001) (22, -2.71548366546630860000e+000) (23, -2.61871075630187990000e+000) (24, 2.82717537879943850000e+000) (25, 2.86031007766723630000e+000) (26, -3.39018642902374270000e-001) (27, -1.34790718555450440000e+000) (28, -4.03670263290405270000e+000) (29, -1.75401604175567630000e+000) (30, -7.19922113418579100000e+000) (31, 1.91965758800506590000e+000) (32, 6.33535325527191160000e-001) (33, -6.73428440093994140000e+000) (34, 1.19733572006225590000e+000) (35, 2.09393930435180660000e+000) (36, 3.61218428611755370000e+000) (37, 2.80051684379577640000e+000) (38, 2.33338236808776860000e+000) (39, 1.47173821926116940000e+000) (40, 1.05162370204925540000e+000) (41, 6.99319839477539060000e-001) (42, -2.95863318443298340000e+000) (43, -1.27818262577056880000e+000) (44, -1.88262987136840820000e+000) (45, 1.60244536399841310000e+000) (46, 1.09720313549041750000e+000) (47, 3.28149962425231930000e+000) (48, 1.15865552425384520000e+000) (49, -7.36052453517913820000e-001) (50, -1.03480257093906400000e-001) (51, -1.17640376091003420000e+000) (52, 4.88012343645095830000e-001) (53, 2.19578653573989870000e-001) (54, 1.40315389633178710000e+000) (55, -1.39721453189849850000e+000) (56, -3.89456301927566530000e-002) (57, 2.12321543693542480000e+000) (58, 2.00006628036499020000e+000) (59, 2.23361790180206300000e-001) (60, 2.16860914230346680000e+000) (61, -4.69169569015502930000e+000) (62, -2.54329824447631840000e+000) (63, 4.14533168077468870000e-002) (64, 2.32815608382225040000e-001) (65, 3.61345386505126950000e+000) (66, -3.23861575126647950000e+000) (0, -7.42114877700805660000e+000) (1, 6.13122344017028810000e-001) (2, -5.54036521911621090000e+000) (3, 4.97546052932739260000e+000) (4, -5.20204830169677730000e+000) (5, -1.19687855243682860000e+000) (6, -9.33768367767333980000e+000) (7, -1.63709878921508790000e+000) (8, -1.19739985466003420000e+000) (9, 4.84951066970825200000e+000) (10, 1.56326282024383540000e+000) (11, 1.27206587791442870000e+000) (12, 5.45287418365478520000e+000) (13, 2.41325759887695310000e+000) (14, 1.92589068412780760000e+000) (15, 3.75414133071899410000e+000) (16, 1.87497222423553470000e+000) (17, 8.26065635681152340000e+000) (18, -1.73646509647369380000e+000) (19, 2.55589795112609860000e+000) (20, -4.34845238924026490000e-001) (21, 2.85873723030090330000e+000) (22, 3.69995594024658200000e+000) (23, 7.36769795417785640000e-001) (24, 8.72048377990722660000e+000) (25, 3.56678187847137450000e-001) (26, -8.67060661315917970000e-001) (27, -1.17280256748199460000e+000) (28, -4.62838202714920040000e-001) (29, 9.21286940574646000000e-001) (30, 1.60667979717254640000e+000) (31, -8.00809979438781740000e-001) (32, -1.93746232986450200000e+000) (33, -3.63026952743530270000e+000) (34, 4.24158763885498050000e+000) (35, -3.36592721939086910000e+000) (36, -5.29837191104888920000e-001) (37, -2.68363809585571290000e+000) (38, 1.66051554679870610000e+000) (39, -1.38316810131073000000e+000) (40, 1.66366875171661380000e+000) (41, -4.52873706817626950000e+000) (42, 3.37733602523803710000e+000) (43, -6.38979864120483400000e+000) (44, 4.87192690372467040000e-001) (45, 1.27987360954284670000e+000) (46, 8.44144895672798160000e-002) (47, -2.11265492439270020000e+000) (48, 2.63323330879211430000e+000) (49, 4.17918348312377930000e+000) (50, 2.78861641883850100000e+000) (51, 2.75000214576721190000e+000) (52, 7.49462127685546880000e-001) (53, 2.72241264581680300000e-001) (54, 1.93178272247314450000e+000) (55, 3.90466541051864620000e-001) (56, 3.50121164321899410000e+000) (57, 2.02369642257690430000e+000) (58, 7.61013090610504150000e-001) (59, -2.28955388069152830000e+000) (60, 6.87516927719116210000e-001) (61, 6.47686481475830080000e+000) (62, 6.14629793167114260000e+000) (63, -4.62872087955474850000e-001) (64, -2.18002390861511230000e+000) (65, -1.42108697891235350000e+001) (66, 6.54436230659484860000e-001) (67, 3.87540549039840700000e-001) (0, -4.55270004272460940000e+000) (1, -1.75014460086822510000e+000) (2, 5.43334066867828370000e-001) (3, 3.21694350242614750000e+000) (4, 3.59197258949279790000e+000) (5, 5.60480117797851560000e-001) (6, 1.42540788650512700000e+000) (7, 1.24654495716094970000e+000) (8, 1.04521477222442630000e+000) (9, 2.18932881951332090000e-001) (10, 1.58228135108947750000e+000) (11, 1.20828592777252200000e+000) (12, 2.69899606704711910000e+000) (13, 1.97340619564056400000e+000) (14, 2.66238570213317870000e+000) (15, 3.21763181686401370000e+000) (16, 2.00963306427001950000e+000) (17, 4.24560403823852540000e+000) (18, 1.64323851466178890000e-001) (19, 1.59416902065277100000e+000) (20, -1.07243835926055910000e+000) (21, 1.11036121845245360000e+000) (22, 2.11255550384521480000e+000) (23, 3.60216289758682250000e-001) (24, 2.56608033180236820000e+000) (25, -1.28914904594421390000e+000) (26, 3.14720094203948970000e-001) (27, -7.64308497309684750000e-003) (28, -2.82491385936737060000e-001) (29, 1.64892935752868650000e+000) (30, 1.51767337322235110000e+000) (31, 5.75772762298583980000e-001) (32, 2.04878163337707520000e+000) (33, -1.67453303933143620000e-001) (34, 4.06613731384277340000e+000) (35, -6.94156467914581300000e-001) (36, 2.17782473564147950000e+000) (37, -3.27867120504379270000e-001) (38, 4.41081476211547850000e+000) (39, 4.78326417505741120000e-002) (40, 2.93847513198852540000e+000) (41, -3.57644319534301760000e+000) (42, 3.29476642608642580000e+000) (43, -5.28102540969848630000e+000) (44, -5.45342206954956050000e-001) (45, 1.62365508079528810000e+000) (46, 1.49655032157897950000e+000) (47, 2.46133115142583850000e-002) (48, -3.94457787275314330000e-001) (49, 2.64422154426574710000e+000) (50, 2.17195057868957520000e+000) (51, 1.09072399139404300000e+000) (52, 5.67069530487060550000e-001) (53, -5.29930293560028080000e-001) (54, -7.84247279167175290000e-001) (55, -1.36981904506683350000e+000) (56, 1.66350185871124270000e+000) (57, 1.11645805835723880000e+000) (58, -1.07146573066711430000e+000) (59, -2.43735456466674800000e+000) (60, 1.23696815967559810000e+000) (61, 3.52441954612731930000e+000) (62, 1.91224694252014160000e+000) (63, 4.22836184501647950000e-001) (64, 4.23189431428909300000e-001) (65, -8.42264556884765620000e+000) (66, 6.77977874875068660000e-002) (67, -4.66047190129756930000e-002) (68, 6.98690116405487060000e-001) (0, -2.16678142547607420000e-001) (1, 3.93147826194763180000e-001) (2, 1.25279045104980470000e+000) (3, 9.54683721065521240000e-001) (4, 1.87262141704559330000e+000) (5, -1.01887512207031250000e+000) (6, -6.42778396606445310000e-001) (7, -1.65496855974197390000e-001) (8, 2.03971087932586670000e-001) (9, -3.14677715301513670000e+000) (10, -6.42974317073822020000e-001) (11, 2.34116137027740480000e-001) (12, 2.17799592018127440000e+000) (13, 1.58489894866943360000e+000) (14, 2.54539442062377930000e+000) (15, 8.85275900363922120000e-001) (16, -1.62983524799346920000e+000) (17, -2.80563521385192870000e+000) (18, 1.48395550251007080000e+000) (19, -2.05271720886230470000e+000) (20, 1.39572417736053470000e+000) (21, 3.84593993425369260000e-001) (22, -3.61496955156326290000e-001) (23, -8.29422354698181150000e-001) (24, -7.05954283475875850000e-002) (25, 1.96187973022460940000e+000) (26, 1.98253524303436280000e+000) (27, 1.13777375221252440000e+000) (28, 4.05683088302612300000e+000) (29, 4.39597874879837040000e-001) (30, -5.74911022186279300000e+000) (31, -2.45061087608337400000e+000) (32, -7.65588462352752690000e-001) (33, -1.08905899524688720000e+000) (34, -8.47978532314300540000e-001) (35, 8.35713386535644530000e+000) (36, 4.71106719970703130000e+000) (37, 3.15903401374816890000e+000) (38, 5.47405444085597990000e-002) (39, -1.49211287498474120000e+000) (40, -1.43259143829345700000e+000) (41, -4.03359889984130860000e+000) (42, -7.42893636226654050000e-001) (43, -2.22007322311401370000e+000) (44, -1.27766060829162600000e+000) (45, 8.75814378261566160000e-001) (46, -4.12775665521621700000e-001) (47, 6.00474596023559570000e-001) (48, -1.97318887710571290000e+000) (49, -7.30065584182739260000e-001) (50, -1.93019866943359380000e+000) (51, -3.42775017023086550000e-001) (52, -2.57807094603776930000e-002) (53, -4.77669797837734220000e-002) (54, 1.75396478176116940000e+000) (55, 1.64264351129531860000e-001) (56, 1.23710644245147710000e+000) (57, 1.25411295890808110000e+000) (58, -6.73978567123413090000e-001) (59, 6.49423003196716310000e-001) (60, -1.09578025341033940000e+000) (61, -3.05043315887451170000e+000) (62, -1.92912983894348140000e+000) (63, -6.79384171962738040000e-001) (64, 1.20205797255039220000e-001) (65, -2.69192361831665040000e+000) (66, -1.65531766414642330000e+000) (67, 2.99003750085830690000e-001) (68, -2.78662562370300290000e-001) (69, -2.20073744654655460000e-001) (0, 1.38059532642364500000e+000) (1, 4.83325529098510740000e+000) (2, 1.21891415119171140000e+000) (3, 3.41469931602478030000e+000) (4, 1.86025455594062810000e-001) (5, 3.54031808674335480000e-002) (6, 1.03237056732177730000e+000) (7, 2.58940529823303220000e+000) (8, 1.17164635658264160000e+000) (9, 4.49260330200195310000e+000) (10, 2.54035806655883790000e+000) (11, 4.23248100280761720000e+000) (12, 3.48841130733489990000e-001) (13, 5.40094494819641110000e-001) (14, 1.63042056560516360000e+000) (15, 1.76201426982879640000e+000) (16, -6.44482851028442380000e-001) (17, -1.50838708877563480000e+000) (18, 1.14872705936431880000e+000) (19, -2.38095745444297790000e-001) (20, 1.59127843379974370000e+000) (21, 6.55748426914215090000e-001) (22, 1.64641451835632320000e+000) (23, 1.29497170448303220000e+000) (24, -8.83548319339752200000e-001) (25, 1.81456673145294190000e+000) (26, 4.20024681091308590000e+000) (27, 5.96405923366546630000e-001) (28, 6.14493894577026370000e+000) (29, 8.63677799701690670000e-001) (30, 2.90419745445251460000e+000) (31, -1.02262091636657710000e+000) (32, 9.68755632638931270000e-002) (33, -4.32639241218566890000e-001) (34, 1.56744205951690670000e+000) (35, 6.72932386398315430000e-001) (36, 9.29571807384490970000e-001) (37, -1.57124139368534090000e-002) (38, 1.17816662788391110000e+000) (39, 6.87233626842498780000e-001) (40, 1.25172540545463560000e-001) (41, -1.05544459819793700000e+000) (42, 1.39502441883087160000e+000) (43, -6.76069498062133790000e-001) (44, -2.26943016052246090000e+000) (45, 1.23600792884826660000e+000) (46, 1.42387127876281740000e+000) (47, 2.03459501266479490000e+000) (48, 1.39464497566223140000e+000) (49, 3.02482903003692630000e-001) (50, 7.57723972201347350000e-002) (51, 1.01339077949523930000e+000) (52, 3.00335621833801270000e+000) (53, 1.10613942146301270000e+000) (54, 1.87638425827026370000e+000) (55, -8.03997755050659180000e-001) (56, 2.58123660087585450000e+000) (57, -1.74201822280883790000e+000) (58, 1.44587016105651860000e+000) (59, -1.13452339172363280000e+000) (60, 1.77487576007843020000e+000) (61, -1.74848520755767820000e+000) (62, -5.88733494281768800000e-001) (63, 1.95644393563270570000e-001) (64, 1.39116311073303220000e+000) (65, -7.33741223812103270000e-001) (66, 2.11148357391357420000e+000) (67, -1.54820188879966740000e-001) (68, -1.05628967285156250000e-001) (69, -4.35394495725631710000e-001) (70, -2.04302340745925900000e-001) (0, -3.06119298934936520000e+000) (1, 1.77213504910469060000e-001) (2, 1.75152814388275150000e+000) (3, 1.32661640644073490000e+000) (4, -1.11657366156578060000e-001) (5, -2.95881718397140500000e-001) (6, -1.91900476813316350000e-001) (7, -7.90763795375823970000e-001) (8, -1.17923748493194580000e+000) (9, -3.34248781204223630000e-001) (10, 1.06723535060882570000e+000) (11, 8.38991224765777590000e-001) (12, -1.74197793006896970000e-001) (13, 4.18020516633987430000e-001) (14, 1.21475386619567870000e+000) (15, 1.81691229343414310000e+000) (16, -7.16354703903198240000e+000) (17, 3.58664751052856450000e+000) (18, 7.00800359249114990000e-001) (19, 3.06519174575805660000e+000) (20, 1.25404691696166990000e+000) (21, 6.51811242103576660000e-001) (22, 4.33936119079589840000e-001) (23, -1.42232084274291990000e+000) (24, -7.20798432826995850000e-001) (25, -3.79302591085433960000e-001) (26, -1.95815518498420720000e-001) (27, 1.16233453154563900000e-001) (28, 3.88137012720108030000e-001) (29, -3.71310591697692870000e-001) (30, -3.66758203506469730000e+000) (31, -3.86887454986572270000e+000) (32, -1.01936697959899900000e+000) (33, 1.43745660781860350000e+000) (34, -4.85504388809204100000e-001) (35, 1.53744137287139890000e+000) (36, -1.05914449691772460000e+000) (37, 3.12487387657165530000e+000) (38, -7.01388025283813480000e+000) (39, -2.67073655128479000000e+000) (40, -9.82897400856018070000e-001) (41, 5.82381248474121090000e+000) (42, -1.65448442101478580000e-001) (43, 2.57231044769287110000e+000) (44, -3.74121874570846560000e-001) (45, -3.49909663200378420000e-001) (46, -1.10875225067138670000e+000) (47, -1.43545663356781010000e+000) (48, 1.52634978294372560000e+000) (49, 1.78311504423618320000e-002) (50, -2.56075203418731690000e-001) (51, 4.06596153974533080000e-001) (52, 1.13765168190002440000e+000) (53, 6.49216890335083010000e-001) (54, 3.24606585502624510000e+000) (55, 2.12863683700561520000e+000) (56, -6.67224287986755370000e-001) (57, -2.71096611022949220000e+000) (58, 5.63871741294860840000e-001) (59, -1.25000989437103270000e+000) (60, 2.43016314506530760000e+000) (61, 1.25781118869781490000e+000) (62, 2.68362665176391600000e+000) (63, -4.66241613030433650000e-002) (64, 5.20823299884796140000e-001) (65, 5.68385410308837890000e+000) (66, 1.22848129272460940000e+000) (67, -1.92947939038276670000e-001) (68, 2.50093817710876460000e-001) (69, 2.36951753497123720000e-001) (70, -4.84379902482032780000e-002) (71, 3.88690352439880370000e-001) (0, 8.29532921314239500000e-001) (1, 2.06753897666931150000e+000) (2, 6.74413084983825680000e-001) (3, 1.97784113883972170000e+000) (4, 3.30807161331176760000e+000) (5, -8.52338150143623350000e-002) (6, 2.63824439048767090000e+000) (7, 9.37578082084655760000e-001) (8, -3.79543453454971310000e-001) (9, 1.77168619632720950000e+000) (10, -1.10630571842193600000e-001) (11, 8.59577238559722900000e-001) (12, -1.96928048133850100000e+000) (13, 3.34676861763000490000e-001) (14, -2.20314049720764160000e+000) (15, 6.71372711658477780000e-001) (16, -1.92686450481414790000e+000) (17, 2.24606800079345700000e+000) (18, -3.88434827327728270000e-001) (19, 1.76880359649658200000e+000) (20, 9.48150396347045900000e-001) (21, -6.70269548892974850000e-001) (22, -3.60275864601135250000e+000) (23, -6.39534235000610350000e-001) (24, -7.87622690200805660000e-001) (25, 4.80113649368286130000e+000) (26, 6.81874811649322510000e-001) (27, 1.14647591114044190000e+000) (28, 3.60991072654724120000e+000) (29, 1.80167484283447270000e+000) (30, 1.60349571704864500000e+000) (31, 2.44857692718505860000e+000) (32, 8.02582621574401860000e-001) (33, -1.45679354667663570000e+000) (34, 1.73012185096740720000e+000) (35, -1.04190480709075930000e+000) (36, -9.24853861331939700000e-001) (37, 3.33414040505886080000e-002) (38, 1.89119589328765870000e+000) (39, 1.48467922210693360000e+000) (40, 1.79951941967010500000e+000) (41, 1.68967497348785400000e+000) (42, 1.44023799896240230000e+000) (43, -3.74296426773071290000e-001) (44, 3.50423753261566160000e-001) (45, 1.76036119461059570000e-001) (46, 2.04032135009765620000e+000) (47, 4.32812392711639400000e-001) (48, 6.92213848233222960000e-002) (49, -7.11852405220270160000e-003) (50, 7.29806661605834960000e-001) (51, 1.11720241606235500000e-001) (52, 1.40444660186767580000e+000) (53, 1.24490427970886230000e+000) (54, -1.04643142223358150000e+000) (55, -2.00927329063415530000e+000) (56, -2.01597738265991210000e+000) (57, -2.54494667053222660000e+000) (58, 3.26687598228454590000e+000) (59, 3.71550679206848140000e-001) (60, 1.12053766250610350000e+001) (61, 4.19979363679885860000e-001) (62, 3.37394356727600100000e-001) (63, -1.26395237445831300000e+000) (64, 1.67107033729553220000e+000) (65, -4.74351596832275390000e+000) (66, -7.24263668060302730000e-001) (67, 1.66843593120574950000e-001) (68, 2.74988617748022080000e-002) (69, -1.79783612489700320000e-001) (70, 2.71002292633056640000e-001) (71, 3.52141112089157100000e-001) (72, 2.03681066632270810000e-001) (0, 1.77203500270843510000e+000) (1, 1.76330223679542540000e-001) (2, 3.33316236734390260000e-001) (3, -2.19240352511405940000e-001) (4, -4.86405104398727420000e-001) (5, -3.41625921428203580000e-002) (6, -6.37788116931915280000e-001) (7, 5.48812925815582280000e-001) (8, -1.22849035263061520000e+000) (9, -2.12323093414306640000e+000) (10, -3.16576927900314330000e-001) (11, -1.08025193214416500000e+000) (12, 2.13455632328987120000e-001) (13, 3.00564765930175780000e-001) (14, 1.11746180057525630000e+000) (15, -2.93039232492446900000e-001) (16, -1.09130001068115230000e+000) (17, 1.95549592375755310000e-001) (18, 1.14706051349639890000e+000) (19, 5.68136870861053470000e-001) (20, 2.92904424667358400000e+000) (21, 8.69176924228668210000e-001) (22, 1.52863991260528560000e+000) (23, 2.51257777214050290000e-001) (24, 1.66939094662666320000e-001) (25, 1.03296005725860600000e+000) (26, 3.29022347927093510000e-001) (27, 6.75182044506073000000e-001) (28, 1.32467079162597660000e+000) (29, 2.65469998121261600000e-001) (30, 2.17726278305053710000e+000) (31, 5.16886234283447270000e-001) (32, -1.39971888065338130000e+000) (33, 9.02094125747680660000e-001) (34, 9.16835308074951170000e-001) (35, 1.17837285995483400000e+000) (36, -9.24835383892059330000e-001) (37, 1.10414755344390870000e+000) (38, -6.40719354152679440000e-001) (39, 1.53625318780541420000e-002) (40, 1.00054228305816650000e+000) (41, 1.81649136543273930000e+000) (42, -1.64525902271270750000e+000) (43, 1.22736740112304690000e+000) (44, -1.22862589359283450000e+000) (45, 7.62061357498168950000e-001) (46, 3.34420680999755860000e-001) (47, 8.05833756923675540000e-001) (48, -1.62079703807830810000e+000) (49, 2.37193793058395390000e-001) (50, -2.84686479717493060000e-002) (51, 3.82920913398265840000e-002) (52, -6.59588813781738280000e-001) (53, -7.53910183906555180000e-001) (54, -2.67467546463012700000e+000) (55, -3.04516524076461790000e-001) (56, -6.96658551692962650000e-001) (57, 2.86434578895568850000e+000) (58, -2.06279661506414410000e-002) (59, 1.76676738262176510000e+000) (60, 1.08844828605651860000e+000) (61, -8.83518576622009280000e-001) (62, -1.38494992256164550000e+000) (63, -2.58841454982757570000e-001) (64, -4.18941646814346310000e-001) (65, 1.39521169662475590000e+000) (66, 7.82697081565856930000e-001) (67, -9.36922952532768250000e-002) (68, -9.61617678403854370000e-002) (69, 9.10981148481369020000e-002) (70, -1.81677043437957760000e-002) (71, 3.54966102167963980000e-003) (72, 1.03806145489215850000e-001) (73, -1.10555671155452730000e-001) (0, 1.66255998611450200000e+000) (1, 6.14661693572998050000e-001) (2, -2.45572671294212340000e-001) (3, -2.54974633455276490000e-001) (4, -2.86576509475708010000e-001) (5, -6.78922235965728760000e-002) (6, -7.23096579313278200000e-002) (7, 6.05402648448944090000e-001) (8, 9.38575342297554020000e-002) (9, -3.43075543642044070000e-001) (10, -2.21933022141456600000e-001) (11, -2.78273642063140870000e-001) (12, -3.33677381277084350000e-001) (13, -2.54933059215545650000e-001) (14, -4.32895272970199580000e-001) (15, -5.68059980869293210000e-001) (16, 2.36727881431579590000e+000) (17, -1.91971743106842040000e+000) (18, -6.45684525370597840000e-002) (19, -1.21547257900238040000e+000) (20, -6.65813982486724850000e-001) (21, -2.63957053422927860000e-001) (22, -5.78620024025440220000e-002) (23, 6.68216109275817870000e-001) (24, 1.35729759931564330000e-001) (25, 4.02844771742820740000e-002) (26, 6.10039710998535160000e-001) (27, -1.58193230628967290000e-001) (28, 1.44797936081886290000e-001) (29, 6.63255602121353150000e-002) (30, 2.15694522857666020000e+000) (31, 1.40129578113555910000e+000) (32, 4.39606636762619020000e-001) (33, -6.69594109058380130000e-001) (34, 4.76138651371002200000e-001) (35, -7.16929972171783450000e-001) (36, 6.00448668003082280000e-001) (37, -1.35830342769622800000e+000) (38, 2.75329256057739260000e+000) (39, 1.15695071220397950000e+000) (40, 3.50768417119979860000e-001) (41, -2.57950854301452640000e+000) (42, 1.59825727343559270000e-001) (43, -9.30432736873626710000e-001) (44, -3.59175920486450200000e-001) (45, 5.03666460514068600000e-001) (46, 7.86962509155273440000e-001) (47, 1.08240044116973880000e+000) (48, -6.70564770698547360000e-001) (49, 2.41783440113067630000e-001) (50, 3.40827926993370060000e-002) (51, 8.63738209009170530000e-002) (52, -4.50407713651657100000e-001) (53, -3.99902164936065670000e-001) (54, -1.94770050048828130000e+000) (55, -1.09647965431213380000e+000) (56, 6.29023611545562740000e-001) (57, 1.28832828998565670000e+000) (58, -1.40389919281005860000e-001) (59, 5.37529468536376950000e-001) (60, -6.93727195262908940000e-001) (61, -7.39050328731536870000e-001) (62, -1.46766841411590580000e+000) (63, 4.07702550292015080000e-002) (64, 2.97284275293350220000e-001) (65, -2.46387243270874020000e+000) (66, -3.45463544130325320000e-001) (67, 3.16948406398296360000e-002) (68, -1.23231090605258940000e-001) (69, -1.63823917508125310000e-001) (70, 3.14559377729892730000e-002) (71, -5.23481555283069610000e-002) (72, -3.95266741514205930000e-001) (73, 3.59140522778034210000e-002) (74, 1.00197017192840580000e-001) (0, -1.49734914302825930000e+000) (1, 7.95740783214569090000e-001) (2, 2.64115959405899050000e-001) (3, 9.91779923439025880000e-001) (4, 1.48072838783264160000e-001) (5, 2.33997870236635210000e-002) (6, 3.65488588809967040000e-001) (7, 3.16858023405075070000e-001) (8, 4.74597066640853880000e-001) (9, 1.56292343139648440000e+000) (10, 8.05956482887268070000e-001) (11, 1.42534863948822020000e+000) (12, -1.05362462997436520000e+000) (13, -2.40564882755279540000e-001) (14, -6.76034450531005860000e-001) (15, 3.46488982439041140000e-001) (16, -1.12337268888950350000e-001) (17, -8.95244002342224120000e-001) (18, -3.22807520627975460000e-001) (19, -4.77241367101669310000e-001) (20, -1.85403466224670410000e+000) (21, -5.47863602638244630000e-001) (22, -5.80365061759948730000e-001) (23, -3.28629240393638610000e-002) (24, -8.68063032627105710000e-001) (25, -1.29049861431121830000e+000) (26, 4.55338239669799800000e-001) (27, -4.80713188648223880000e-001) (28, -4.23725306987762450000e-001) (29, -1.76058441400527950000e-001) (30, -1.11491668224334720000e+000) (31, -6.43256366252899170000e-001) (32, 4.29404735565185550000e-001) (33, -8.32152366638183590000e-001) (34, -5.00090420246124270000e-001) (35, -2.59242802858352660000e-001) (36, 5.33484339714050290000e-001) (37, -6.48437917232513430000e-001) (38, 4.26187515258789060000e-001) (39, -9.99230369925498960000e-002) (40, -5.81031978130340580000e-001) (41, -1.38265502452850340000e+000) (42, 1.30734348297119140000e+000) (43, -9.56854164600372310000e-001) (44, -3.58982801437377930000e-001) (45, -2.04589977860450740000e-001) (46, -5.15611886978149410000e-001) (47, 8.05685296654701230000e-003) (48, 8.17674100399017330000e-001) (49, -4.97074723243713380000e-001) (50, -1.16810783743858340000e-001) (51, 1.18147499859333040000e-001) (52, 7.04375088214874270000e-001) (53, 5.78023076057434080000e-001) (54, 1.75223016738891600000e+000) (55, -1.43980920314788820000e-001) (56, 1.03390955924987790000e+000) (57, -2.38108491897583010000e+000) (58, 2.03374102711677550000e-001) (59, -1.71750497817993160000e+000) (60, -2.98231184482574460000e-001) (61, -3.24444437865167860000e-004) (62, 3.47717761993408200000e-001) (63, 1.44529387354850770000e-001) (64, 1.17773866653442380000e+000) (65, -9.25994038581848140000e-001) (66, -1.66742071509361270000e-001) (67, -1.26806600019335750000e-003) (68, 5.15369549393653870000e-002) (69, -2.00213804841041560000e-001) (70, -1.72553379088640210000e-002) (71, 2.83956885337829590000e-001) (72, -1.09105072915554050000e-002) (73, 1.19805023074150090000e-001) (74, -3.95279675722122190000e-001) (0, 9.14388671517372130000e-002) (1, 8.20192098617553710000e-001) (2, 3.51830005645751950000e-001) (3, 1.05932748317718510000e+000) (4, 1.18727171421051030000e+000) (5, -1.58429473638534550000e-001) (6, 1.18852746486663820000e+000) (7, 5.90138554573059080000e-001) (8, -9.91679489612579350000e-001) (9, -8.71534552425146100000e-003) (10, -1.71502321958541870000e-001) (11, 1.35647103190422060000e-001) (12, -1.56921303272247310000e+000) (13, 6.81746602058410640000e-002) (14, -1.32592737674713130000e+000) (15, -2.21435744315385820000e-002) (16, -1.27017629146575930000e+000) (17, 9.75575804710388180000e-001) (18, -1.55597835779190060000e-001) (19, 9.33037519454956050000e-001) (20, 8.87714698910713200000e-002) (21, -5.92046916484832760000e-001) (22, -2.39485430717468260000e+000) (23, -5.86713790893554690000e-001) (24, -1.28022110462188720000e+000) (25, 2.09604597091674800000e+000) (26, 2.56123006343841550000e-001) (27, 4.89171743392944340000e-001) (28, 1.53160429000854490000e+000) (29, 9.13471877574920650000e-001) (30, 9.56667661666870120000e-001) (31, 1.35579919815063480000e+000) (32, -1.04448974132537840000e-001) (33, -9.88991737365722660000e-001) (34, 8.64861786365509030000e-001) (35, -6.87432587146759030000e-001) (36, -8.64880859851837160000e-001) (37, 1.48867547512054440000e-001) (38, 4.25867706537246700000e-001) (39, 9.95293855667114260000e-001) (40, 7.70507156848907470000e-001) (41, 1.17506027221679690000e+000) (42, 7.29922115802764890000e-001) (43, -3.00285726785659790000e-001) (44, 4.01056483387947080000e-002) (45, 2.64452219009399410000e-001) (46, 1.33822607994079590000e+000) (47, 3.63768726587295530000e-001) (48, -4.96562600135803220000e-001) (49, -4.71951067447662350000e-001) (50, 3.29064399003982540000e-001) (51, -1.58936455845832820000e-001) (52, 2.37481087446212770000e-001) (53, 4.76033747196197510000e-001) (54, -1.25539410114288330000e+000) (55, -1.24148607254028320000e+000) (56, -1.81694519519805910000e+000) (57, -1.20490682125091550000e+000) (58, 1.35552728176116940000e+000) (59, 3.32160741090774540000e-001) (60, 6.50966215133666990000e+000) (61, 1.29084080457687380000e-001) (62, -2.24695019423961640000e-002) (63, -7.70122408866882320000e-001) (64, 2.66128301620483400000e-001) (65, -2.37176012992858890000e+000) (66, -4.19393837451934810000e-001) (67, 7.15530663728713990000e-002) (68, -4.46637161076068880000e-003) (69, -1.11052371561527250000e-001) (70, 1.55291438102722170000e-001) (71, 2.16761097311973570000e-001) (72, 1.29638984799385070000e-001) (73, -6.41746640205383300000e-001) (74, 4.01840582489967350000e-002) (0, -1.21402859687805180000e+000) (1, -1.99572074413299560000e+000) (2, 2.16450870037078860000e-001) (3, -8.34028840065002440000e-001) (4, 1.41665959358215330000e+000) (5, 1.67530858516693120000e+000) (6, 6.66859984397888180000e-001) (7, 1.37458789348602290000e+000) (8, 1.24279754236340520000e-002) (9, 9.27553117275238040000e-001) (10, -9.17171657085418700000e-001) (11, 2.56807446479797360000e-001) (12, -3.51164072751998900000e-001) (13, -1.63768374919891360000e+000) (14, -1.55136549472808840000e+000) (15, -3.25559288263320920000e-001) (16, -3.95019501447677610000e-001) (17, -1.62940442562103270000e+000) (18, -4.53177779912948610000e-001) (19, 3.29513818025588990000e-001) (20, -3.87882441282272340000e-001) (21, 4.30638849735260010000e-001) (22, 1.38977086544036870000e+000) (23, 1.32963252067565920000e+000) (24, -1.28987574577331540000e+000) (25, -1.35772955417633060000e+000) (26, 2.17759564518928530000e-001) (27, 6.37626111507415770000e-001) (28, 1.88248062133789060000e+000) (29, 8.28970253467559810000e-001) (30, 3.43656754493713380000e+000) (31, -9.01163339614868160000e-001) (32, -3.06884527206420900000e-001) (33, 3.24552607536315920000e+000) (34, -6.78878128528594970000e-001) (35, -5.68346560001373290000e-001) (36, -1.58457946777343750000e+000) (37, -1.25621664524078370000e+000) (38, -9.06269013881683350000e-001) (39, -7.51943528652191160000e-001) (40, -4.94372606277465820000e-001) (41, -3.03951889276504520000e-001) (42, 1.33162069320678710000e+000) (43, 8.05562615394592290000e-001) (44, 8.33369910717010500000e-001) (45, -8.01601529121398930000e-001) (46, -7.30965197086334230000e-001) (47, -1.59383141994476320000e+000) (48, -4.57553982734680180000e-001) (49, 4.25392955541610720000e-001) (50, 1.09226100146770480000e-001) (51, 5.87480366230010990000e-001) (52, -1.51341497898101810000e-001) (53, -1.42067428678274150000e-002) (54, -6.11441910266876220000e-001) (55, 7.08037316799163820000e-001) (56, 1.18877723813056950000e-001) (57, -9.54395353794097900000e-001) (58, -1.01142883300781250000e+000) (59, -7.88501650094985960000e-002) (60, -1.10368728637695310000e+000) (61, 2.30328869819641110000e+000) (62, 1.29808092117309570000e+000) (63, -4.56344261765480040000e-002) (64, 2.06552684307098390000e-001) (65, -1.95092892646789550000e+000) (66, 1.49265646934509280000e+000) (67, -6.93620324134826660000e-001) (68, 1.93095265422016380000e-003) (69, -2.48126592487096790000e-003) (70, 2.60334629565477370000e-002) (71, 3.12640331685543060000e-003) (72, 1.64231308735907080000e-003) (73, 1.32963461801409720000e-002) (74, 1.66502930223941800000e-002) (0, 2.88398957252502440000e+000) (1, 1.41769134998321530000e+000) (2, -2.47415617108345030000e-001) (3, -1.87908422946929930000e+000) (4, -1.73481094837188720000e+000) (5, -1.42084240913391110000e-001) (6, -7.58263230323791500000e-001) (7, -6.15979075431823730000e-001) (8, -2.08796009421348570000e-001) (9, 5.85450947284698490000e-001) (10, -7.72750616073608400000e-001) (11, -6.11930251121521000000e-001) (12, -1.11772727966308590000e+000) (13, -1.19127929210662840000e+000) (14, -1.49130713939666750000e+000) (15, -1.99358868598937990000e+000) (16, -1.20799326896667480000e+000) (17, -2.38932132720947270000e+000) (18, -1.27467513084411620000e-001) (19, -1.00100445747375490000e+000) (20, 8.49236845970153810000e-001) (21, -5.85405349731445310000e-001) (22, -1.09962499141693120000e+000) (23, -1.35849446058273320000e-001) (24, -1.08671331405639650000e+000) (25, 1.00665116310119630000e+000) (26, -1.74863576889038090000e-001) (27, -2.37970203161239620000e-002) (28, 4.21364873647689820000e-001) (29, -9.87195551395416260000e-001) (30, -7.53077685832977290000e-001) (31, -4.04659211635589600000e-001) (32, -1.07144093513488770000e+000) (33, 1.04455515742301940000e-001) (34, -2.40562105178833010000e+000) (35, 3.85500848293304440000e-001) (36, -1.17185294628143310000e+000) (37, 4.18148368597030640000e-001) (38, -2.42682981491088870000e+000) (39, 3.34901101887226100000e-002) (40, -1.68367743492126460000e+000) (41, 2.15632653236389160000e+000) (42, -1.90751874446868900000e+000) (43, 3.22994852066040040000e+000) (44, 6.84763312339782710000e-001) (45, -1.06646502017974850000e+000) (46, -7.33362793922424320000e-001) (47, -8.09357464313507080000e-002) (48, 3.66381257772445680000e-001) (49, -1.48973560333251950000e+000) (50, -1.32595098018646240000e+000) (51, -6.04952633380889890000e-001) (52, -3.02054256200790410000e-001) (53, 3.15791070461273190000e-001) (54, 5.87611973285675050000e-001) (55, 1.00780606269836430000e+000) (56, -6.75836265087127690000e-001) (57, -5.28810143470764160000e-001) (58, 8.68101358413696290000e-001) (59, 1.54803490638732910000e+000) (60, -7.49039530754089360000e-001) (61, -1.88576805591583250000e+000) (62, -9.73747014999389650000e-001) (63, -2.15371653437614440000e-001) (64, 2.39391636848449710000e+000) (65, 4.85489606857299800000e+000) (66, -4.25177589058876040000e-002) (67, 4.11491915583610530000e-002) (68, -3.98831635713577270000e-001) (69, 7.05861687660217290000e-001) (70, 8.11195117421448230000e-004) (71, -1.73504697158932690000e-003) (72, 4.54731797799468040000e-003) (73, -1.49121852591633800000e-002) (74, -6.74906000494956970000e-003) (0, -1.71262413263320920000e-001) (1, 5.54500818252563480000e-002) (2, 8.98472964763641360000e-001) (3, 6.19695603847503660000e-001) (4, 1.06450366973876950000e+000) (5, -7.44327127933502200000e-001) (6, -5.20784080028533940000e-001) (7, -1.17823727428913120000e-001) (8, 4.94204880669713020000e-003) (9, -2.16992974281311040000e+000) (10, -4.93580639362335210000e-001) (11, 1.91519409418106080000e-001) (12, 1.44128441810607910000e+000) (13, 1.12264776229858400000e+000) (14, 1.71385264396667480000e+000) (15, 5.83101451396942140000e-001) (16, -1.16631925106048580000e+000) (17, -2.10830307006835940000e+000) (18, 1.00225460529327390000e+000) (19, -1.45048129558563230000e+000) (20, 9.01770472526550290000e-001) (21, 2.53256469964981080000e-001) (22, -2.00044631958007810000e-001) (23, -5.38013875484466550000e-001) (24, 2.15644557029008870000e-002) (25, 1.45293545722961430000e+000) (26, 1.35226750373840330000e+000) (27, 8.60303163528442380000e-001) (28, 2.71864962577819820000e+000) (29, 2.46086075901985170000e-001) (30, -3.91594862937927250000e+000) (31, -1.62006604671478270000e+000) (32, -5.32193303108215330000e-001) (33, -7.50822722911834720000e-001) (34, -5.47106802463531490000e-001) (35, 4.99700021743774410000e+000) (36, 3.26132798194885250000e+000) (37, 1.57945859432220460000e+000) (38, -7.30845890939235690000e-003) (39, -1.04851663112640380000e+000) (40, -9.47192847728729250000e-001) (41, -2.69008660316467290000e+000) (42, -4.61573809385299680000e-001) (43, -1.50941860675811770000e+000) (44, -9.97673153877258300000e-001) (45, 6.28654241561889650000e-001) (46, -3.14600497484207150000e-001) (47, 3.72603029012680050000e-001) (48, -1.55809056758880620000e+000) (49, -6.04380607604980470000e-001) (50, -1.43117010593414310000e+000) (51, -2.32922554016113280000e-001) (52, -2.40119379013776780000e-002) (53, -6.82366341352462770000e-002) (54, 1.22563958168029790000e+000) (55, 3.07650361210107800000e-002) (56, 8.54164242744445800000e-001) (57, 7.90484070777893070000e-001) (58, -4.98074412345886230000e-001) (59, 4.59365785121917720000e-001) (60, -7.03579664230346680000e-001) (61, -1.89198696613311770000e+000) (62, -1.32816743850708010000e+000) (63, -5.26820540428161620000e-001) (64, 1.08282148838043210000e+000) (65, -1.72594451904296870000e+000) (66, -1.12391972541809080000e+000) (67, 1.99950188398361210000e-001) (68, -1.90751895308494570000e-001) (69, -1.49842739105224610000e-001) (70, -6.67099654674530030000e-001) (71, -4.46478312369436030000e-004) (72, -4.58852387964725490000e-003) (73, 3.86751443147659300000e-003) (74, -1.17047708481550220000e-002) (0, -3.07623100280761720000e+000) (1, 9.17251780629158020000e-002) (2, -2.17477655410766600000e+000) (3, 1.86544930934906010000e+000) (4, -2.24094700813293460000e+000) (5, -6.38446390628814700000e-001) (6, -3.71358180046081540000e+000) (7, -7.91362881660461430000e-001) (8, -9.81489658355712890000e-001) (9, 1.28104901313781740000e+000) (10, 5.63288688659667970000e-001) (11, 3.18026602268218990000e-001) (12, 1.77585244178771970000e+000) (13, 9.14487302303314210000e-001) (14, 6.73866987228393550000e-001) (15, 1.50530385971069340000e+000) (16, 7.16431975364685060000e-001) (17, 3.28359246253967290000e+000) (18, -7.06016123294830320000e-001) (19, 8.47476363182067870000e-001) (20, -3.88720393180847170000e-001) (21, 1.09463202953338620000e+000) (22, 1.28060865402221680000e+000) (23, 1.58077657222747800000e-001) (24, 2.79313111305236820000e+000) (25, -4.73067998886108400000e-001) (26, -4.03935849666595460000e-001) (27, -6.88462197780609130000e-001) (28, -3.20875674486160280000e-001) (29, 3.18477749824523930000e-001) (30, 6.09404683113098140000e-001) (31, -1.98652803897857670000e-001) (32, -9.55517411231994630000e-001) (33, -1.46870625019073490000e+000) (34, 1.84259760379791260000e+000) (35, -1.22181534767150880000e+000) (36, -5.82264125347137450000e-001) (37, -8.05618703365325930000e-001) (38, 4.20070976018905640000e-001) (39, -7.09283351898193360000e-001) (40, 5.66555082798004150000e-001) (41, -1.72002208232879640000e+000) (42, 1.11550092697143550000e+000) (43, -2.43736481666564940000e+000) (44, -3.15292440354824070000e-002) (45, 5.56952357292175290000e-001) (46, -2.17294305562973020000e-001) (47, -8.13281059265136720000e-001) (48, 9.09564554691314700000e-001) (49, 1.65411758422851560000e+000) (50, 1.18559622764587400000e+000) (51, 1.06511306762695310000e+000) (52, 1.36492848396301270000e-001) (53, 1.24855287373065950000e-001) (54, 2.25390881299972530000e-001) (55, 1.49370685219764710000e-001) (56, 1.22654175758361820000e+000) (57, 7.79777109622955320000e-001) (58, 2.77520835399627690000e-001) (59, -1.28915965557098390000e+000) (60, 1.95018678903579710000e-001) (61, 2.40866947174072270000e+000) (62, 2.24720740318298340000e+000) (63, -3.01526159048080440000e-001) (64, -5.77930986881256100000e-001) (65, -5.38569498062133790000e+000) (66, 2.64138013124465940000e-001) (67, 1.53109252452850340000e-001) (68, 6.76625072956085210000e-001) (69, -6.78557902574539180000e-002) (70, 2.67710611224174500000e-002) (71, -1.20294047519564630000e-002) (72, 4.17646244168281560000e-002) (73, 2.16472651809453960000e-002) (74, 2.08515208214521410000e-002) (0, -7.95744061470031740000e-001) (1, -2.67327237129211430000e+000) (2, -8.22743415832519530000e-001) (3, -1.80749547481536870000e+000) (4, 4.11983519792556760000e-001) (5, 5.79670108854770660000e-002) (6, -3.28550010919570920000e-001) (7, -1.45397293567657470000e+000) (8, 2.17692956328392030000e-001) (9, -1.60760998725891110000e+000) (10, -1.29291689395904540000e+000) (11, -2.30163002014160160000e+000) (12, 1.71887651085853580000e-001) (13, -1.21815726161003110000e-001) (14, -8.73579323291778560000e-001) (15, -8.57624888420104980000e-001) (16, 7.24626123905181880000e-001) (17, 1.08476614952087400000e+000) (18, -7.05801963806152340000e-001) (19, 1.80721908807754520000e-001) (20, -6.00337266921997070000e-001) (21, -2.57120788097381590000e-001) (22, -7.71862924098968510000e-001) (23, -7.08000302314758300000e-001) (24, 7.09775447845458980000e-001) (25, -6.38609588146209720000e-001) (26, -2.32361793518066410000e+000) (27, -3.42269062995910640000e-001) (28, -3.12029123306274410000e+000) (29, -3.13109189271926880000e-001) (30, -1.64434969425201420000e+000) (31, 6.43575668334960940000e-001) (32, 1.38947278261184690000e-001) (33, 2.27573946118354800000e-001) (34, -7.07810580730438230000e-001) (35, -5.25370419025421140000e-001) (36, -4.01571035385131840000e-001) (37, 2.25515544414520260000e-001) (38, -2.75204211473464970000e-001) (39, -2.22241878509521480000e-001) (40, 2.59624838829040530000e-001) (41, 6.02603971958160400000e-001) (42, -7.94664502143859860000e-001) (43, 4.61153596639633180000e-001) (44, 1.39608407020568850000e+000) (45, -7.55527913570404050000e-001) (46, -8.86860668659210210000e-001) (47, -1.15162968635559080000e+000) (48, -4.82585489749908450000e-001) (49, -3.90556268393993380000e-002) (50, -1.28535311669111250000e-002) (51, -5.55705428123474120000e-001) (52, -1.30264246463775630000e+000) (53, -6.16380453109741210000e-001) (54, -6.13551974296569820000e-001) (55, 4.30856972932815550000e-001) (56, -1.15461695194244380000e+000) (57, 8.22704553604125980000e-001) (58, -7.52134501934051510000e-001) (59, 6.46509289741516110000e-001) (60, -1.06774258613586430000e+000) (61, 1.11440896987915040000e+000) (62, 5.85827887058258060000e-001) (63, -4.92951124906539920000e-002) (64, 3.24958562850952150000e+000) (65, 1.04393891990184780000e-001) (66, -1.19398570060729980000e+000) (67, 1.06652684509754180000e-001) (68, 7.24961236119270320000e-002) (69, 2.61155396699905400000e-001) (70, 9.74339693784713750000e-002) (71, -6.84128761291503910000e-001) (72, -1.62392668426036830000e-002) (73, -1.28784459084272380000e-002) (74, -2.97674946486949920000e-002) (0, -1.85377731919288640000e-001) (1, -6.48437976837158200000e-001) (2, 4.33318495750427250000e-001) (3, -4.89429309964179990000e-002) (4, 2.61253535747528080000e-001) (5, 3.32237213850021360000e-001) (6, 1.69668090343475340000e+000) (7, 4.15677517652511600000e-001) (8, 1.10221123695373540000e+000) (9, 3.47302615642547610000e-001) (10, 1.14351415634155270000e+000) (11, 3.94176304340362550000e-001) (12, 1.27668726444244380000e+000) (13, 4.95178788900375370000e-001) (14, 1.11405205726623540000e+000) (15, 2.55900174379348750000e-001) (16, 7.83513188362121580000e-001) (17, 2.07679438591003420000e+000) (18, 4.62085485458374020000e-001) (19, 1.28621745109558110000e+000) (20, 9.07842457294464110000e-001) (21, 7.51562938094139100000e-002) (22, 1.01722395420074460000e+000) (23, -2.56936550140380860000e-001) (24, 8.70630085468292240000e-001) (25, -1.66807889938354490000e-001) (26, 4.77512717247009280000e-001) (27, -6.81981384754180910000e-001) (28, 5.26646971702575680000e-001) (29, 4.51920419931411740000e-001) (30, 9.45204019546508790000e-001) (31, 8.53990972042083740000e-001) (32, 1.43950748443603520000e+000) (33, 4.87974941730499270000e-001) (34, -5.79558610916137700000e-001) (35, -4.28791552782058720000e-001) (36, 2.25555822253227230000e-001) (37, 7.55461037158966060000e-001) (38, -1.87747478485107420000e-001) (39, 5.24106085300445560000e-001) (40, 9.02885377407073970000e-001) (41, 2.29633665084838870000e+000) (42, -1.04901647567749020000e+000) (43, 1.36104273796081540000e+000) (44, 2.33741700649261470000e-001) (45, 1.10484156757593150000e-002) (46, 5.39982676506042480000e-001) (47, 2.81293243169784550000e-001) (48, 6.99511289596557620000e-001) (49, -5.96284866333007810000e-001) (50, 4.33638960123062130000e-001) (51, -4.02886599302291870000e-001) (52, 3.73582959175109860000e-001) (53, -2.63565152883529660000e-001) (54, 1.35831046104431150000e+000) (55, 1.54911130666732790000e-001) (56, 9.28341567516326900000e-001) (57, 8.41520369052886960000e-001) (58, -1.27996289730072020000e+000) (59, 6.59961581230163570000e-001) (60, -5.37763297557830810000e-001) (61, -2.81144440174102780000e-001) (62, 8.80895614624023440000e-001) (63, 8.93990755081176760000e-001) (64, -3.19802188873291020000e+000) (65, 1.19118804931640630000e+001) (66, -4.26985919475555420000e-001) (67, -1.42402481287717820000e-002) (68, -5.57690560817718510000e-002) (69, -8.19688513875007630000e-002) (70, 6.55721873044967650000e-002) (71, 6.26372694969177250000e-002) (72, 1.07081033289432530000e-001) (73, 1.21008165180683140000e-001) (74, -3.51172611117362980000e-002) (0, 1.46851611137390140000e+000) (1, 1.53836405277252200000e+000) (2, 2.79069971293210980000e-002) (3, 1.65866702795028690000e-001) (4, 2.45069518685340880000e-001) (5, 1.84703141450881960000e-001) (6, 4.04856115579605100000e-001) (7, -6.95306181907653810000e-001) (8, -1.84029802680015560000e-001) (9, 6.91196680068969730000e-001) (10, 1.45760744810104370000e-001) (11, 4.82390403747558590000e-001) (12, 1.07632599771022800000e-001) (13, 8.21395814418792720000e-001) (14, 1.94262516498565670000e+000) (15, 9.65992927551269530000e-001) (16, -4.90781396627426150000e-001) (17, 7.69460618495941160000e-001) (18, 4.39957410097122190000e-001) (19, -4.01886284351348880000e-001) (20, 1.13983070850372310000e+000) (21, 7.20730781555175780000e-001) (22, 5.79296827316284180000e-001) (23, 9.03749316930770870000e-002) (24, 2.19564154744148250000e-001) (25, 2.78714418411254880000e-001) (26, 1.85210719704627990000e-001) (27, -9.26897153258323670000e-002) (28, -1.43093657493591310000e+000) (29, -7.97808825969696040000e-001) (30, -1.72112417221069340000e+000) (31, -1.60032880306243900000e+000) (32, 3.41506898403167720000e-001) (33, -1.04159481823444370000e-001) (34, 9.66659605503082280000e-001) (35, -1.73760080337524410000e+000) (36, 3.83129149675369260000e-001) (37, 3.61195027828216550000e-001) (38, 3.63161385059356690000e-001) (39, -6.17542676627635960000e-002) (40, 6.46889984607696530000e-001) (41, 1.36722433567047120000e+000) (42, -9.32233691215515140000e-001) (43, 3.12126100063323970000e-001) (44, -3.28841537237167360000e-001) (45, 7.28889942169189450000e-001) (46, 1.69615387916564940000e+000) (47, 6.72493696212768550000e-001) (48, -1.58482789993286130000e-002) (49, 9.59842741489410400000e-001) (50, 2.62121617794036870000e-001) (51, 6.21499158442020420000e-002) (52, 1.87866315245628360000e-001) (53, -9.58605930209159850000e-002) (54, -1.15374788641929630000e-001) (55, -2.50241924077272420000e-002) (56, -3.27672898769378660000e-001) (57, 3.81237775087356570000e-001) (58, 8.21650147438049320000e-001) (59, -5.52051663398742680000e-001) (60, -6.83297753334045410000e-001) (61, -3.63128304481506350000e-001) (62, -1.16785788536071780000e+000) (63, -1.73734709620475770000e-001) (64, -1.62530148029327390000e+000) (65, -1.97692143917083740000e+000) (66, 2.64561247825622560000e+000) (67, 8.57410579919815060000e-002) (68, 2.07292772829532620000e-002) (69, 1.38834677636623380000e-002) (70, 2.76678744703531270000e-002) (71, 4.93741817772388460000e-002) (72, 6.96618692018091680000e-004) (73, 3.32799963653087620000e-002) (74, 2.80154775828123090000e-002) 
