FANN_FLO_2.1
num_layers=12
learning_rate=0.700000
connection_rate=1.000000
network_type=1
learning_momentum=0.000000
training_algorithm=2
train_error_function=0
train_stop_function=0
cascade_output_change_fraction=0.010000
quickprop_decay=-0.000100
quickprop_mu=1.750000
rprop_increase_factor=1.200000
rprop_decrease_factor=0.500000
rprop_delta_min=0.000000
rprop_delta_max=50.000000
rprop_delta_zero=0.100000
cascade_output_stagnation_epochs=12
cascade_candidate_change_fraction=0.010000
cascade_candidate_stagnation_epochs=12
cascade_max_out_epochs=500
cascade_min_out_epochs=50
cascade_max_cand_epochs=500
cascade_min_cand_epochs=50
cascade_num_candidate_groups=2
bit_fail_limit=3.49999994039535520000e-001
cascade_candidate_limit=1.00000000000000000000e+003
cascade_weight_multiplier=4.00000005960464480000e-001
cascade_activation_functions_count=10
cascade_activation_functions=3 5 7 8 10 11 14 15 16 17 
cascade_activation_steepnesses_count=4
cascade_activation_steepnesses=2.50000000000000000000e-001 5.00000000000000000000e-001 7.50000000000000000000e-001 1.00000000000000000000e+000 
layer_sizes=301 1 1 1 1 1 1 1 1 1 1 10 
scale_included=0
neurons (num_inputs, activation_function, activation_steepness)=(0, 0, 0.00000000000000000000e+000) (0, 0, 0.00000000000000000000e+000) (0, 0, 0.00000000000000000000e+000) (0, 0, 0.00000000000000000000e+000) (0, 0, 0.00000000000000000000e+000) (0, 0, 0.00000000000000000000e+000) (0, 0, 0.00000000000000000000e+000) (0, 0, 0.00000000000000000000e+000) (0, 0, 0.00000000000000000000e+000) (0, 0, 0.00000000000000000000e+000) (0, 0, 0.00000000000000000000e+000) (0, 0, 0.00000000000000000000e+000) (0, 0, 0.00000000000000000000e+000) (0, 0, 0.00000000000000000000e+000) (0, 0, 0.00000000000000000000e+000) (0, 0, 0.00000000000000000000e+000) (0, 0, 0.00000000000000000000e+000) (0, 0, 0.00000000000000000000e+000) (0, 0, 0.00000000000000000000e+000) (0, 0, 0.00000000000000000000e+000) (0, 0, 0.00000000000000000000e+000) (0, 0, 0.00000000000000000000e+000) (0, 0, 0.00000000000000000000e+000) (0, 0, 0.00000000000000000000e+000) (0, 0, 0.00000000000000000000e+000) (0, 0, 0.00000000000000000000e+000) (0, 0, 0.00000000000000000000e+000) (0, 0, 0.00000000000000000000e+000) (0, 0, 0.00000000000000000000e+000) (0, 0, 0.00000000000000000000e+000) (0, 0, 0.00000000000000000000e+000) (0, 0, 0.00000000000000000000e+000) (0, 0, 0.00000000000000000000e+000) (0, 0, 0.00000000000000000000e+000) (0, 0, 0.00000000000000000000e+000) (0, 0, 0.00000000000000000000e+000) (0, 0, 0.00000000000000000000e+000) (0, 0, 0.00000000000000000000e+000) (0, 0, 0.00000000000000000000e+000) (0, 0, 0.00000000000000000000e+000) (0, 0, 0.00000000000000000000e+000) (0, 0, 0.00000000000000000000e+000) (0, 0, 0.00000000000000000000e+000) (0, 0, 0.00000000000000000000e+000) (0, 0, 0.00000000000000000000e+000) (0, 0, 0.00000000000000000000e+000) (0, 0, 0.00000000000000000000e+000) (0, 0, 0.00000000000000000000e+000) (0, 0, 0.00000000000000000000e+000) (0, 0, 0.00000000000000000000e+000) (0, 0, 0.00000000000000000000e+000) (0, 0, 0.00000000000000000000e+000) (0, 0, 0.00000000000000000000e+000) (0, 0, 0.00000000000000000000e+000) (0, 0, 0.00000000000000000000e+000) (0, 0, 0.00000000000000000000e+000) (0, 0, 0.00000000000000000000e+000) (0, 0, 0.00000000000000000000e+000) (0, 0, 0.00000000000000000000e+000) (0, 0, 0.00000000000000000000e+000) (0, 0, 0.00000000000000000000e+000) (0, 0, 0.00000000000000000000e+000) (0, 0, 0.00000000000000000000e+000) (0, 0, 0.00000000000000000000e+000) (0, 0, 0.00000000000000000000e+000) (0, 0, 0.00000000000000000000e+000) (0, 0, 0.00000000000000000000e+000) (0, 0, 0.00000000000000000000e+000) (0, 0, 0.00000000000000000000e+000) (0, 0, 0.00000000000000000000e+000) (0, 0, 0.00000000000000000000e+000) (0, 0, 0.00000000000000000000e+000) (0, 0, 0.00000000000000000000e+000) (0, 0, 0.00000000000000000000e+000) (0, 0, 0.00000000000000000000e+000) (0, 0, 0.00000000000000000000e+000) (0, 0, 0.00000000000000000000e+000) (0, 0, 0.00000000000000000000e+000) (0, 0, 0.00000000000000000000e+000) (0, 0, 0.00000000000000000000e+000) (0, 0, 0.00000000000000000000e+000) (0, 0, 0.00000000000000000000e+000) (0, 0, 0.00000000000000000000e+000) (0, 0, 0.00000000000000000000e+000) (0, 0, 0.00000000000000000000e+000) (0, 0, 0.00000000000000000000e+000) (0, 0, 0.00000000000000000000e+000) (0, 0, 0.00000000000000000000e+000) (0, 0, 0.00000000000000000000e+000) (0, 0, 0.00000000000000000000e+000) (0, 0, 0.00000000000000000000e+000) (0, 0, 0.00000000000000000000e+000) (0, 0, 0.00000000000000000000e+000) (0, 0, 0.00000000000000000000e+000) (0, 0, 0.00000000000000000000e+000) (0, 0, 0.00000000000000000000e+000) (0, 0, 0.00000000000000000000e+000) (0, 0, 0.00000000000000000000e+000) (0, 0, 0.00000000000000000000e+000) (0, 0, 0.00000000000000000000e+000) (0, 0, 0.00000000000000000000e+000) (0, 0, 0.00000000000000000000e+000) (0, 0, 0.00000000000000000000e+000) (0, 0, 0.00000000000000000000e+000) (0, 0, 0.00000000000000000000e+000) (0, 0, 0.00000000000000000000e+000) (0, 0, 0.00000000000000000000e+000) (0, 0, 0.00000000000000000000e+000) (0, 0, 0.00000000000000000000e+000) (0, 0, 0.00000000000000000000e+000) (0, 0, 0.00000000000000000000e+000) (0, 0, 0.00000000000000000000e+000) (0, 0, 0.00000000000000000000e+000) (0, 0, 0.00000000000000000000e+000) (0, 0, 0.00000000000000000000e+000) (0, 0, 0.00000000000000000000e+000) (0, 0, 0.00000000000000000000e+000) (0, 0, 0.00000000000000000000e+000) (0, 0, 0.00000000000000000000e+000) (0, 0, 0.00000000000000000000e+000) (0, 0, 0.00000000000000000000e+000) (0, 0, 0.00000000000000000000e+000) (0, 0, 0.00000000000000000000e+000) (0, 0, 0.00000000000000000000e+000) (0, 0, 0.00000000000000000000e+000) (0, 0, 0.00000000000000000000e+000) (0, 0, 0.00000000000000000000e+000) (0, 0, 0.00000000000000000000e+000) (0, 0, 0.00000000000000000000e+000) (0, 0, 0.00000000000000000000e+000) (0, 0, 0.00000000000000000000e+000) (0, 0, 0.00000000000000000000e+000) (0, 0, 0.00000000000000000000e+000) (0, 0, 0.00000000000000000000e+000) (0, 0, 0.00000000000000000000e+000) (0, 0, 0.00000000000000000000e+000) (0, 0, 0.00000000000000000000e+000) (0, 0, 0.00000000000000000000e+000) (0, 0, 0.00000000000000000000e+000) (0, 0, 0.00000000000000000000e+000) (0, 0, 0.00000000000000000000e+000) (0, 0, 0.00000000000000000000e+000) (0, 0, 0.00000000000000000000e+000) (0, 0, 0.00000000000000000000e+000) (0, 0, 0.00000000000000000000e+000) (0, 0, 0.00000000000000000000e+000) (0, 0, 0.00000000000000000000e+000) (0, 0, 0.00000000000000000000e+000) (0, 0, 0.00000000000000000000e+000) (0, 0, 0.00000000000000000000e+000) (0, 0, 0.00000000000000000000e+000) (0, 0, 0.00000000000000000000e+000) (0, 0, 0.00000000000000000000e+000) (0, 0, 0.00000000000000000000e+000) (0, 0, 0.00000000000000000000e+000) (0, 0, 0.00000000000000000000e+000) (0, 0, 0.00000000000000000000e+000) (0, 0, 0.00000000000000000000e+000) (0, 0, 0.00000000000000000000e+000) (0, 0, 0.00000000000000000000e+000) (0, 0, 0.00000000000000000000e+000) (0, 0, 0.00000000000000000000e+000) (0, 0, 0.00000000000000000000e+000) (0, 0, 0.00000000000000000000e+000) (0, 0, 0.00000000000000000000e+000) (0, 0, 0.00000000000000000000e+000) (0, 0, 0.00000000000000000000e+000) (0, 0, 0.00000000000000000000e+000) (0, 0, 0.00000000000000000000e+000) (0, 0, 0.00000000000000000000e+000) (0, 0, 0.00000000000000000000e+000) (0, 0, 0.00000000000000000000e+000) (0, 0, 0.00000000000000000000e+000) (0, 0, 0.00000000000000000000e+000) (0, 0, 0.00000000000000000000e+000) (0, 0, 0.00000000000000000000e+000) (0, 0, 0.00000000000000000000e+000) (0, 0, 0.00000000000000000000e+000) (0, 0, 0.00000000000000000000e+000) (0, 0, 0.00000000000000000000e+000) (0, 0, 0.00000000000000000000e+000) (0, 0, 0.00000000000000000000e+000) (0, 0, 0.00000000000000000000e+000) (0, 0, 0.00000000000000000000e+000) (0, 0, 0.00000000000000000000e+000) (0, 0, 0.00000000000000000000e+000) (0, 0, 0.00000000000000000000e+000) (0, 0, 0.00000000000000000000e+000) (0, 0, 0.00000000000000000000e+000) (0, 0, 0.00000000000000000000e+000) (0, 0, 0.00000000000000000000e+000) (0, 0, 0.00000000000000000000e+000) (0, 0, 0.00000000000000000000e+000) (0, 0, 0.00000000000000000000e+000) (0, 0, 0.00000000000000000000e+000) (0, 0, 0.00000000000000000000e+000) (0, 0, 0.00000000000000000000e+000) (0, 0, 0.00000000000000000000e+000) (0, 0, 0.00000000000000000000e+000) (0, 0, 0.00000000000000000000e+000) (0, 0, 0.00000000000000000000e+000) (0, 0, 0.00000000000000000000e+000) (0, 0, 0.00000000000000000000e+000) (0, 0, 0.00000000000000000000e+000) (0, 0, 0.00000000000000000000e+000) (0, 0, 0.00000000000000000000e+000) (0, 0, 0.00000000000000000000e+000) (0, 0, 0.00000000000000000000e+000) (0, 0, 0.00000000000000000000e+000) (0, 0, 0.00000000000000000000e+000) (0, 0, 0.00000000000000000000e+000) (0, 0, 0.00000000000000000000e+000) (0, 0, 0.00000000000000000000e+000) (0, 0, 0.00000000000000000000e+000) (0, 0, 0.00000000000000000000e+000) (0, 0, 0.00000000000000000000e+000) (0, 0, 0.00000000000000000000e+000) (0, 0, 0.00000000000000000000e+000) (0, 0, 0.00000000000000000000e+000) (0, 0, 0.00000000000000000000e+000) (0, 0, 0.00000000000000000000e+000) (0, 0, 0.00000000000000000000e+000) (0, 0, 0.00000000000000000000e+000) (0, 0, 0.00000000000000000000e+000) (0, 0, 0.00000000000000000000e+000) (0, 0, 0.00000000000000000000e+000) (0, 0, 0.00000000000000000000e+000) (0, 0, 0.00000000000000000000e+000) (0, 0, 0.00000000000000000000e+000) (0, 0, 0.00000000000000000000e+000) (0, 0, 0.00000000000000000000e+000) (0, 0, 0.00000000000000000000e+000) (0, 0, 0.00000000000000000000e+000) (0, 0, 0.00000000000000000000e+000) (0, 0, 0.00000000000000000000e+000) (0, 0, 0.00000000000000000000e+000) (0, 0, 0.00000000000000000000e+000) (0, 0, 0.00000000000000000000e+000) (0, 0, 0.00000000000000000000e+000) (0, 0, 0.00000000000000000000e+000) (0, 0, 0.00000000000000000000e+000) (0, 0, 0.00000000000000000000e+000) (0, 0, 0.00000000000000000000e+000) (0, 0, 0.00000000000000000000e+000) (0, 0, 0.00000000000000000000e+000) (0, 0, 0.00000000000000000000e+000) (0, 0, 0.00000000000000000000e+000) (0, 0, 0.00000000000000000000e+000) (0, 0, 0.00000000000000000000e+000) (0, 0, 0.00000000000000000000e+000) (0, 0, 0.00000000000000000000e+000) (0, 0, 0.00000000000000000000e+000) (0, 0, 0.00000000000000000000e+000) (0, 0, 0.00000000000000000000e+000) (0, 0, 0.00000000000000000000e+000) (0, 0, 0.00000000000000000000e+000) (0, 0, 0.00000000000000000000e+000) (0, 0, 0.00000000000000000000e+000) (0, 0, 0.00000000000000000000e+000) (0, 0, 0.00000000000000000000e+000) (0, 0, 0.00000000000000000000e+000) (0, 0, 0.00000000000000000000e+000) (0, 0, 0.00000000000000000000e+000) (0, 0, 0.00000000000000000000e+000) (0, 0, 0.00000000000000000000e+000) (0, 0, 0.00000000000000000000e+000) (0, 0, 0.00000000000000000000e+000) (0, 0, 0.00000000000000000000e+000) (0, 0, 0.00000000000000000000e+000) (0, 0, 0.00000000000000000000e+000) (0, 0, 0.00000000000000000000e+000) (0, 0, 0.00000000000000000000e+000) (0, 0, 0.00000000000000000000e+000) (0, 0, 0.00000000000000000000e+000) (0, 0, 0.00000000000000000000e+000) (0, 0, 0.00000000000000000000e+000) (0, 0, 0.00000000000000000000e+000) (0, 0, 0.00000000000000000000e+000) (0, 0, 0.00000000000000000000e+000) (0, 0, 0.00000000000000000000e+000) (0, 0, 0.00000000000000000000e+000) (0, 0, 0.00000000000000000000e+000) (0, 0, 0.00000000000000000000e+000) (0, 0, 0.00000000000000000000e+000) (0, 0, 0.00000000000000000000e+000) (0, 0, 0.00000000000000000000e+000) (0, 0, 0.00000000000000000000e+000) (0, 0, 0.00000000000000000000e+000) (0, 0, 0.00000000000000000000e+000) (0, 0, 0.00000000000000000000e+000) (0, 0, 0.00000000000000000000e+000) (0, 0, 0.00000000000000000000e+000) (0, 0, 0.00000000000000000000e+000) (0, 0, 0.00000000000000000000e+000) (0, 0, 0.00000000000000000000e+000) (0, 0, 0.00000000000000000000e+000) (0, 0, 0.00000000000000000000e+000) (0, 0, 0.00000000000000000000e+000) (0, 0, 0.00000000000000000000e+000) (0, 0, 0.00000000000000000000e+000) (0, 0, 0.00000000000000000000e+000) (301, 3, 2.50000000000000000000e-001) (302, 3, 5.00000000000000000000e-001) (303, 10, 1.00000000000000000000e+000) (304, 3, 7.50000000000000000000e-001) (305, 10, 5.00000000000000000000e-001) (306, 3, 1.00000000000000000000e+000) (307, 10, 1.00000000000000000000e+000) (308, 10, 2.50000000000000000000e-001) (309, 10, 2.50000000000000000000e-001) (310, 10, 2.50000000000000000000e-001) (311, 5, 5.00000000000000000000e-001) (311, 5, 5.00000000000000000000e-001) (311, 5, 5.00000000000000000000e-001) (311, 5, 5.00000000000000000000e-001) (311, 5, 5.00000000000000000000e-001) (311, 5, 5.00000000000000000000e-001) (311, 5, 5.00000000000000000000e-001) (311, 5, 5.00000000000000000000e-001) (311, 5, 5.00000000000000000000e-001) (311, 5, 5.00000000000000000000e-001) 
connections (connected_to_neuron, weight)=(0, 1.50000000000000000000e+003) (1, 1.45113744735717770000e+001) (2, -1.22367382812500000000e+003) (3, -1.04650909423828120000e+002) (4, 3.66512489318847660000e+000) (5, 2.29915026575326920000e-002) (6, -1.19230377674102780000e+000) (7, -1.57984042167663570000e+000) (8, -3.05016100406646730000e-001) (9, 1.16795115172863010000e-001) (10, -2.73083955049514770000e-001) (11, -2.36752414703369140000e+000) (12, -3.08235239982604980000e+000) (13, 2.39266228675842290000e+000) (14, 1.50000000000000000000e+003) (15, -1.32072241976857190000e-002) (16, 2.35104537010192870000e+000) (17, -4.59098291397094730000e+000) (18, -8.15423011779785160000e-001) (19, -1.60061851143836980000e-001) (20, -8.91803860664367680000e-001) (21, -8.22052061557769780000e-001) (22, -4.33948308229446410000e-001) (23, -1.88414439558982850000e-001) (24, 6.75128996372222900000e-001) (25, -7.53826498985290530000e-001) (26, -7.74489700794219970000e-001) (27, 4.39005881547927860000e-001) (28, -7.57861971855163570000e-001) (29, -3.58591407537460330000e-001) (30, 5.98030948638916020000e+000) (31, -1.50000000000000000000e+003) (32, -1.71460139751434330000e+000) (33, 3.58957082033157350000e-001) (34, 2.32558235526084900000e-001) (35, 4.13419395685195920000e-001) (36, 6.57965466380119320000e-002) (37, -1.21615827083587650000e+000) (38, -9.92474138736724850000e-001) (39, -3.35282385349273680000e-001) (40, 1.45952731370925900000e-001) (41, -2.82744675874710080000e-001) (42, 3.03676813840866090000e-001) (43, -9.28072631359100340000e-001) (44, -6.81690335273742680000e-001) (45, -1.60055506229400630000e+000) (46, -8.11974406242370610000e-001) (47, 5.07566094398498540000e-001) (48, 3.85722935199737550000e-001) (49, -7.97394812107086180000e-001) (50, 2.19591669738292690000e-002) (51, 2.26789787411689760000e-001) (52, -9.97015237808227540000e-001) (53, -4.69511568546295170000e-001) (54, -1.30414485931396480000e+000) (55, 7.44477985426783560000e-003) (56, 3.10126274824142460000e-001) (57, -5.38077473640441890000e-001) (58, 7.50813856720924380000e-002) (59, 5.63742303848266600000e+000) (60, -1.50000000000000000000e+003) (61, -3.86959624290466310000e+000) (62, -9.91134867072105410000e-002) (63, 1.59087061882019040000e-001) (64, -6.06669843196868900000e-001) (65, -1.02118122577667240000e+000) (66, 1.32123738527297970000e-001) (67, -7.71574258804321290000e-001) (68, -5.97346365451812740000e-001) (69, -8.83698388934135440000e-002) (70, 6.21837019920349120000e-001) (71, -2.05941629409790040000e+000) (72, 8.49312543869018550000e-002) (73, 4.59340143203735350000e+000) (74, 1.78468215465545650000e+000) (75, 2.49676060676574710000e+000) (76, 5.66503286361694340000e-001) (77, -7.92902588844299320000e-001) (78, 1.71404570341110230000e-001) (79, -7.57238745689392090000e-001) (80, -4.66644167900085450000e-001) (81, -2.76463150978088380000e-001) (82, 2.74865001440048220000e-001) (83, -4.11977559328079220000e-001) (84, 1.45343852043151860000e+000) (85, -1.51569056510925290000e+000) (86, 1.98070153594017030000e-001) (87, 1.06165921688079830000e+000) (88, -5.87177097797393800000e-001) (89, -1.46372827148437500000e+003) (90, 6.78393173217773440000e+000) (91, -1.40498459339141850000e+000) (92, -5.17664015293121340000e-001) (93, 1.69674187898635860000e-001) (94, -3.96482974290847780000e-001) (95, -9.26644280552864070000e-002) (96, 8.28315556049346920000e-001) (97, 6.56458586454391480000e-002) (98, 3.85871648788452150000e-001) (99, -3.44079673290252690000e-001) (100, 5.64945697784423830000e-001) (101, -6.50698006153106690000e-001) (102, -4.80372095108032230000e+000) (103, -8.61328601837158200000e-001) (104, -4.94458961486816410000e+000) (105, -1.50000000000000000000e+003) (106, 1.55741262435913090000e+000) (107, 5.19069612026214600000e-001) (108, 3.63154917955398560000e-001) (109, -8.32135319709777830000e-001) (110, 6.69151127338409420000e-001) (111, -5.58155179023742680000e-001) (112, 1.49644565582275390000e+000) (113, 1.82732522487640380000e-001) (114, -5.61728429794311520000e+000) (115, 4.87482726573944090000e-001) (116, -5.15268611907958980000e+000) (117, -2.46853613853454590000e+000) (118, 2.28932213783264160000e+000) (119, -1.50000000000000000000e+003) (120, -2.95215225219726560000e+000) (121, 4.86072115600109100000e-002) (122, -1.80296987295150760000e-001) (123, -5.82095921039581300000e-001) (124, -6.11406147480010990000e-001) (125, -2.84464836120605470000e-001) (126, -5.29403798282146450000e-002) (127, 4.47564035654067990000e-001) (128, 2.86172717809677120000e-001) (129, -1.14852881431579590000e+000) (130, -8.23486447334289550000e-001) (131, -1.18227660655975340000e+000) (132, -9.51360285282135010000e-001) (133, 1.45375061035156250000e+000) (134, 6.67130184173583980000e+000) (135, 9.94662952423095700000e+000) (136, -1.52329719066619870000e+000) (137, -5.78107416629791260000e-001) (138, 2.75523990392684940000e-001) (139, 1.02866446971893310000e+000) (140, 9.05078232288360600000e-001) (141, 8.45223784446716310000e-001) (142, -5.02118110656738280000e-001) (143, 4.25023287534713750000e-001) (144, 1.72219410538673400000e-001) (145, 2.62049823999404910000e-001) (146, -1.82586312294006350000e-001) (147, -8.80844175815582280000e-001) (148, -2.89942979812622070000e+000) (149, -1.50000000000000000000e+003) (150, 4.29328605532646180000e-002) (151, -9.70411002635955810000e-001) (152, 1.02535045146942140000e+000) (153, 2.19069905579090120000e-002) (154, -4.87659782171249390000e-001) (155, 1.01913586258888240000e-001) (156, -6.36414170265197750000e-001) (157, -5.85087478160858150000e-001) (158, -4.12566691637039180000e-001) (159, 7.06029772758483890000e-001) (160, 4.95390057563781740000e-001) (161, -4.53307956457138060000e-001) (162, -4.57654178142547610000e-001) (163, 1.93431234359741210000e+000) (164, 2.85721349716186520000e+000) (165, 5.38852572441101070000e-001) (166, 6.40343725681304930000e-001) (167, 3.06481808423995970000e-001) (168, 1.08353865146636960000e+000) (169, 5.87901771068573000000e-001) (170, 9.01943445205688480000e-001) (171, 2.64283977448940280000e-002) (172, -7.71534979343414310000e-001) (173, -3.89491289854049680000e-001) (174, -3.45536291599273680000e-001) (175, 2.37735405564308170000e-001) (176, 7.94251635670661930000e-003) (177, 1.17307536303997040000e-001) (178, -5.60833990573883060000e-001) (179, -6.21326863765716550000e-001) (180, 3.04524213075637820000e-001) (181, -5.45132100582122800000e-001) (182, 1.11938691139221190000e+000) (183, -6.87757670879364010000e-001) (184, 1.65556681156158450000e+000) (185, 1.88280320167541500000e+000) (186, -2.68588638305664060000e+000) (187, -5.30077815055847170000e-001) (188, -8.75334963202476500000e-002) (189, -2.62584418058395390000e-001) (190, -1.12782025337219240000e+000) (191, 5.66986143589019780000e-001) (192, 9.21794831752777100000e-001) (193, -3.47526259720325470000e-002) (194, -5.44627726078033450000e-001) (195, -1.21015858650207520000e+000) (196, 2.78054386377334590000e-001) (197, -3.01159322261810300000e-002) (198, 1.15913844108581540000e+000) (199, -2.75274604558944700000e-001) (200, -1.01095390319824220000e+000) (201, -5.11483728885650630000e-001) (202, -2.57300734519958500000e-001) (203, -1.22035777568817140000e+000) (204, -2.61035293340682980000e-001) (205, -1.59398391842842100000e-001) (206, -1.15130012854933740000e-002) (207, -9.92396950721740720000e-001) (208, -5.21441817283630370000e-001) (209, 6.27497732639312740000e-001) (210, 3.67777407169342040000e-001) (211, 1.19931912422180180000e+000) (212, 7.71580860018730160000e-002) (213, -7.06227838993072510000e-001) (214, -3.80889832973480220000e-001) (215, 5.08841395378112790000e-001) (216, 7.93936073780059810000e-001) (217, -5.53445637226104740000e-001) (218, -1.87967729568481450000e+000) (219, -3.08072626590728760000e-001) (220, 1.91094517707824710000e-001) (221, 5.50271421670913700000e-002) (222, 7.99549937248229980000e-001) (223, -5.90156316757202150000e-001) (224, 1.77665877342224120000e+000) (225, 1.04001486301422120000e+000) (226, -4.85797286033630370000e-001) (227, 7.59412407875061040000e-001) (228, 1.81602299213409420000e-001) (229, 3.38647246360778810000e-001) (230, 2.32257649302482600000e-001) (231, -7.56485819816589360000e-001) (232, 2.60104715824127200000e-001) (233, -9.91199433803558350000e-001) (234, 1.33715975284576420000e+000) (235, -2.32020080089569090000e-001) (236, -7.11896419525146480000e-001) (237, 8.47231924533843990000e-001) (238, 5.61694502830505370000e-001) (239, 9.98634219169616700000e-001) (240, 4.17836999893188480000e+000) (241, 1.21689252555370330000e-001) (242, 7.18875825405120850000e-002) (243, 5.22844791412353520000e-001) (244, -1.65447056293487550000e-001) (245, 1.06825299561023710000e-001) (246, 2.60212242603302000000e-001) (247, 2.80766904354095460000e-001) (248, 7.15410768985748290000e-001) (249, -8.40704977512359620000e-001) (250, -9.48761552572250370000e-002) (251, 4.59583044052124020000e-001) (252, -4.27893698215484620000e-001) (253, -5.22719323635101320000e-002) (254, -1.55734252929687500000e+000) (255, -5.98498582839965820000e+000) (256, -1.54121732711791990000e+000) (257, -3.87448340654373170000e-001) (258, 5.51283359527587890000e-001) (259, 9.72233831882476810000e-001) (260, 1.13432312011718750000e+000) (261, -6.56559467315673830000e-001) (262, -1.59265533089637760000e-001) (263, 1.45963519811630250000e-001) (264, 4.46753315627574920000e-002) (265, -7.98996388912200930000e-001) (266, -4.29649919271469120000e-001) (267, 8.48934292793273930000e-001) (268, -1.04826676845550540000e+000) (269, 4.81471002101898190000e-001) (270, 2.10630455017089840000e+001) (271, 2.85315704345703120000e+000) (272, 2.75751233100891110000e-001) (273, -1.20767116546630860000e-001) (274, 3.51901441812515260000e-001) (275, 3.71192425489425660000e-001) (276, -3.36465746164321900000e-001) (277, -2.05245390534400940000e-001) (278, 8.56252074241638180000e-001) (279, 1.89177274703979490000e-001) (280, 1.30517431534826760000e-003) (281, 2.19376862049102780000e-001) (282, 4.98347193002700810000e-001) (283, -7.30904579162597660000e+000) (284, -1.33991980552673340000e+000) (285, 1.50000000000000000000e+003) (286, 7.32373523712158200000e+000) (287, 1.06961607933044430000e+000) (288, 6.89210748672485350000e+000) (289, -7.82122433185577390000e-001) (290, 1.19978284835815430000e+000) (291, 6.34664654731750490000e-001) (292, 1.59118187427520750000e+000) (293, 6.24857507646083830000e-002) (294, 1.11054867506027220000e-001) (295, 1.91898632049560550000e+000) (296, 4.94422137737274170000e-001) (297, -9.88889575004577640000e-001) (298, -6.15344667434692380000e+000) (299, 1.50000000000000000000e+003) (300, -1.67225703597068790000e-001) (0, 1.50000000000000000000e+003) (1, -7.82569824218750000000e+002) (2, -7.19963431358337400000e-001) (3, 3.86129450798034670000e+000) (4, 3.41165423393249510000e+000) (5, 2.73004579544067380000e+000) (6, 1.37307512760162350000e+000) (7, 7.88942217826843260000e-001) (8, -8.83058011531829830000e-001) (9, -4.19604730606079100000e+000) (10, -9.14079093933105470000e+000) (11, -6.10859489440917970000e+000) (12, -7.81593872070312500000e+002) (13, 4.88713645935058590000e+000) (14, 1.50000000000000000000e+003) (15, 5.79899120330810550000e+000) (16, -4.79665040969848630000e+000) (17, 1.07679224014282230000e+000) (18, -6.92765042185783390000e-002) (19, 5.01868605613708500000e-001) (20, 2.16595113277435300000e-001) (21, -2.15150564908981320000e-001) (22, 3.54469597339630130000e-001) (23, -1.21687161922454830000e+000) (24, 1.08658218383789060000e+000) (25, 5.51173686981201170000e-001) (26, 2.95661687850952150000e-001) (27, -2.32850342988967900000e-001) (28, -2.64677000045776370000e+000) (29, -1.64457154273986820000e+000) (30, -1.43863463401794430000e+000) (31, -3.78082084655761720000e+000) (32, -5.81078171730041500000e-001) (33, -8.46800029277801510000e-001) (34, 9.04511094093322750000e-001) (35, 6.34826719760894780000e-001) (36, -5.90301692485809330000e-001) (37, -1.38996982574462890000e+000) (38, 6.86268627643585210000e-001) (39, -6.71470344066619870000e-001) (40, -2.09707140922546390000e-001) (41, -8.91347348690032960000e-001) (42, 4.86818164587020870000e-001) (43, 6.27364337444305420000e-001) (44, -6.84562444686889650000e-001) (45, -1.02110406494140620000e+003) (46, -1.44822454452514650000e+000) (47, 9.43340837955474850000e-001) (48, 1.18512272834777830000e+000) (49, -1.42228022217750550000e-001) (50, -2.68266588449478150000e-001) (51, -1.74468215554952620000e-002) (52, 6.70326948165893550000e-002) (53, 6.64092838764190670000e-001) (54, -5.51704108715057370000e-001) (55, -1.17521834373474120000e+000) (56, -9.55784618854522710000e-001) (57, -9.79637324810028080000e-001) (58, -5.50898350775241850000e-002) (59, -6.62281847000122070000e+000) (60, -6.99536514282226560000e+000) (61, 2.53766274452209470000e+000) (62, 4.39904272556304930000e-001) (63, -1.33492112159729000000e-001) (64, 1.06255984306335450000e+000) (65, -2.26040816307067870000e+000) (66, 6.47142887115478520000e-001) (67, -3.50937247276306150000e-001) (68, 5.96897959709167480000e-001) (69, -6.15194976329803470000e-001) (70, -3.48571203649044040000e-002) (71, -8.43061879277229310000e-002) (72, 3.74482840299606320000e-001) (73, -2.81515926122665410000e-001) (74, -1.31583237648010250000e+000) (75, -1.65057969093322750000e+000) (76, 8.18191096186637880000e-003) (77, -5.95059752464294430000e-001) (78, 1.18047571182250980000e+000) (79, 6.72989428043365480000e-001) (80, 5.93288242816925050000e-001) (81, 1.92391257733106610000e-002) (82, 2.55033940076828000000e-001) (83, -5.22170782089233400000e+000) (84, -1.24888014793396000000e+000) (85, 6.48965090513229370000e-002) (86, -1.07439851760864260000e+000) (87, -2.72944986820220950000e-001) (88, 6.66299879550933840000e-001) (89, -3.91562283039093020000e-001) (90, 1.92565691471099850000e+000) (91, -7.49276340007781980000e-001) (92, 1.44620565697550770000e-002) (93, -7.67972618341445920000e-002) (94, -4.05698210000991820000e-001) (95, -1.54049575328826900000e+000) (96, -4.12070065736770630000e-001) (97, 1.20216786861419680000e+000) (98, 2.04057741165161130000e+000) (99, 6.46008074283599850000e-001) (100, -5.61379373073577880000e-001) (101, -6.12597882747650150000e-001) (102, 8.74161422252655030000e-001) (103, 1.20609056949615480000e+000) (104, -1.09541213512420650000e+000) (105, -1.00667051970958710000e-001) (106, 1.52462756633758540000e+000) (107, 5.79249620437622070000e-001) (108, -6.74721062183380130000e-001) (109, -1.17134071886539460000e-001) (110, 1.12882268428802490000e+000) (111, 6.71137034893035890000e-001) (112, 4.72820729017257690000e-001) (113, 7.86443293094635010000e-001) (114, -1.17184996604919430000e+000) (115, 1.04988142848014830000e-001) (116, 1.11831100657582280000e-002) (117, 1.31058648228645320000e-001) (118, 1.60244986414909360000e-001) (119, -1.66693961620330810000e+000) (120, -8.65430474281311040000e-001) (121, 6.89340114593505860000e-001) (122, -1.76176071166992190000e-001) (123, 9.01143193244934080000e-001) (124, 3.46771717071533200000e-001) (125, -2.98189550638198850000e-001) (126, 4.17370647192001340000e-002) (127, 2.13276696205139160000e+000) (128, -5.53169585764408110000e-002) (129, -2.65367865562438960000e+000) (130, -8.34929168224334720000e-001) (131, -3.28275829553604130000e-001) (132, 1.20334517955780030000e+000) (133, 2.47987198829650880000e+000) (134, -2.49653625488281250000e+000) (135, 1.05303306579589840000e+001) (136, -2.93797492980957030000e+000) (137, -8.09729516506195070000e-001) (138, -8.63184392452239990000e-001) (139, -3.72466474771499630000e-001) (140, 7.52740681171417240000e-001) (141, 9.24962878227233890000e-001) (142, 2.51242041587829590000e-001) (143, 2.68656444549560550000e+000) (144, -6.75876915454864500000e-001) (145, -4.28207218647003170000e-001) (146, 3.30929696559906010000e-001) (147, 2.88208544254302980000e-001) (148, 1.34692680835723880000e+000) (149, 4.68777513504028320000e+000) (150, 2.90706968307495120000e+000) (151, -3.17798495292663570000e+000) (152, 7.13381469249725340000e-001) (153, -1.28238534927368160000e+000) (154, -5.94567656517028810000e-001) (155, 1.12942314147949220000e+000) (156, 3.01245832443237300000e+000) (157, 2.11897253990173340000e+000) (158, -1.13238885998725890000e-001) (159, -1.00202465057373050000e+000) (160, -7.37960398197174070000e-001) (161, 1.14430963993072510000e-001) (162, 8.20575714111328130000e-001) (163, -2.80422598123550420000e-001) (164, -1.19523572921752930000e+000) (165, 5.28464093804359440000e-002) (166, 5.57520031929016110000e-001) (167, -2.44218277931213380000e+000) (168, -9.23971235752105710000e-001) (169, -2.73943400382995610000e+000) (170, 2.33195495605468750000e+000) (171, 3.92547577619552610000e-001) (172, 1.24176073074340820000e+000) (173, -2.84856885671615600000e-001) (174, -1.61838889122009280000e+000) (175, -8.61015319824218750000e-001) (176, 1.57044276595115660000e-001) (177, 2.68752843141555790000e-001) (178, 5.86230754852294920000e-001) (179, 4.43656587600708010000e+000) (180, 6.27016276121139530000e-002) (181, 1.62945592403411870000e+000) (182, 4.16298322379589080000e-002) (183, -3.29367965459823610000e-001) (184, -2.82202816009521480000e+000) (185, -5.48038244247436520000e-001) (186, -2.48703956604003910000e-001) (187, -2.15833380818367000000e-001) (188, 5.04473924636840820000e-001) (189, -1.50016844272613530000e-001) (190, -1.15947626531124110000e-001) (191, -9.81775104999542240000e-001) (192, -2.84592986106872560000e-001) (193, -6.89858436584472660000e-001) (194, -9.41178083419799800000e-001) (195, 9.54479396343231200000e-001) (196, 6.74556851387023930000e-001) (197, -5.37551939487457280000e-001) (198, -4.41223293542861940000e-001) (199, 6.99800968170166020000e-001) (200, -5.42646694183349610000e+000) (201, -5.03900349140167240000e-001) (202, 7.71611094474792480000e-001) (203, 7.53365218639373780000e-001) (204, 7.97173559665679930000e-001) (205, -4.38270658254623410000e-001) (206, -2.60915726423263550000e-001) (207, -2.93045312166213990000e-001) (208, -1.25517916679382320000e+000) (209, -2.16906452178955080000e+000) (210, -3.76792979240417480000e+000) (211, 3.66041994094848630000e+000) (212, -2.31242030858993530000e-001) (213, 5.50509810447692870000e-001) (214, 5.76058253645896910000e-002) (215, 2.21678709983825680000e+000) (216, 2.66495943069458010000e-001) (217, 7.36106455326080320000e-001) (218, 9.17773962020874020000e-001) (219, 4.33621466159820560000e-001) (220, 4.09238338470458980000e-001) (221, -2.23373815417289730000e-001) (222, -3.03711652755737300000e-001) (223, -2.60628104209899900000e-001) (224, -4.46265125274658200000e+000) (225, -5.12313246726989750000e-001) (226, -9.71621274948120120000e-001) (227, -9.46899056434631350000e-001) (228, -8.50308179855346680000e-001) (229, -3.94117981195449830000e-001) (230, 3.95719856023788450000e-001) (231, 1.41366660594940190000e+000) (232, 8.71804833412170410000e-001) (233, 1.28221124410629270000e-001) (234, 1.62191224098205570000e+000) (235, 5.50905764102935790000e-001) (236, -1.11269998550415040000e+000) (237, -1.32482111454010010000e+000) (238, -3.45325946807861330000e+000) (239, 1.96714639663696290000e+000) (240, -8.30652523040771480000e+000) (241, -2.90201973915100100000e+000) (242, -1.81823623180389400000e+000) (243, 1.84416460990905760000e+000) (244, -9.06429171562194820000e-001) (245, -1.42063975334167480000e+000) (246, -9.71690833568573000000e-001) (247, 2.44583994150161740000e-001) (248, -9.42487478256225590000e-001) (249, -1.66172361373901370000e+000) (250, -9.89618957042694090000e-001) (251, 9.73030254244804380000e-002) (252, -4.26804423332214360000e-001) (253, -7.13547766208648680000e-001) (254, 8.03925228118896480000e+000) (255, -1.72863292694091800000e+000) (256, 1.56406199932098390000e+000) (257, -1.84601294994354250000e+000) (258, 9.75565075874328610000e-001) (259, -2.37553954124450680000e+000) (260, -1.02109670639038090000e-001) (261, -8.11371386051177980000e-001) (262, 5.24182796478271480000e-001) (263, 6.81526139378547670000e-002) (264, 1.37598884105682370000e+000) (265, -9.71033394336700440000e-001) (266, -1.04256972670555110000e-001) (267, -1.96150994300842290000e+000) (268, -3.27321004867553710000e+000) (269, -3.49241638183593750000e+000) (270, 1.38443386554718020000e+000) (271, 1.49935233592987060000e+000) (272, 3.20695370435714720000e-001) (273, -2.35036194324493410000e-001) (274, -8.86192560195922850000e-001) (275, -5.96187889575958250000e-001) (276, 2.76320546865463260000e-001) (277, -1.01637101173400880000e+000) (278, 5.20636402070522310000e-002) (279, -1.69868823140859600000e-002) (280, -1.33961200714111330000e-001) (281, -7.21739292144775390000e-001) (282, 3.41859912872314450000e+000) (283, -7.71648064255714420000e-002) (284, 1.22903430461883540000e+000) (285, 1.50000000000000000000e+003) (286, 5.58647537231445310000e+000) (287, -8.99633979797363280000e+000) (288, -8.79499340057373050000e+000) (289, -2.22515058517456050000e+000) (290, 4.50074195861816410000e+000) (291, 1.95098328590393070000e+000) (292, -3.25873422622680660000e+000) (293, -3.26431679725646970000e+000) (294, 2.34539961814880370000e+000) (295, 8.87456321716308590000e+000) (296, 2.85029220581054690000e+000) (297, 1.40399426221847530000e-001) (298, 9.93828594684600830000e-001) (299, 1.50000000000000000000e+003) (300, 3.49561393260955810000e-001) (301, 4.69667816162109380000e+000) (0, 1.50000000000000000000e+003) (1, 2.03940653800964360000e+000) (2, 1.52568352222442630000e+000) (3, 2.02033138275146480000e+000) (4, 7.30862283706665040000e+000) (5, -1.50000000000000000000e+003) (6, -9.80196595191955570000e-001) (7, 1.20867542922496800000e-001) (8, -3.10480982065200810000e-001) (9, -2.70109033584594730000e+000) (10, -3.23859862983226780000e-002) (11, -1.63920179009437560000e-001) (12, -3.09688591957092290000e+000) (13, -1.14671123027801510000e+000) (14, 1.50000000000000000000e+003) (15, -4.30814695358276370000e+000) (16, 8.52825522422790530000e-001) (17, 1.42332375049591060000e+000) (18, 7.34351217746734620000e-001) (19, -5.52831768989562990000e-001) (20, 1.20084449648857120000e-001) (21, -5.54184198379516600000e-001) (22, -7.39275157451629640000e-001) (23, 8.42881649732589720000e-002) (24, 6.46534740924835210000e-001) (25, -6.24816656112670900000e-001) (26, -1.09278345108032230000e+000) (27, -1.55865341424942020000e-001) (28, -7.03571915626525880000e-001) (29, 2.26903843879699710000e+000) (30, 1.67419111728668210000e+000) (31, 9.11795198917388920000e-002) (32, 4.97948199510574340000e-001) (33, 1.18185438215732570000e-001) (34, -7.26200461387634280000e-001) (35, -8.10178756713867190000e-001) (36, 3.38104441761970520000e-002) (37, 4.21771317720413210000e-001) (38, -5.31607091426849370000e-001) (39, -1.76352173089981080000e-001) (40, -1.22610676288604740000e+000) (41, -8.17492783069610600000e-001) (42, -1.81860193610191350000e-001) (43, 1.06497085094451900000e+000) (44, 1.27367174625396730000e+000) (45, 2.01812577247619630000e+000) (46, -4.34907525777816770000e-002) (47, 4.83563542366027830000e-001) (48, 6.88984692096710210000e-001) (49, -6.65799617767333980000e-001) (50, 2.81631171703338620000e-001) (51, -4.20851975679397580000e-001) (52, -3.96010339260101320000e-001) (53, -7.78079807758331300000e-001) (54, -3.52308869361877440000e-001) (55, -1.30293935537338260000e-001) (56, 7.71444261074066160000e-001) (57, 4.27340269088745120000e-001) (58, 8.68157297372817990000e-002) (59, -2.09740257263183590000e+000) (60, 2.23296475410461430000e+000) (61, 2.29312014579772950000e+000) (62, 1.74684536457061770000e+000) (63, -5.02089798450469970000e-001) (64, 7.42099225521087650000e-001) (65, 2.27438688278198240000e-001) (66, -1.28473794460296630000e+000) (67, -9.03533846139907840000e-002) (68, 1.14909243583679200000e+000) (69, -5.47704100608825680000e-001) (70, -6.41344487667083740000e-001) (71, -5.90366244316101070000e-001) (72, 2.05050602555274960000e-001) (73, 1.95454216003417970000e+000) (74, -2.79136991500854490000e+000) (75, -1.50000000000000000000e+003) (76, -1.50000000000000000000e+003) (77, -1.50000000000000000000e+003) (78, -1.50000000000000000000e+003) (79, -1.50000000000000000000e+003) (80, 3.62798995971679690000e+001) (81, -1.50000000000000000000e+003) (82, -1.50000000000000000000e+003) (83, 6.56956005096435550000e+000) (84, -4.69451881945133210000e-002) (85, -9.14494156837463380000e-001) (86, 5.06630949676036830000e-002) (87, 6.58459484577178960000e-001) (88, 9.29628849029541020000e-001) (89, -3.04886245727539060000e+000) (90, -1.50000000000000000000e+003) (91, -1.50000000000000000000e+003) (92, -1.50000000000000000000e+003) (93, -1.50000000000000000000e+003) (94, -1.50000000000000000000e+003) (95, -1.50000000000000000000e+003) (96, -1.50000000000000000000e+003) (97, -1.50000000000000000000e+003) (98, 2.24355429410934450000e-001) (99, 5.25746524333953860000e-001) (100, -8.76943230628967290000e-001) (101, 4.95780020952224730000e-001) (102, -4.15553689002990720000e-001) (103, -4.83675003051757810000e-001) (104, -1.50000000000000000000e+003) (105, -1.50000000000000000000e+003) (106, -1.50000000000000000000e+003) (107, -1.50000000000000000000e+003) (108, -1.50000000000000000000e+003) (109, -1.50000000000000000000e+003) (110, -1.50000000000000000000e+003) (111, -1.50000000000000000000e+003) (112, -1.10557317733764650000e+000) (113, 5.56867778301239010000e-001) (114, -5.78565180301666260000e-001) (115, 6.88121542334556580000e-002) (116, 6.75890982151031490000e-001) (117, -5.35436272621154790000e-001) (118, 7.55482167005538940000e-002) (119, -1.50000000000000000000e+003) (120, -6.05498504638671870000e+000) (121, -1.50000000000000000000e+003) (122, -1.50000000000000000000e+003) (123, -1.50000000000000000000e+003) (124, -1.50000000000000000000e+003) (125, -1.50000000000000000000e+003) (126, 8.38399469852447510000e-001) (127, -6.00438714027404790000e-001) (128, 6.58737242221832280000e-001) (129, -8.01563322544097900000e-001) (130, -8.67923974990844730000e-001) (131, -6.96046650409698490000e-001) (132, 1.10913269221782680000e-001) (133, 6.00324451923370360000e-001) (134, -1.50000000000000000000e+003) (135, -2.15768218040466310000e+000) (136, -1.50000000000000000000e+003) (137, -1.50000000000000000000e+003) (138, -1.50000000000000000000e+003) (139, -8.84336757659912110000e+000) (140, -1.26341938972473140000e-001) (141, -1.30250990390777590000e+000) (142, 3.85094374418258670000e-001) (143, -4.39141452312469480000e-001) (144, -8.00075411796569820000e-001) (145, 1.98046863079071040000e-001) (146, 4.08873967826366420000e-002) (147, -7.05214560031890870000e-001) (148, 6.83943331241607670000e-001) (149, -1.50000000000000000000e+003) (150, 5.36058507859706880000e-002) (151, -1.50000000000000000000e+003) (152, -1.50000000000000000000e+003) (153, -1.50000000000000000000e+003) (154, -1.50000000000000000000e+003) (155, -1.94050133228302000000e+000) (156, 3.44141691923141480000e-001) (157, -3.88748347759246830000e-001) (158, 3.83182376623153690000e-001) (159, -6.99086844921112060000e-001) (160, 5.69961845874786380000e-001) (161, -7.12629497051239010000e-001) (162, -6.34623467922210690000e-001) (163, 1.98806077241897580000e-001) (164, -1.50000000000000000000e+003) (165, 7.43300819396972660000e+000) (166, -1.50000000000000000000e+003) (167, -1.50000000000000000000e+003) (168, -1.50000000000000000000e+003) (169, 5.58488273620605470000e+000) (170, 2.49259901046752930000e+000) (171, 9.66780126094818120000e-001) (172, -6.57137691974639890000e-001) (173, -1.01644384860992430000e+000) (174, 1.85928463935852050000e-001) (175, 1.65671721100807190000e-001) (176, 3.04538402706384660000e-002) (177, -3.46014238893985750000e-002) (178, 3.04757905006408690000e+000) (179, -1.50000000000000000000e+003) (180, 2.96831297874450680000e+000) (181, -1.50000000000000000000e+003) (182, -1.50000000000000000000e+003) (183, -3.30683374404907230000e+000) (184, 6.57404541969299320000e-001) (185, 3.53696614503860470000e-001) (186, 1.32769346237182620000e+000) (187, -5.68309485912323000000e-001) (188, -8.17819654941558840000e-001) (189, -4.20452207326889040000e-001) (190, 2.94414401054382320000e-001) (191, 2.93229311704635620000e-001) (192, -6.03940784931182860000e-001) (193, -1.50000000000000000000e+003) (194, -1.50000000000000000000e+003) (195, -1.97768852114677430000e-001) (196, -1.50000000000000000000e+003) (197, -1.50000000000000000000e+003) (198, 3.11579728126525880000e+000) (199, 7.72836446762084960000e-001) (200, 1.16850340366363530000e+000) (201, -6.01274669170379640000e-001) (202, 6.03131111711263660000e-003) (203, 9.24464583396911620000e-001) (204, 3.96225377917289730000e-002) (205, -1.02079975605010990000e+000) (206, 4.74741667509078980000e-001) (207, 2.81974047422409060000e-001) (208, -1.50000000000000000000e+003) (209, -1.50000000000000000000e+003) (210, 2.78647691011428830000e-001) (211, -1.50000000000000000000e+003) (212, -2.14395904541015620000e+000) (213, -5.80260813236236570000e-001) (214, 6.00132763385772710000e-001) (215, 5.72599887847900390000e-001) (216, -6.77681028842926030000e-001) (217, 2.15914443135261540000e-001) (218, 3.28905731439590450000e-002) (219, 3.52754980325698850000e-001) (220, 8.61451745033264160000e-001) (221, -1.35102104395627980000e-002) (222, 4.26100492477416990000e-001) (223, -2.60250301361083980000e+001) (224, -1.50000000000000000000e+003) (225, 4.63675647974014280000e-001) (226, -1.85377371311187740000e+000) (227, -1.41522586345672610000e+000) (228, 2.33491249382495880000e-002) (229, 8.83998811244964600000e-001) (230, -6.11364126205444340000e-001) (231, 7.96705067157745360000e-001) (232, 1.99324458837509160000e-001) (233, 4.68028724193573000000e-001) (234, -8.46060931682586670000e-001) (235, 3.63159120082855220000e-001) (236, 2.51298069953918460000e-001) (237, -3.18629503250122070000e+000) (238, -1.50000000000000000000e+003) (239, -1.50000000000000000000e+003) (240, -8.24481105804443360000e+000) (241, -3.17316627502441410000e+000) (242, -1.12207496166229250000e+000) (243, -6.16089403629302980000e-001) (244, 2.55147367715835570000e-001) (245, -4.17526036500930790000e-001) (246, 3.87007951736450200000e-001) (247, 4.58336800336837770000e-001) (248, -1.13689970970153810000e+000) (249, 3.14469128847122190000e-001) (250, -5.56704640388488770000e-001) (251, -3.83316785097122190000e-001) (252, -5.54315447807312010000e-001) (253, -1.50000000000000000000e+003) (254, -1.50000000000000000000e+003) (255, 4.97845745086669920000e+000) (256, 1.57616674900054930000e+000) (257, 7.42587298154830930000e-002) (258, 4.10132631659507750000e-002) (259, 1.46668106317520140000e-001) (260, 4.36494708061218260000e-001) (261, -9.30711090564727780000e-001) (262, 3.79608571529388430000e-001) (263, -4.39003184437751770000e-002) (264, -1.08338975906372070000e+000) (265, -2.60190635919570920000e-001) (266, 6.66906595230102540000e-001) (267, -1.50000000000000000000e+003) (268, -1.50000000000000000000e+003) (269, -1.50000000000000000000e+003) (270, 9.87214088439941410000e-001) (271, 1.42490816116333010000e+000) (272, 1.39839470386505130000e+000) (273, 1.17654561996459960000e-001) (274, 8.97258639335632320000e-001) (275, -1.16640937328338620000e+000) (276, -1.06596922874450680000e+000) (277, -1.27449715137481690000e+000) (278, 2.73259103298187260000e-001) (279, -5.79556226730346680000e-001) (280, -1.10681921243667600000e-001) (281, 9.77598428726196290000e-001) (282, -1.50000000000000000000e+003) (283, -1.50000000000000000000e+003) (284, -1.50000000000000000000e+003) (285, 1.50000000000000000000e+003) (286, -1.50000000000000000000e+003) (287, -1.50000000000000000000e+003) (288, 2.67084813117980960000e+000) (289, -3.86658906936645510000e-001) (290, -3.74351406097412110000e+000) (291, 1.66726112365722660000e-002) (292, -7.17588901519775390000e-001) (293, -2.02679419517517090000e+000) (294, 1.62748359143733980000e-002) (295, -1.44793415069580080000e+000) (296, -1.50000000000000000000e+003) (297, -1.50000000000000000000e+003) (298, -1.50000000000000000000e+003) (299, 1.50000000000000000000e+003) (300, -2.51999974250793460000e+000) (301, 1.09274473190307620000e+001) (302, 5.05247786641120910000e-002) (0, 1.50000000000000000000e+003) (1, -1.22194616699218750000e+003) (2, -5.01460815429687500000e+002) (3, -6.65465354919433590000e-001) (4, -1.14936470985412600000e+000) (5, 3.52140903472900390000e-001) (6, 9.11616161465644840000e-002) (7, -1.84497344493865970000e+000) (8, -1.03763532638549800000e+001) (9, -1.59526419639587400000e+000) (10, -1.50000000000000000000e+003) (11, 2.19133090972900390000e+000) (12, -5.24490404129028320000e+000) (13, 6.72970962524414060000e+000) (14, 1.50000000000000000000e+003) (15, 4.97409486770629880000e+000) (16, -8.12653899192810060000e-001) (17, 2.46604338288307190000e-001) (18, -1.44196584820747380000e-001) (19, -3.65345403552055360000e-002) (20, -3.82836669683456420000e-001) (21, -4.94267165660858150000e-001) (22, -2.84485161304473880000e-001) (23, 6.12167716026306150000e-001) (24, -1.43130433559417720000e+000) (25, -1.84272348880767820000e+000) (26, -6.36113047599792480000e-001) (27, -1.63272988796234130000e+000) (28, 8.77361714839935300000e-001) (29, -1.87576735019683840000e+000) (30, -9.83368652343750000000e+002) (31, -1.59892964363098140000e+000) (32, 6.64388775825500490000e-001) (33, -1.04633235931396480000e+000) (34, -2.21555307507514950000e-001) (35, -6.79120421409606930000e-001) (36, 1.94910857826471330000e-002) (37, -4.72650468349456790000e-001) (38, -6.58848285675048830000e-001) (39, -4.03818711638450620000e-002) (40, -8.85449767112731930000e-001) (41, 3.32469314336776730000e-001) (42, -6.60033047199249270000e-001) (43, -2.50075459480285640000e+000) (44, 6.22198534011840820000e+000) (45, 2.08864346146583560000e-001) (46, 3.73669832944870000000e-001) (47, -5.58107078075408940000e-001) (48, 5.28811395168304440000e-001) (49, 7.56068527698516850000e-001) (50, 6.01137161254882810000e-001) (51, -3.06605935096740720000e-001) (52, -6.36618733406066890000e-001) (53, 7.39025950431823730000e-001) (54, -5.12982785701751710000e-001) (55, -2.30711530894041060000e-002) (56, 3.99078756570816040000e-001) (57, 6.18156194686889650000e-001) (58, 2.51987338066101070000e-001) (59, 7.20822930335998540000e-001) (60, 9.20227527618408200000e-001) (61, -3.02255094051361080000e-001) (62, 1.74922674894332890000e-001) (63, 3.91076087951660160000e-001) (64, 6.82581216096878050000e-002) (65, -2.76304572820663450000e-001) (66, -6.74904942512512210000e-001) (67, 4.58907335996627810000e-001) (68, -4.69378352165222170000e-001) (69, -3.56146007776260380000e-001) (70, -5.25516450405120850000e-001) (71, -5.39763510227203370000e-001) (72, 7.42250442504882810000e-001) (73, -3.29626262187957760000e-001) (74, -1.73296630382537840000e-001) (75, 1.00456535816192630000e+000) (76, 3.98273676633834840000e-001) (77, 5.25386214256286620000e-001) (78, -4.18771952390670780000e-001) (79, -1.77086591720581050000e+000) (80, -1.40884935855865480000e+000) (81, -2.06050491333007810000e+000) (82, -1.66930210590362550000e+000) (83, 2.16218805313110350000e+000) (84, -1.36546984314918520000e-001) (85, 5.28570294380187990000e-001) (86, 2.37161934375762940000e-001) (87, -1.14367909729480740000e-001) (88, -7.20454156398773190000e-001) (89, 1.56216824054718020000e+000) (90, 1.15587365627288820000e+000) (91, -6.20451450347900390000e-001) (92, 5.23687183856964110000e-001) (93, -3.39967936277389530000e-001) (94, -7.82065927982330320000e-001) (95, 9.13080096244812010000e-001) (96, 7.11022615432739260000e-001) (97, -2.96109676361083980000e+000) (98, 2.75916051864624020000e+000) (99, 7.03119188547134400000e-002) (100, 1.71555802226066590000e-001) (101, 2.94392824172973630000e-001) (102, 3.63924115896224980000e-001) (103, 9.90627825260162350000e-001) (104, -2.41332793235778810000e+000) (105, 6.56685531139373780000e-001) (106, 1.93214431405067440000e-001) (107, -4.41174834966659550000e-001) (108, -6.62968635559082030000e-001) (109, -6.07573986053466800000e-001) (110, 1.04644334316253660000e+000) (111, -1.54420983791351320000e+000) (112, -1.24699883162975310000e-001) (113, 1.02714918553829190000e-001) (114, -9.04390037059783940000e-001) (115, 1.62739789485931400000e+000) (116, -5.54553456604480740000e-002) (117, 1.82210355997085570000e-001) (118, -2.03413486480712890000e-001) (119, -2.40701651573181150000e+000) (120, -1.11115928649902340000e+002) (121, 3.82455468177795410000e-001) (122, -2.90984451770782470000e-001) (123, 1.24838031828403470000e-001) (124, 9.33420956134796140000e-001) (125, 3.41545867919921870000e+000) (126, -4.91547018289566040000e-001) (127, -1.13089549541473390000e+000) (128, -8.58628988265991210000e-001) (129, -3.67021232843399050000e-001) (130, 4.98665720224380490000e-001) (131, -2.06852853298187260000e-001) (132, 1.86762660741806030000e-001) (133, -1.33896541595458980000e+000) (134, 2.98895692825317380000e+000) (135, -1.88292827606201170000e+001) (136, -1.43761625289916990000e+001) (137, -1.16258943080902100000e+000) (138, 1.44376814365386960000e-001) (139, 6.42954230308532710000e-001) (140, 1.60319507122039790000e-001) (141, 1.19722676277160640000e+000) (142, -2.77264297008514400000e-001) (143, 8.85812938213348390000e-001) (144, -3.00466328859329220000e-001) (145, -3.97621095180511470000e-002) (146, 2.96993166208267210000e-001) (147, 1.30965322256088260000e-001) (148, -3.75206375122070310000e+000) (149, 2.05902266502380370000e+000) (150, -7.35215820312500000000e+002) (151, -5.28994023799896240000e-001) (152, -4.70196336507797240000e-001) (153, -9.30635154247283940000e-001) (154, 1.80618023872375490000e+000) (155, 9.99270796775817870000e-001) (156, 6.68162286281585690000e-001) (157, 1.13188254833221440000e+000) (158, -5.97075223922729490000e-001) (159, 2.18889638781547550000e-001) (160, -7.55150675773620610000e-001) (161, 6.33922398090362550000e-001) (162, -1.22015810012817380000e+000) (163, -3.35435986518859860000e+000) (164, -9.85128906250000000000e+002) (165, 4.68879699707031250000e+000) (166, -1.23149824142456050000e+000) (167, 1.20935067534446720000e-002) (168, 2.37932157516479490000e+000) (169, 7.28489220142364500000e-001) (170, 2.08474183082580570000e+000) (171, 2.62443926185369490000e-002) (172, 1.32166981697082520000e-001) (173, 4.69494730234146120000e-001) (174, -6.97422623634338380000e-001) (175, 5.00568568706512450000e-001) (176, -6.66539520025253300000e-002) (177, -8.04515004158020020000e-001) (178, -3.15572112798690800000e-001) (179, 2.36480045318603520000e+000) (180, 6.18156611919403080000e-001) (181, -1.86961546540260310000e-001) (182, 8.85192081332206730000e-002) (183, 8.27392876148223880000e-001) (184, 3.71009975671768190000e-001) (185, 1.30388200283050540000e-001) (186, -2.95859670639038090000e+000) (187, -1.26800727844238280000e+000) (188, 4.05310809612274170000e-001) (189, -4.78543311357498170000e-001) (190, -1.12388062477111820000e+000) (191, -8.42780888080596920000e-001) (192, -3.32318037748336790000e-001) (193, -5.55023014545440670000e-001) (194, 1.66862085461616520000e-001) (195, 4.35530233383178710000e+000) (196, 1.03104841709136960000e+000) (197, 8.89816820621490480000e-001) (198, -5.32345712184906010000e-001) (199, 1.14875400066375730000e+000) (200, 2.46543139219284060000e-001) (201, -1.48113715648651120000e+000) (202, -5.35836160182952880000e-001) (203, -1.79531896114349370000e+000) (204, -1.31870007514953610000e+000) (205, 9.20191466808319090000e-001) (206, 2.81696021556854250000e-001) (207, 2.48601257801055910000e-001) (208, -1.28927886486053470000e-001) (209, -1.11357069015502930000e+000) (210, -2.89628598839044570000e-002) (211, -1.13273523747920990000e-001) (212, 7.82589435577392580000e-001) (213, 2.64173117466270920000e-003) (214, 7.51650512218475340000e-001) (215, 7.88421154022216800000e-001) (216, -3.41291844844818120000e-001) (217, 4.32225036621093750000e+000) (218, 6.02192759513854980000e-001) (219, -2.55075383186340330000e+000) (220, 1.02563545107841490000e-001) (221, 4.16973084211349490000e-001) (222, -2.33639821410179140000e-001) (223, -5.35112917423248290000e-001) (224, -2.42353439331054690000e+000) (225, 7.43858933448791500000e-001) (226, 1.20087131857872010000e-001) (227, -6.53179049491882320000e-001) (228, 4.26283538341522220000e-001) (229, 2.35283643007278440000e-001) (230, -1.99018526077270510000e+000) (231, -1.09495472908020020000e+000) (232, 6.56264603137969970000e-001) (233, -1.76255846023559570000e+000) (234, 2.00619041919708250000e-001) (235, -1.56456875801086430000e+000) (236, -6.73537135124206540000e-001) (237, -8.34732770919799800000e-001) (238, -2.62221276760101320000e-001) (239, 2.25681424140930180000e+000) (240, -5.07321715354919430000e-001) (241, -9.54817414283752440000e-001) (242, 2.67959356307983400000e-001) (243, -8.10581505298614500000e-001) (244, 7.09112763404846190000e-001) (245, -6.55184328556060790000e-001) (246, 5.34996092319488530000e-001) (247, -9.27404239773750310000e-002) (248, -9.89272952079772950000e-001) (249, 6.04529440402984620000e-001) (250, 2.89084136486053470000e-001) (251, -2.73639678955078130000e-001) (252, -1.95294961333274840000e-001) (253, -7.77830034494400020000e-002) (254, 2.05647277832031250000e+000) (255, -3.78881930373609070000e-003) (256, -1.67429840564727780000e+000) (257, 4.69683676958084110000e-001) (258, -3.80236208438873290000e-001) (259, 9.20179784297943120000e-001) (260, 8.95190298557281490000e-001) (261, -7.71450281143188480000e-001) (262, 3.93925130367279050000e-001) (263, 1.70325964689254760000e-001) (264, -8.25438678264617920000e-001) (265, -1.03185808658599850000e+000) (266, -8.26979756355285640000e-001) (267, -1.39724060893058780000e-001) (268, 1.42504572868347170000e-001) (269, 8.48954296112060550000e+000) (270, 4.34507608413696290000e+000) (271, 3.09086084365844730000e-001) (272, -1.63807237148284910000e+000) (273, 8.60159575939178470000e-001) (274, 6.01016342639923100000e-001) (275, 5.49700677394866940000e-001) (276, 6.68077349662780760000e-001) (277, 6.92182183265686040000e-001) (278, 2.88755029439926150000e-001) (279, 5.23763559758663180000e-002) (280, 4.05919924378395080000e-002) (281, -5.89237570762634280000e-001) (282, -1.18482816219329830000e+000) (283, -5.31364822387695310000e+000) (284, 1.59969961643218990000e+000) (285, 1.50000000000000000000e+003) (286, 3.57239079475402830000e+000) (287, 1.19423043727874760000e+000) (288, -1.46258496093750000000e+003) (289, -6.55446767807006840000e+000) (290, 1.13342858850955960000e-001) (291, -2.21457362174987790000e+000) (292, 4.63141590356826780000e-001) (293, -4.39729951322078700000e-002) (294, -7.44318902492523190000e-001) (295, 1.29939162731170650000e+000) (296, 7.18010377883911130000e+000) (297, 2.45627045631408690000e+000) (298, -3.60390096902847290000e-001) (299, 1.50000000000000000000e+003) (300, -4.31492954492568970000e-001) (301, -2.05644664764404300000e+001) (302, -5.40026016235351560000e+001) (303, -7.32914400100708010000e+000) (0, 1.50000000000000000000e+003) (1, -2.31641769409179690000e+000) (2, 1.03625810146331790000e+000) (3, -2.61583137512207030000e+000) (4, 2.42522740364074710000e+000) (5, 3.66370964050292970000e+000) (6, -2.11539340019226070000e+000) (7, -1.50530827045440670000e+000) (8, 1.87489581108093260000e+000) (9, -5.63700616359710690000e-001) (10, 6.92456305027008060000e-001) (11, 2.64396548271179200000e+000) (12, 3.69178748130798340000e+000) (13, 8.51736366748809810000e-001) (14, 1.50000000000000000000e+003) (15, 4.28112685680389400000e-001) (16, 3.96372616291046140000e-001) (17, 1.34260803461074830000e-001) (18, 1.28053173422813420000e-001) (19, -4.76972550153732300000e-001) (20, 1.16798079013824460000e+000) (21, -4.34716612100601200000e-001) (22, -7.62350976467132570000e-001) (23, 9.85637843608856200000e-001) (24, 9.96366024017333980000e-001) (25, -3.40311348438262940000e-001) (26, -2.56229341030120850000e-001) (27, -5.01223921775817870000e-001) (28, 3.07157397270202640000e-001) (29, 3.81744813919067380000e+000) (30, 3.55282878875732420000e+000) (31, 8.50903391838073730000e-001) (32, -3.20450574159622190000e-001) (33, 8.23482036590576170000e-001) (34, 6.66555404663085940000e-001) (35, -2.96640217304229740000e-001) (36, -6.11048877239227290000e-001) (37, -1.07839167118072510000e+000) (38, -9.10793304443359380000e-001) (39, 9.79166507720947270000e-001) (40, -6.16173684597015380000e-001) (41, 1.72342076897621150000e-001) (42, 5.10079897940158840000e-002) (43, -1.87218025326728820000e-001) (44, -1.20640039443969730000e+000) (45, -6.68163537979125980000e-001) (46, 8.35954844951629640000e-001) (47, -6.34073913097381590000e-001) (48, -6.66919589042663570000e-001) (49, -1.88355341553688050000e-001) (50, -1.01434946060180660000e+000) (51, 4.35340791940689090000e-001) (52, -6.96215480566024780000e-002) (53, -1.22610414028167720000e+000) (54, -3.76898378133773800000e-001) (55, -1.33373871445655820000e-001) (56, 3.48509736359119420000e-002) (57, -1.05066990852355960000e+000) (58, 1.19896793365478520000e+000) (59, 9.43134975433349610000e+000) (60, 5.14702796936035160000e+000) (61, 3.05481284856796260000e-001) (62, 3.31012994050979610000e-001) (63, 2.82026559114456180000e-001) (64, -2.46959179639816280000e-001) (65, 7.21552431583404540000e-001) (66, -7.17401266098022460000e-001) (67, -7.45039582252502440000e-001) (68, -2.63141840696334840000e-001) (69, -4.99321550130844120000e-001) (70, -1.50563955307006840000e+000) (71, -3.20014882087707520000e+000) (72, -2.84404444694519040000e+000) (73, 1.13270215988159180000e+001) (74, -1.50000000000000000000e+003) (75, 5.65667963027954100000e+000) (76, 9.83713641762733460000e-002) (77, -8.38116884231567380000e-001) (78, 3.23825269937515260000e-001) (79, 1.03810131549835210000e+000) (80, -5.12297153472900390000e-001) (81, -1.86529004573822020000e+000) (82, -7.36636221408843990000e-001) (83, 7.82901906967163090000e+000) (84, -3.03359007835388180000e+000) (85, 6.32782459259033200000e+000) (86, -1.50000000000000000000e+003) (87, -1.50000000000000000000e+003) (88, -1.50000000000000000000e+003) (89, 5.30054092407226560000e+000) (90, 1.32704865932464600000e+000) (91, -9.57650393247604370000e-002) (92, -2.06856988370418550000e-002) (93, -1.19535112380981450000e+000) (94, -4.65709984302520750000e-001) (95, -8.29561725258827210000e-002) (96, 2.87152791023254390000e+000) (97, -7.06586122512817380000e+000) (98, -3.17566127777099610000e+001) (99, -1.50000000000000000000e+003) (100, -1.50000000000000000000e+003) (101, -1.50000000000000000000e+003) (102, -1.50000000000000000000e+003) (103, -1.50000000000000000000e+003) (104, -1.50000000000000000000e+003) (105, 5.96667718887329100000e+000) (106, -1.31611526012420650000e-001) (107, -4.02991592884063720000e-001) (108, 4.99360203742980960000e-001) (109, -1.36299884319305420000e+000) (110, 7.90792405605316160000e-001) (111, -3.99094611406326290000e-001) (112, 8.69656205177307130000e-001) (113, 2.71817874908447270000e+000) (114, 3.77566456794738770000e-001) (115, -3.06760168075561520000e+000) (116, -1.50000000000000000000e+003) (117, -1.50000000000000000000e+003) (118, -1.50000000000000000000e+003) (119, -1.50000000000000000000e+003) (120, 3.40616202354431150000e+000) (121, -1.39846146106719970000e-001) (122, 4.51613157987594600000e-001) (123, -1.93651854991912840000e-001) (124, 3.17486405372619630000e-001) (125, -1.44469630718231200000e+000) (126, -3.86773198843002320000e-001) (127, 7.49652367085218430000e-003) (128, 2.31957197189331050000e-001) (129, -1.01016116142272950000e+000) (130, 1.36018919944763180000e+000) (131, 1.20927822589874270000e+000) (132, -1.50000000000000000000e+003) (133, -1.50000000000000000000e+003) (134, 1.50000000000000000000e+003) (135, -1.13234739303588870000e+001) (136, 5.73493987321853640000e-002) (137, -3.13504785299301150000e-003) (138, -1.08377850055694580000e+000) (139, 3.12123805284500120000e-001) (140, -1.70696184039115910000e-001) (141, 8.72925400733947750000e-001) (142, 1.85157284140586850000e-001) (143, -7.24411487579345700000e-001) (144, 2.20801696181297300000e-001) (145, -1.57870233058929440000e-001) (146, -6.05711340904235840000e-001) (147, -3.15457135438919070000e-001) (148, -8.49035322666168210000e-001) (149, 2.56172871589660640000e+000) (150, 1.88151950836181640000e+001) (151, 1.55603575706481930000e+000) (152, -9.35312986373901370000e-001) (153, 1.42143145203590390000e-001) (154, 1.34405428543686870000e-002) (155, 1.48077942430973050000e-002) (156, 4.08318847417831420000e-001) (157, 2.20993548631668090000e-001) (158, -9.88983988761901860000e-001) (159, 1.99190005660057070000e-001) (160, -9.33532118797302250000e-002) (161, 2.71223843097686770000e-001) (162, -2.74769663810729980000e-001) (163, -5.41194751858711240000e-002) (164, 2.33969736099243160000e+000) (165, -1.50000000000000000000e+003) (166, 1.37849302291870120000e+001) (167, 3.88415670394897460000e+000) (168, 3.83708000183105470000e+000) (169, 7.12401723861694340000e+000) (170, 1.35751409530639650000e+001) (171, 4.83393335342407230000e+000) (172, 7.75614213943481450000e+000) (173, 2.71665048599243160000e+000) (174, -1.81586062908172610000e+000) (175, -5.79681038856506350000e-001) (176, 2.08578199148178100000e-001) (177, 4.77851539850234990000e-001) (178, 7.23477482795715330000e-001) (179, 4.08389997482299800000e+000) (180, -1.50000000000000000000e+003) (181, -1.50000000000000000000e+003) (182, -1.50000000000000000000e+003) (183, -1.50000000000000000000e+003) (184, -1.50000000000000000000e+003) (185, -1.50000000000000000000e+003) (186, -1.50000000000000000000e+003) (187, -2.54334621429443360000e+001) (188, -2.03836846351623540000e+000) (189, -2.45847654342651370000e+000) (190, 1.22377075254917140000e-001) (191, 4.01874035596847530000e-001) (192, -8.85538876056671140000e-001) (193, -2.37487748265266420000e-001) (194, 6.11948817968368530000e-002) (195, -1.50000000000000000000e+003) (196, -1.50000000000000000000e+003) (197, 1.32038536071777340000e+001) (198, 1.67309131622314450000e+001) (199, 2.21187210083007810000e+000) (200, -1.50000000000000000000e+003) (201, -1.50000000000000000000e+003) (202, -1.50000000000000000000e+003) (203, 2.27423858642578130000e+000) (204, -1.55620229244232180000e+000) (205, 2.42408663034439090000e-002) (206, -4.59483832120895390000e-001) (207, -1.06540167331695560000e+000) (208, -4.98735636472702030000e-001) (209, -3.56299668550491330000e-001) (210, -1.50000000000000000000e+003) (211, -1.50000000000000000000e+003) (212, -3.96169692277908330000e-001) (213, -1.76917567849159240000e-001) (214, -8.13212990760803220000e-001) (215, 5.03699541091918950000e+000) (216, 4.94121885299682620000e+000) (217, -7.92249500751495360000e-001) (218, 2.48857069015502930000e+000) (219, 2.15432979166507720000e-003) (220, -3.52797299623489380000e-001) (221, 7.10123553872108460000e-002) (222, -6.27819716930389400000e-001) (223, -6.21211767196655270000e-001) (224, -7.78284609317779540000e-001) (225, -1.50000000000000000000e+003) (226, -6.94434106349945070000e-001) (227, 4.94976304471492770000e-002) (228, -7.82349944114685060000e-001) (229, 6.13862037658691410000e-001) (230, 2.04378202557563780000e-001) (231, 1.41040718555450440000e+000) (232, -9.53015208244323730000e-001) (233, -4.19411331415176390000e-001) (234, 4.87792372703552250000e-001) (235, -1.18493950366973880000e+000) (236, -1.29597514867782590000e-001) (237, -1.19036591053009030000e+000) (238, 4.93400059640407560000e-002) (239, 8.58834624290466310000e-001) (240, 3.08910918235778810000e+000) (241, 2.93580818176269530000e+000) (242, -7.84736156463623050000e-001) (243, 4.02949541807174680000e-001) (244, -3.60532224178314210000e-001) (245, -2.85663127899169920000e-001) (246, 7.96899795532226560000e-001) (247, -1.74007624387741090000e-001) (248, -8.02228271961212160000e-001) (249, 3.85991007089614870000e-001) (250, -8.10761332511901860000e-001) (251, -3.19399714469909670000e-001) (252, 1.75537064671516420000e-001) (253, 2.00734519958496090000e+000) (254, -3.04916143417358400000e+000) (255, 1.53017985820770260000e+000) (256, 2.14268732070922850000e+000) (257, -6.19354903697967530000e-001) (258, -9.48730111122131350000e-002) (259, 2.61641651391983030000e-001) (260, 3.04484009742736820000e-001) (261, 7.05028474330902100000e-001) (262, -7.40414738655090330000e-001) (263, -6.98312520980834960000e-001) (264, 6.80814146995544430000e-001) (265, -7.16269791126251220000e-001) (266, -7.88520038127899170000e-001) (267, -1.17374503612518310000e+000) (268, -7.37879335880279540000e-001) (269, 3.10365653038024900000e+000) (270, -1.50000000000000000000e+003) (271, 8.01682293415069580000e-001) (272, -4.56049978733062740000e-001) (273, 9.21170935034751890000e-002) (274, 1.36578410863876340000e-001) (275, -4.92746643722057340000e-002) (276, 2.90432542562484740000e-001) (277, 1.01778101921081540000e+000) (278, 9.05941069126129150000e-001) (279, -5.95772862434387210000e-002) (280, 9.88274693489074710000e-001) (281, 3.52028638124465940000e-001) (282, 1.03729271888732910000e+000) (283, -1.50000000000000000000e+003) (284, -1.50000000000000000000e+003) (285, 1.50000000000000000000e+003) (286, -1.50000000000000000000e+003) (287, 1.38312351703643800000e+000) (288, 2.34736013412475590000e+000) (289, 1.07977075576782230000e+001) (290, 1.63525670766830440000e-001) (291, 1.29454493522644040000e+000) (292, 3.69286149740219120000e-001) (293, 1.28573727607727050000e+000) (294, 2.89003014564514160000e-001) (295, 2.16037607192993160000e+000) (296, -1.50000000000000000000e+003) (297, -1.50000000000000000000e+003) (298, -1.50000000000000000000e+003) (299, 1.50000000000000000000e+003) (300, -5.99893987178802490000e-001) (301, 7.74669408798217770000e+000) (302, -6.67496109008789060000e+001) (303, -1.18590679168701170000e+001) (304, 6.29100265502929690000e+001) (0, 1.50000000000000000000e+003) (1, -6.71606659889221190000e-001) (2, 3.46472635865211490000e-002) (3, -4.58674207329750060000e-002) (4, -1.46101808547973630000e+000) (5, 2.43965268135070800000e+000) (6, -1.04376244544982910000e+000) (7, -6.16013944149017330000e-001) (8, -1.03545153141021730000e+000) (9, -1.61510789394378660000e+000) (10, 4.25413656234741210000e+000) (11, 7.25905060768127440000e-001) (12, -2.40745568275451660000e+000) (13, 2.55218118429183960000e-001) (14, 1.50000000000000000000e+003) (15, 9.39459323883056640000e-001) (16, 1.48834705352783200000e+000) (17, 2.17016283422708510000e-002) (18, 7.58697912096977230000e-002) (19, 7.40294635295867920000e-001) (20, 4.33252960443496700000e-001) (21, -3.93594056367874150000e-003) (22, -1.31837177276611330000e+000) (23, -1.71545520424842830000e-001) (24, 6.79557502269744870000e-001) (25, 4.42830380052328110000e-003) (26, -7.49705061316490170000e-002) (27, -1.28656774759292600000e-001) (28, -5.59925019741058350000e-001) (29, -4.25576865673065190000e-001) (30, -5.27425527572631840000e-001) (31, -8.33817571401596070000e-002) (32, -7.54054635763168330000e-002) (33, 7.58291006088256840000e-001) (34, -3.86774659156799320000e-001) (35, 2.61295646429061890000e-001) (36, -4.65766310691833500000e-001) (37, -5.24323940277099610000e-001) (38, -8.62580955028533940000e-001) (39, -7.49126195907592770000e-001) (40, -5.95200121402740480000e-001) (41, -4.16230618953704830000e-001) (42, -6.18911013007164000000e-002) (43, 5.43058037757873540000e-001) (44, -1.94586801528930660000e+000) (45, -5.07581770420074460000e-001) (46, -3.43387186527252200000e-001) (47, -8.62777173519134520000e-001) (48, 9.77262973785400390000e-001) (49, -5.31322240829467770000e-001) (50, -1.57632306218147280000e-001) (51, -7.56646752357482910000e-001) (52, 2.81102806329727170000e-001) (53, 1.35990018025040630000e-002) (54, -4.50034707784652710000e-001) (55, 2.90913343429565430000e-001) (56, -9.87573504447937010000e-001) (57, 4.87101823091506960000e-001) (58, 1.25211858749389650000e+000) (59, 1.16546463966369630000e+000) (60, 2.69918942451477050000e+000) (61, 1.60383284091949460000e+000) (62, 1.03920912742614750000e+000) (63, -8.99997115135192870000e-001) (64, 3.99349153041839600000e-001) (65, -4.31864321231842040000e-001) (66, 1.35101354122161870000e+000) (67, 3.28685157001018520000e-002) (68, -6.85223862528800960000e-002) (69, 5.64139902591705320000e-001) (70, -4.76535320281982420000e-001) (71, 8.06124866008758540000e-001) (72, 2.68996417522430420000e-001) (73, -1.15672278404235840000e+000) (74, 3.47188282012939450000e+000) (75, -1.42055487632751460000e+000) (76, -8.29558372497558590000e-001) (77, -9.67749893665313720000e-001) (78, -7.89190530776977540000e-001) (79, -1.14379239082336430000e+000) (80, 1.56052913516759870000e-002) (81, -7.11782455444335940000e-001) (82, -2.17369243502616880000e-001) (83, 1.84521898627281190000e-001) (84, -1.84954833239316940000e-002) (85, 9.42886173725128170000e-001) (86, -4.51830327510833740000e-001) (87, -1.22235429286956790000e+000) (88, 5.64656615257263180000e-001) (89, -1.75472676753997800000e+000) (90, 1.21508464813232420000e+001) (91, 3.22155356407165530000e-001) (92, 1.22658157348632810000e+000) (93, 2.63735800981521610000e-001) (94, -4.31108891963958740000e-001) (95, -2.78104454278945920000e-001) (96, -5.85610382258892060000e-002) (97, 5.90295791625976560000e-001) (98, 3.24376881122589110000e-001) (99, 1.11125576496124270000e+000) (100, -1.42663493752479550000e-001) (101, -5.11753976345062260000e-001) (102, -1.26142418384552000000e+000) (103, -1.28759920597076420000e+000) (104, -8.74146938323974610000e-001) (105, -1.06373872756958010000e+001) (106, 2.12587684392929080000e-001) (107, -1.76713049411773680000e-001) (108, -2.32959330081939700000e-001) (109, -1.20177757740020750000e+000) (110, 3.87308627367019650000e-001) (111, -6.94924175739288330000e-001) (112, 2.91714876890182500000e-001) (113, -4.84754405915737150000e-002) (114, 4.22892868518829350000e-001) (115, 7.21897304058074950000e-001) (116, -6.04052186012268070000e-001) (117, -8.22258174419403080000e-001) (118, 5.22991776466369630000e-001) (119, 4.36317110061645510000e+000) (120, 3.08420538902282710000e-001) (121, -1.23557443618774410000e+001) (122, 1.65119141340255740000e-001) (123, 4.13573235273361210000e-002) (124, 1.33571982383728030000e-001) (125, -2.22193026542663570000e+000) (126, 7.22362935543060300000e-001) (127, 3.79793226718902590000e-001) (128, 1.03844106197357180000e+000) (129, -6.55293345451354980000e-001) (130, 5.46210408210754390000e-001) (131, -3.25382518768310550000e+000) (132, -1.23860130310058590000e+001) (133, -1.22587673366069790000e-001) (134, 6.92921698093414310000e-001) (135, -7.13048800826072690000e-002) (136, -3.11719169616699220000e+001) (137, 4.35106188058853150000e-001) (138, -3.26933801174163820000e-001) (139, 1.84494972229003910000e-001) (140, 7.79815986752510070000e-002) (141, -1.10984897613525390000e+000) (142, 9.71943616867065430000e-001) (143, 9.65665876865386960000e-001) (144, -4.27535384893417360000e-001) (145, -5.01732707023620610000e-001) (146, 4.19041477143764500000e-002) (147, -9.23319756984710690000e-001) (148, 1.02800391614437100000e-001) (149, -6.98129117488861080000e-001) (150, 3.88685345649719240000e+000) (151, -5.27938079833984370000e+000) (152, -3.93883079290390010000e-001) (153, 6.79830133914947510000e-001) (154, 4.85716223716735840000e-001) (155, -1.75022280216217040000e+000) (156, 3.91153246164321900000e-001) (157, 2.10286998748779300000e+000) (158, -3.89122724533081050000e-001) (159, 7.82859563827514650000e-001) (160, 5.10346531867980960000e-001) (161, 7.74498581886291500000e-001) (162, -1.07497654855251310000e-001) (163, 6.16215705871582030000e-001) (164, 8.45267176628112790000e-001) (165, 1.19598751068115230000e+001) (166, 1.00083298981189730000e-001) (167, 8.13294768333435060000e-001) (168, -1.28635847568511960000e+000) (169, 2.25561246275901790000e-001) (170, 8.17634165287017820000e-001) (171, -3.42099690437316890000e+000) (172, -5.26825964450836180000e-001) (173, -7.58699253201484680000e-002) (174, 3.72228622436523440000e-002) (175, 2.39868357777595520000e-001) (176, 4.79013621807098390000e-001) (177, -5.07758617401123050000e-001) (178, -6.07401251792907710000e-001) (179, -2.95289211273193360000e+001) (180, 1.30405580997467040000e+000) (181, 1.36001086235046390000e+000) (182, 1.65783450007438660000e-001) (183, 5.61493001878261570000e-002) (184, -2.33833193778991700000e-001) (185, -8.17392468452453610000e-001) (186, -1.06990516185760500000e+000) (187, -2.90489053726196290000e+000) (188, -1.29283666610717770000e+000) (189, -3.78654122352600100000e-001) (190, 9.22934830188751220000e-001) (191, -3.61368447542190550000e-001) (192, -7.85981237888336180000e-001) (193, 1.11496293544769290000e+000) (194, 6.35330438613891600000e-001) (195, -5.64454458653926850000e-002) (196, 2.33584523200988770000e-001) (197, -2.89222985506057740000e-001) (198, -7.68449008464813230000e-001) (199, 9.20411705970764160000e-001) (200, -2.87671834230422970000e-001) (201, 4.67040359973907470000e-001) (202, -3.65544229745864870000e-001) (203, 1.14472258090972900000e+000) (204, -7.43939697742462160000e-001) (205, 1.35709121823310850000e-001) (206, 3.61328214406967160000e-001) (207, -9.19274568557739260000e-001) (208, 1.23303449153900150000e+000) (209, 2.10750728845596310000e-001) (210, 7.03414201736450200000e-001) (211, 1.21692121028900150000e-001) (212, 7.03825652599334720000e-001) (213, 3.84140908718109130000e-001) (214, -8.47211062908172610000e-001) (215, -1.23411345481872560000e+000) (216, 1.03728079795837400000e+000) (217, 4.51961219310760500000e-001) (218, -6.64184629917144780000e-001) (219, -2.74882346391677860000e-001) (220, 3.57670933008193970000e-001) (221, 1.95616737008094790000e-001) (222, 6.58089756965637210000e-001) (223, -3.96728754043579100000e-001) (224, -2.87183189392089840000e+000) (225, -3.43302607536315920000e-001) (226, 1.03063419461250310000e-001) (227, 2.51589983701705930000e-001) (228, 2.00332999229431150000e-001) (229, -5.70991992950439450000e-001) (230, -5.45398116111755370000e-001) (231, 1.80036520957946780000e+000) (232, -1.93061709403991700000e-001) (233, -7.37717628479003910000e-001) (234, 6.22401237487792970000e-001) (235, -8.90464961528778080000e-001) (236, 3.49090853706002240000e-003) (237, -8.80970954895019530000e-001) (238, -4.05259430408477780000e-001) (239, 4.94798928499221800000e-001) (240, 7.89594054222106930000e-001) (241, 2.02485650777816770000e-001) (242, 7.83611953258514400000e-001) (243, 8.25230553746223450000e-002) (244, 4.90673094987869260000e-001) (245, 3.43556463718414310000e-001) (246, 1.86210930347442630000e-001) (247, 1.75925329327583310000e-001) (248, 3.20046544075012210000e-001) (249, 5.93692898750305180000e-001) (250, 1.28529697656631470000e-001) (251, 2.84942179918289180000e-001) (252, -9.01991546154022220000e-001) (253, -3.48816849291324620000e-002) (254, -6.59179985523223880000e-001) (255, -6.86106085777282710000e-001) (256, 1.18085391819477080000e-001) (257, 5.29946833848953250000e-002) (258, -1.11222338676452640000e+000) (259, 3.26314777135849000000e-001) (260, -3.65670531988143920000e-001) (261, 1.63464084267616270000e-001) (262, 1.69233426451683040000e-001) (263, 1.01677668094635010000e+000) (264, -6.73486053943634030000e-001) (265, -1.00393235683441160000e+000) (266, 1.07364729046821590000e-001) (267, 5.64032196998596190000e-001) (268, 3.12363713979721070000e-001) (269, 1.12230908870697020000e+000) (270, 2.88461017608642580000e+000) (271, -7.06138789653778080000e-001) (272, 5.19612610340118410000e-001) (273, 1.80428996682167050000e-002) (274, 2.38178133964538570000e-001) (275, -9.35573995113372800000e-001) (276, 9.82746660709381100000e-001) (277, -1.97186805307865140000e-002) (278, -8.16921532154083250000e-001) (279, 9.52404439449310300000e-001) (280, -5.94397544860839840000e-001) (281, -7.37966820597648620000e-002) (282, 7.31318593025207520000e-001) (283, 1.33959054946899410000e+000) (284, -7.75398313999176030000e-002) (285, 1.50000000000000000000e+003) (286, -1.10021162033081050000e+001) (287, -5.26067495346069340000e+000) (288, -7.12728500366210940000e+001) (289, -2.79647369384765620000e+001) (290, 2.78286397457122800000e-001) (291, -1.63586366176605220000e+000) (292, -5.70481121540069580000e-001) (293, -1.14716815948486330000e+000) (294, -5.43250560760498050000e-001) (295, 6.71156704425811770000e-001) (296, 1.14752054214477540000e+000) (297, -3.70197606086730960000e+000) (298, 5.49344182014465330000e-001) (299, 1.50000000000000000000e+003) (300, -2.84467148780822750000e+000) (301, -1.29789333343505860000e+001) (302, 3.39494204521179200000e+000) (303, -1.41362369060516360000e+000) (304, -4.72908163070678710000e+000) (305, -1.83570968627929690000e+002) (0, 1.50000000000000000000e+003) (1, -1.31343981933593750000e+003) (2, -1.31398950195312500000e+003) (3, -1.00146808624267580000e+001) (4, -1.83520090579986570000e+000) (5, -3.74573737382888790000e-001) (6, 2.94849961996078490000e-001) (7, 1.62730252742767330000e+000) (8, -2.31201618909835820000e-001) (9, 3.95082056522369380000e-001) (10, 4.81177949905395510000e+000) (11, -1.08449430465698240000e+001) (12, 1.49674854278564450000e+001) (13, 1.77081215381622310000e+000) (14, 1.50000000000000000000e+003) (15, 3.61503648757934570000e+000) (16, -1.50000000000000000000e+003) (17, 4.22973251342773440000e+000) (18, 8.02803933620452880000e-001) (19, 1.11662168055772780000e-002) (20, 1.08880959451198580000e-001) (21, -1.15912747383117680000e+000) (22, -4.14526343345642090000e-001) (23, 3.05421650409698490000e-002) (24, -3.85385006666183470000e-001) (25, 3.58185499906539920000e-001) (26, -1.40697693824768070000e+000) (27, -1.54951889038085940000e+002) (28, -6.52342071533203120000e+001) (29, -3.06418967247009280000e+000) (30, 3.40869212150573730000e+000) (31, -1.50000000000000000000e+003) (32, -2.58713424205780030000e-001) (33, -1.47814974188804630000e-001) (34, -4.00534540414810180000e-001) (35, -8.66221114993095400000e-002) (36, -2.71915256977081300000e-001) (37, -7.10720360279083250000e-001) (38, -7.09738552570343020000e-001) (39, 2.46117934584617610000e-001) (40, 2.82493829727172850000e-001) (41, -3.76036226749420170000e-001) (42, -1.03760457038879390000e+000) (43, 9.34006452560424800000e-001) (44, -1.31389721679687500000e+003) (45, -5.93298522949218750000e+002) (46, -7.50873625278472900000e-001) (47, -1.07138669490814210000e+000) (48, -1.62096929550170900000e+000) (49, -6.43760681152343750000e-001) (50, 4.69260007143020630000e-001) (51, 5.34030437469482420000e-001) (52, -1.24073505401611330000e+000) (53, -8.08270871639251710000e-002) (54, -7.95208334922790530000e-001) (55, 6.24536037445068360000e-001) (56, 4.10896986722946170000e-001) (57, 4.69047576189041140000e-001) (58, 4.21644258499145510000e+000) (59, -5.96604248046875000000e+002) (60, -1.50000000000000000000e+003) (61, -1.23164808750152590000e+000) (62, -1.39589977264404300000e+000) (63, 2.10836723446846010000e-001) (64, -8.70492696762084960000e-001) (65, -1.56017839908599850000e-001) (66, 4.03352677822113040000e-001) (67, -2.22508168220520020000e+000) (68, -8.61595332622528080000e-001) (69, 2.64772087335586550000e-001) (70, 8.89796495437622070000e-001) (71, -1.07497736811637880000e-001) (72, 9.68385115265846250000e-002) (73, -2.61651468276977540000e+000) (74, 1.52870651245117190000e+002) (75, -1.31302941894531250000e+003) (76, 2.73732602596282960000e-001) (77, 5.75263082981109620000e-001) (78, -1.88828200101852420000e-001) (79, -5.06577789783477780000e-002) (80, -1.11518311500549320000e+000) (81, -1.44328236579895020000e+000) (82, -9.18049216270446780000e-001) (83, -4.34087336063385010000e-001) (84, 4.72144961357116700000e-001) (85, -1.17675471305847170000e+000) (86, -1.29363465309143070000e+000) (87, 2.51522719860076900000e-001) (88, -1.17326736450195310000e+000) (89, -1.31519702148437500000e+003) (90, -5.87735473632812500000e+002) (91, 7.92915225028991700000e-001) (92, 2.62994229793548580000e-001) (93, 7.58632838726043700000e-001) (94, -5.00863909721374510000e-001) (95, -1.62106442451477050000e+000) (96, 9.48676168918609620000e-001) (97, -3.78125476837158200000e+000) (98, -6.00801527500152590000e-001) (99, -1.53478816151618960000e-001) (100, -9.81305897235870360000e-001) (101, 5.64284503459930420000e-001) (102, -2.07461908459663390000e-001) (103, -1.14817678928375240000e+000) (104, -2.54182424396276470000e-002) (105, -3.95372211933135990000e-001) (106, 7.20281481742858890000e-001) (107, 7.05194175243377690000e-001) (108, -6.09476804733276370000e-001) (109, -1.62200605869293210000e+000) (110, -7.49850451946258540000e-001) (111, -8.34057617187500000000e+002) (112, 5.73204231262207030000e+000) (113, 7.08964538574218750000e+000) (114, -2.56769323348999020000e+000) (115, -8.15809667110443120000e-001) (116, 4.63922649621963500000e-001) (117, -8.56776893138885500000e-001) (118, 7.33648955821990970000e-001) (119, 2.82971239089965820000e+000) (120, -1.96235418319702150000e+000) (121, -4.61911976337432860000e-001) (122, -6.91450238227844240000e-001) (123, -3.48120182752609250000e-001) (124, 3.21756267547607420000e+000) (125, -1.50000000000000000000e+003) (126, -1.50000000000000000000e+003) (127, -1.50000000000000000000e+003) (128, 3.38895177841186520000e+000) (129, -6.11063957214355470000e-001) (130, -8.85167539119720460000e-001) (131, -1.55665546655654910000e-001) (132, 1.04701852798461910000e+000) (133, 2.13729768991470340000e-001) (134, -9.09184753894805910000e-001) (135, -4.60712939500808720000e-001) (136, -8.80467772483825680000e-001) (137, -5.22338569164276120000e-001) (138, -1.02458536624908450000e+000) (139, 1.83364117145538330000e+000) (140, -1.50000000000000000000e+003) (141, -1.50000000000000000000e+003) (142, -1.50000000000000000000e+003) (143, -1.50000000000000000000e+003) (144, 1.65787255764007570000e+000) (145, -1.48330795764923100000e+000) (146, -5.99560976028442380000e-001) (147, 1.07242715358734130000e+000) (148, -7.74657249450683590000e-001) (149, 5.32663917541503910000e+000) (150, -1.62449359893798830000e+000) (151, 7.73966252803802490000e-001) (152, -6.43476918339729310000e-002) (153, 1.47058153152465820000e+000) (154, -8.14099967479705810000e-001) (155, -1.50000000000000000000e+003) (156, -1.50000000000000000000e+003) (157, -1.50000000000000000000e+003) (158, -1.50000000000000000000e+003) (159, 1.26144015789031980000e+000) (160, -9.30367052555084230000e-001) (161, -3.57592046260833740000e-001) (162, -1.36099457740783690000e-001) (163, -1.23079228401184080000e+000) (164, -1.06196749210357670000e+000) (165, -6.24686300754547120000e-001) (166, 4.08861607313156130000e-001) (167, 1.15007650852203370000e+000) (168, -3.66149157285690310000e-001) (169, -2.96293288469314580000e-001) (170, 1.41108045578002930000e+001) (171, -1.07450488281250000000e+003) (172, -1.31521435546875000000e+003) (173, -1.31312402343750000000e+003) (174, -6.00727140903472900000e-001) (175, -2.41951227188110350000e+000) (176, -9.94028002023696900000e-002) (177, -3.52139085531234740000e-001) (178, 4.44141387939453130000e-001) (179, 4.74787616729736330000e+000) (180, 1.42842984199523930000e+000) (181, 4.27501291036605830000e-001) (182, 1.37738317251205440000e-001) (183, 1.09665107727050780000e+000) (184, -8.62667679786682130000e-001) (185, -2.84948253631591800000e+000) (186, -1.07378210449218750000e+003) (187, -1.07547436523437500000e+003) (188, -1.07360656738281250000e+003) (189, 9.28447055816650390000e+000) (190, -3.36841851472854610000e-001) (191, -2.25081905722618100000e-001) (192, 2.49874785542488100000e-001) (193, 5.86892485618591310000e-001) (194, -3.16297471523284910000e-001) (195, 2.46465539932250980000e+000) (196, 4.83344078063964840000e-001) (197, 1.57101547718048100000e+000) (198, -2.97582894563674930000e-002) (199, 4.51565772294998170000e-001) (200, 2.63122582435607910000e+000) (201, -1.07521704101562500000e+003) (202, -1.07453491210937500000e+003) (203, -1.78024935722351070000e+000) (204, -5.79748272895812990000e-001) (205, -6.92140519618988040000e-001) (206, -5.37261068820953370000e-001) (207, -1.14681541919708250000e-001) (208, -8.74138295650482180000e-001) (209, -1.50000000000000000000e+003) (210, 6.04710578918457030000e+000) (211, -5.00013530254364010000e-001) (212, -7.52551138401031490000e-001) (213, 1.77732670307159420000e+000) (214, -4.27841812372207640000e-001) (215, -5.25626599788665770000e-001) (216, -4.68120425939559940000e-001) (217, 2.41841816902160640000e+000) (218, 1.79080498218536380000e+000) (219, -6.47577822208404540000e-001) (220, -4.39474940299987790000e-001) (221, -1.45526066422462460000e-001) (222, 9.97286856174468990000e-001) (223, -4.68098491430282590000e-001) (224, -1.50000000000000000000e+003) (225, 9.56154251098632810000e+000) (226, 6.49182736873626710000e-001) (227, -3.36502939462661740000e-001) (228, 9.75192248821258540000e-001) (229, 5.32794952392578130000e-001) (230, 1.42669630050659180000e+000) (231, 8.46687793731689450000e-001) (232, 9.90361750125885010000e-001) (233, -9.78439807891845700000e-001) (234, -3.56594175100326540000e-001) (235, 5.10845065116882320000e-001) (236, -2.20614627003669740000e-001) (237, 3.77451181411743160000e-001) (238, -7.99591958522796630000e-001) (239, -1.32151208496093750000e+003) (240, 1.40548858642578130000e+001) (241, -1.31048396229743960000e-001) (242, -3.00534605979919430000e-001) (243, 3.42901498079299930000e-001) (244, -4.85840350389480590000e-001) (245, -1.63918673992156980000e-001) (246, -4.58556897938251500000e-002) (247, -2.76103198528289790000e-001) (248, -7.22584486007690430000e-001) (249, -8.77740859985351560000e-001) (250, -4.08717930316925050000e-001) (251, 8.12774121761322020000e-001) (252, -7.70437300205230710000e-001) (253, 8.24564173817634580000e-002) (254, -5.94770996093750000000e+002) (255, -1.73378801345825200000e+000) (256, 3.96795558929443360000e+000) (257, 1.51214569807052610000e-001) (258, -1.69908142089843750000e+000) (259, 5.88232755661010740000e-001) (260, -3.10384452342987060000e-001) (261, 3.90248179435729980000e-001) (262, -1.89819857478141780000e-001) (263, 6.10738039016723630000e-001) (264, 7.78549134731292720000e-001) (265, 6.71445354819297790000e-002) (266, 5.74845492839813230000e-001) (267, -7.82884299755096440000e-001) (268, -1.47329226136207580000e-001) (269, -8.33292602539062500000e+002) (270, -1.50000000000000000000e+003) (271, -1.50000000000000000000e+003) (272, 1.78184509277343750000e+000) (273, -5.04936933517456050000e-001) (274, 2.72996991872787480000e-001) (275, -4.86046493053436280000e-001) (276, -9.20488715171813960000e-001) (277, 7.17990696430206300000e-001) (278, 1.02083587646484370000e+000) (279, -1.09322726726531980000e+000) (280, 5.61625421047210690000e-001) (281, 6.51627033948898320000e-002) (282, -4.59585696458816530000e-001) (283, -9.55807328224182130000e-001) (284, -1.10556592941284180000e+001) (285, 1.50000000000000000000e+003) (286, -1.31525170898437500000e+003) (287, -1.31527392578125000000e+003) (288, -8.34696533203125000000e+002) (289, -1.31354174804687500000e+003) (290, -4.28630828857421880000e-001) (291, -6.81987643241882320000e-001) (292, 6.53756260871887210000e-002) (293, 1.18116462230682370000e+000) (294, -1.31361019611358640000e+000) (295, 9.06161665916442870000e-001) (296, -3.60015869140625000000e+001) (297, 2.41178870201110840000e-001) (298, 7.42023468017578130000e-001) (299, 1.50000000000000000000e+003) (300, -3.19282341003417970000e+000) (301, 8.81032562255859380000e+000) (302, -7.50647830963134770000e+000) (303, -2.05288528442382810000e+002) (304, -1.50000000000000000000e+003) (305, -3.57130393981933590000e+001) (306, -1.50000000000000000000e+003) (0, 1.50000000000000000000e+003) (1, 4.44847202301025390000e+000) (2, -1.50000000000000000000e+003) (3, -1.50000000000000000000e+003) (4, -1.50000000000000000000e+003) (5, -1.50000000000000000000e+003) (6, -8.40228027343750000000e+002) (7, 6.81102514266967770000e-001) (8, -1.22326445579528810000e+000) (9, -1.82892274856567380000e+000) (10, 2.36365032196044920000e+000) (11, 1.65953707695007320000e+000) (12, -8.65828156471252440000e-001) (13, 1.65216898918151860000e+000) (14, 1.50000000000000000000e+003) (15, -1.50000000000000000000e+003) (16, -1.50000000000000000000e+003) (17, 1.45023393630981450000e+001) (18, -1.40690059661865230000e+001) (19, -1.50000000000000000000e+003) (20, 1.71992969512939450000e+000) (21, -2.70067429542541500000e+000) (22, -3.35702836513519290000e-001) (23, -1.03672921657562260000e+000) (24, -3.88196825981140140000e-001) (25, -1.31131410598754880000e+000) (26, -8.07843625545501710000e-001) (27, -1.03109049797058110000e+000) (28, -1.11908447742462160000e+000) (29, -4.09667640924453740000e-001) (30, -1.50000000000000000000e+003) (31, -1.50000000000000000000e+003) (32, -1.50000000000000000000e+003) (33, -1.50000000000000000000e+003) (34, -7.45884835720062260000e-001) (35, 7.27017784118652340000e+000) (36, 2.29583549499511720000e+000) (37, -6.08330309391021730000e-001) (38, -1.54658043384552000000e+000) (39, -6.35407030582427980000e-001) (40, -4.35298562049865720000e-001) (41, -9.70395743846893310000e-001) (42, 2.65211071819067000000e-002) (43, -5.38319289684295650000e-001) (44, -5.38066196441650390000e+000) (45, -1.50000000000000000000e+003) (46, -1.50000000000000000000e+003) (47, -1.50000000000000000000e+003) (48, 1.34024107456207280000e+000) (49, 2.70540416240692140000e-001) (50, -1.09595298767089840000e+000) (51, -2.17690110206604000000e-001) (52, 1.60322561860084530000e-001) (53, -1.45299419760704040000e-001) (54, -4.06517475843429570000e-001) (55, 6.58443152904510500000e-001) (56, -1.10808634757995610000e+000) (57, -1.45903921127319340000e+000) (58, -1.29533290863037110000e+000) (59, 3.86598396301269530000e+000) (60, -1.50000000000000000000e+003) (61, 1.39590620994567870000e+000) (62, 4.51287126541137700000e+000) (63, -1.79800140857696530000e+000) (64, 1.10882341861724850000e+000) (65, -2.34936803579330440000e-001) (66, -8.30981850624084470000e-001) (67, -1.26239344477653500000e-001) (68, -3.50379288196563720000e-001) (69, -6.87497496604919430000e-001) (70, 4.40669953823089600000e-001) (71, -7.17042386531829830000e-001) (72, -1.26878929138183590000e+000) (73, -2.45343595743179320000e-002) (74, 1.16931600570678710000e+001) (75, -1.16027879714965820000e+001) (76, -5.03004044294357300000e-002) (77, -5.79576253890991210000e-001) (78, -1.29818245768547060000e-001) (79, 8.40062946081161500000e-002) (80, 7.04088881611824040000e-002) (81, -8.64655613899230960000e-001) (82, -4.19529819488525390000e+000) (83, -5.28612494468688960000e-001) (84, -4.08610016107559200000e-001) (85, -6.35663926601409910000e-001) (86, -1.79187893867492680000e-001) (87, -9.67075943946838380000e-001) (88, -8.71751964092254640000e-001) (89, -1.88764822483062740000e+000) (90, 6.56865060329437260000e-001) (91, -1.36656606197357180000e+000) (92, -9.44637596607208250000e-001) (93, 1.03022003173828120000e+000) (94, 1.64462834596633910000e-001) (95, 3.19127112627029420000e-001) (96, 1.31434410810470580000e-001) (97, -3.85907381772995000000e-001) (98, -8.48701596260070800000e-001) (99, 2.75839328765869140000e-001) (100, -3.07396799325942990000e-001) (101, 7.99284994602203370000e-001) (102, 1.06088399887084960000e+000) (103, 1.11967062950134280000e+000) (104, -8.68113875389099120000e-001) (105, 2.52143454551696780000e+000) (106, -7.44280695915222170000e-001) (107, -1.30777585506439210000e+000) (108, -3.51060152053833010000e-001) (109, -9.14964675903320310000e-001) (110, 1.71555265784263610000e-001) (111, 1.85590195655822750000e+000) (112, -1.79520678520202640000e+000) (113, 1.22092854976654050000e+000) (114, -5.23045837879180910000e-001) (115, 7.21081256866455080000e-001) (116, -1.87751367688179020000e-001) (117, 1.92453101277351380000e-001) (118, 9.94869172573089600000e-001) (119, -7.14033412933349610000e+000) (120, 4.83211135864257810000e+000) (121, -8.86581301689147950000e-001) (122, -1.27429389953613280000e+000) (123, -1.24317097663879390000e+000) (124, -2.91959810256958010000e+000) (125, -3.18475461006164550000e+000) (126, 2.71776866912841800000e+000) (127, -5.44017982482910160000e+000) (128, 6.69835090637207030000e+000) (129, -3.34457230567932130000e+000) (130, -6.32297754287719730000e-001) (131, 1.09397375583648680000e+000) (132, 1.25413667410612110000e-003) (133, 2.02194690704345700000e+000) (134, -1.50000000000000000000e+003) (135, -1.50000000000000000000e+003) (136, -5.03282725811004640000e-001) (137, -1.99846363067626950000e+000) (138, 3.80627083778381350000e+000) (139, 7.41075694561004640000e-001) (140, 3.20958137512207030000e+000) (141, 8.23177051544189450000e+000) (142, -1.50000000000000000000e+003) (143, -1.45641651153564450000e+001) (144, -2.25731229782104490000e+000) (145, -3.20681476593017580000e+000) (146, 1.81587457656860350000e-001) (147, 6.68111443519592290000e-001) (148, -1.23547840118408200000e+000) (149, 6.97095823287963870000e+000) (150, 1.50000000000000000000e+003) (151, 2.32987422943115230000e+001) (152, -5.60614252090454100000e+000) (153, 1.35445082187652590000e+000) (154, -1.47868395996093750000e+003) (155, -1.50000000000000000000e+003) (156, -1.50000000000000000000e+003) (157, -1.50000000000000000000e+003) (158, -1.50000000000000000000e+003) (159, -7.55218327045440670000e-001) (160, -1.98279607295989990000e+000) (161, -9.27927017211914060000e-001) (162, 5.84442794322967530000e-001) (163, 5.36304593086242680000e-001) (164, -1.50000000000000000000e+003) (165, -1.30471826171875000000e+003) (166, -1.50000000000000000000e+003) (167, -1.50000000000000000000e+003) (168, -1.50000000000000000000e+003) (169, -1.50000000000000000000e+003) (170, -1.50000000000000000000e+003) (171, -1.50000000000000000000e+003) (172, -1.50000000000000000000e+003) (173, -9.76746845245361330000e+000) (174, 1.34571599960327150000e+000) (175, -1.75703847408294680000e+000) (176, 4.80020612478256230000e-001) (177, 2.51460105180740360000e-001) (178, 1.01003324985504150000e+000) (179, 2.04503459930419920000e+001) (180, -1.50000000000000000000e+003) (181, -1.50000000000000000000e+003) (182, -1.50000000000000000000e+003) (183, -1.50000000000000000000e+003) (184, -1.50000000000000000000e+003) (185, -1.50000000000000000000e+003) (186, -1.50000000000000000000e+003) (187, 2.40779342651367190000e+001) (188, -2.65558034181594850000e-001) (189, 2.39236906170845030000e-001) (190, 1.30828273296356200000e+000) (191, -4.11620676517486570000e-001) (192, -6.76167607307434080000e-001) (193, 1.57255768775939940000e-001) (194, 1.97996020317077640000e+000) (195, 8.90576553344726560000e+000) (196, -1.50000000000000000000e+003) (197, -1.50000000000000000000e+003) (198, -1.50000000000000000000e+003) (199, -1.50000000000000000000e+003) (200, -1.50000000000000000000e+003) (201, -1.50000000000000000000e+003) (202, 2.17677383422851560000e+001) (203, -6.05528652667999270000e-001) (204, 4.15640473365783690000e-001) (205, -1.67710870504379270000e-001) (206, 1.01556575298309330000e+000) (207, -8.38436365127563480000e-001) (208, -1.00636529922485350000e+000) (209, 6.17559075355529790000e-001) (210, -3.74784541130065920000e+000) (211, -7.41218280792236330000e+000) (212, -1.50000000000000000000e+003) (213, -1.50000000000000000000e+003) (214, -1.50000000000000000000e+003) (215, -1.50000000000000000000e+003) (216, -1.50000000000000000000e+003) (217, -1.50000000000000000000e+003) (218, -8.44496607780456540000e-001) (219, 1.07021367549896240000e+000) (220, -7.67974853515625000000e-001) (221, -3.67536932229995730000e-001) (222, 6.46465599536895750000e-001) (223, 2.99565285444259640000e-001) (224, 1.49223217773437500000e+003) (225, 1.33202381134033200000e+001) (226, -6.49211978912353520000e+000) (227, -1.50000000000000000000e+003) (228, -1.50000000000000000000e+003) (229, -1.50000000000000000000e+003) (230, -1.50000000000000000000e+003) (231, -1.50000000000000000000e+003) (232, 5.12438106536865230000e+000) (233, -2.04469040036201480000e-001) (234, 1.50251150131225590000e+000) (235, 3.99648025631904600000e-002) (236, -1.57234251499176030000e-001) (237, 9.51421797275543210000e-001) (238, -2.83370882272720340000e-001) (239, 4.02876949310302730000e+000) (240, -6.99390935897827150000e+000) (241, 1.42901158332824710000e+000) (242, -1.50000000000000000000e+003) (243, -1.50000000000000000000e+003) (244, -1.50000000000000000000e+003) (245, -1.50000000000000000000e+003) (246, -1.50000000000000000000e+003) (247, 4.57612395286560060000e-001) (248, -1.14201283454895020000e+000) (249, 1.14606225490570070000e+000) (250, 9.49869155883789060000e-001) (251, -5.17960309982299800000e-001) (252, 7.01038658618927000000e-001) (253, 4.63500350713729860000e-001) (254, -1.33046245574951170000e+000) (255, 1.91125345230102540000e+000) (256, -1.50000000000000000000e+003) (257, -1.50000000000000000000e+003) (258, -2.22436594963073730000e+000) (259, -1.50000000000000000000e+003) (260, -1.50000000000000000000e+003) (261, -1.50000000000000000000e+003) (262, 9.47236537933349610000e+000) (263, 2.90409231185913090000e+000) (264, 1.57899963855743410000e+000) (265, 1.19983196258544920000e-001) (266, -4.88522768020629880000e-001) (267, 1.02602303028106690000e+000) (268, 4.00477834045886990000e-002) (269, 7.00144767761230470000e+000) (270, -2.00371417999267580000e+001) (271, -1.50000000000000000000e+003) (272, -1.50000000000000000000e+003) (273, -1.50000000000000000000e+003) (274, -1.50000000000000000000e+003) (275, -1.50000000000000000000e+003) (276, -1.50000000000000000000e+003) (277, 2.91915726661682130000e+000) (278, 2.49938106536865230000e+000) (279, 2.12084555625915530000e+000) (280, -6.72158300876617430000e-001) (281, -1.71567693352699280000e-001) (282, -1.75289344787597660000e+000) (283, -4.58586263656616210000e+000) (284, 7.41274535655975340000e-001) (285, 1.50000000000000000000e+003) (286, 1.97589004039764400000e+000) (287, 2.86231064796447750000e+000) (288, 8.86706650257110600000e-001) (289, -3.95687246322631840000e+000) (290, -1.50000000000000000000e+003) (291, -1.50000000000000000000e+003) (292, -1.50000000000000000000e+003) (293, -7.74188852310180660000e+000) (294, -3.20915579795837400000e-001) (295, 4.96399784088134770000e+000) (296, -1.35214912891387940000e+000) (297, -8.78231227397918700000e-001) (298, -6.49808704853057860000e-001) (299, 1.50000000000000000000e+003) (300, -3.83184385299682620000e+000) (301, 7.67583236694335940000e+001) (302, 1.11930835247039790000e+000) (303, -4.70063495635986330000e+000) (304, 1.50000000000000000000e+003) (305, -5.33847856521606450000e+000) (306, 1.06139974594116210000e+001) (307, 5.99222302436828610000e-001) (0, 1.50000000000000000000e+003) (1, -1.50000000000000000000e+003) (2, -1.50000000000000000000e+003) (3, -1.50000000000000000000e+003) (4, 1.18813858032226560000e+001) (5, 1.80135822296142580000e+000) (6, 1.74329519271850590000e+000) (7, -4.62395715713500980000e+000) (8, -4.97038066387176510000e-001) (9, 4.79763478040695190000e-001) (10, -1.66257610321044920000e+001) (11, 7.95070052146911620000e-001) (12, -3.55881004333496090000e+001) (13, -9.27712082862854000000e-001) (14, 1.50000000000000000000e+003) (15, -1.50000000000000000000e+003) (16, -1.50000000000000000000e+003) (17, 2.57618904113769530000e+001) (18, 1.36511766910552980000e+000) (19, -2.19819992780685420000e-001) (20, -1.80100131034851070000e+000) (21, 1.30516300201416020000e+001) (22, -2.85141706466674800000e+000) (23, -7.54018723964691160000e-001) (24, -2.54894876480102540000e+000) (25, -9.44961786270141600000e-001) (26, 3.53384876251220700000e+000) (27, -1.50000000000000000000e+003) (28, 3.93397450447082520000e-001) (29, -8.98732757568359380000e+000) (30, -2.43165302276611330000e+000) (31, -1.50000000000000000000e+003) (32, 1.20330410003662110000e+001) (33, 6.40998935699462890000e+000) (34, 1.33622825145721440000e+000) (35, -1.65852999687194820000e+000) (36, -3.15441846847534180000e+000) (37, -2.94171714782714840000e+000) (38, -2.36748123168945310000e+000) (39, -2.26769113540649410000e+000) (40, -4.59750223159790040000e+000) (41, 