FANN_FLO_2.1
num_layers=12
learning_rate=0.700000
connection_rate=1.000000
network_type=1
learning_momentum=0.000000
training_algorithm=2
train_error_function=0
train_stop_function=0
cascade_output_change_fraction=0.010000
quickprop_decay=-0.000100
quickprop_mu=1.750000
rprop_increase_factor=1.200000
rprop_decrease_factor=0.500000
rprop_delta_min=0.000000
rprop_delta_max=50.000000
rprop_delta_zero=0.100000
cascade_output_stagnation_epochs=12
cascade_candidate_change_fraction=0.010000
cascade_candidate_stagnation_epochs=12
cascade_max_out_epochs=500
cascade_min_out_epochs=50
cascade_max_cand_epochs=500
cascade_min_cand_epochs=50
cascade_num_candidate_groups=2
bit_fail_limit=3.49999994039535520000e-001
cascade_candidate_limit=1.00000000000000000000e+003
cascade_weight_multiplier=4.00000005960464480000e-001
cascade_activation_functions_count=10
cascade_activation_functions=3 5 7 8 10 11 14 15 16 17 
cascade_activation_steepnesses_count=4
cascade_activation_steepnesses=2.50000000000000000000e-001 5.00000000000000000000e-001 7.50000000000000000000e-001 1.00000000000000000000e+000 
layer_sizes=301 1 1 1 1 1 1 1 1 1 1 22 
scale_included=0
neurons (num_inputs, activation_function, activation_steepness)=(0, 0, 0.00000000000000000000e+000) (0, 0, 0.00000000000000000000e+000) (0, 0, 0.00000000000000000000e+000) (0, 0, 0.00000000000000000000e+000) (0, 0, 0.00000000000000000000e+000) (0, 0, 0.00000000000000000000e+000) (0, 0, 0.00000000000000000000e+000) (0, 0, 0.00000000000000000000e+000) (0, 0, 0.00000000000000000000e+000) (0, 0, 0.00000000000000000000e+000) (0, 0, 0.00000000000000000000e+000) (0, 0, 0.00000000000000000000e+000) (0, 0, 0.00000000000000000000e+000) (0, 0, 0.00000000000000000000e+000) (0, 0, 0.00000000000000000000e+000) (0, 0, 0.00000000000000000000e+000) (0, 0, 0.00000000000000000000e+000) (0, 0, 0.00000000000000000000e+000) (0, 0, 0.00000000000000000000e+000) (0, 0, 0.00000000000000000000e+000) (0, 0, 0.00000000000000000000e+000) (0, 0, 0.00000000000000000000e+000) (0, 0, 0.00000000000000000000e+000) (0, 0, 0.00000000000000000000e+000) (0, 0, 0.00000000000000000000e+000) (0, 0, 0.00000000000000000000e+000) (0, 0, 0.00000000000000000000e+000) (0, 0, 0.00000000000000000000e+000) (0, 0, 0.00000000000000000000e+000) (0, 0, 0.00000000000000000000e+000) (0, 0, 0.00000000000000000000e+000) (0, 0, 0.00000000000000000000e+000) (0, 0, 0.00000000000000000000e+000) (0, 0, 0.00000000000000000000e+000) (0, 0, 0.00000000000000000000e+000) (0, 0, 0.00000000000000000000e+000) (0, 0, 0.00000000000000000000e+000) (0, 0, 0.00000000000000000000e+000) (0, 0, 0.00000000000000000000e+000) (0, 0, 0.00000000000000000000e+000) (0, 0, 0.00000000000000000000e+000) (0, 0, 0.00000000000000000000e+000) (0, 0, 0.00000000000000000000e+000) (0, 0, 0.00000000000000000000e+000) (0, 0, 0.00000000000000000000e+000) (0, 0, 0.00000000000000000000e+000) (0, 0, 0.00000000000000000000e+000) (0, 0, 0.00000000000000000000e+000) (0, 0, 0.00000000000000000000e+000) (0, 0, 0.00000000000000000000e+000) (0, 0, 0.00000000000000000000e+000) (0, 0, 0.00000000000000000000e+000) (0, 0, 0.00000000000000000000e+000) (0, 0, 0.00000000000000000000e+000) (0, 0, 0.00000000000000000000e+000) (0, 0, 0.00000000000000000000e+000) (0, 0, 0.00000000000000000000e+000) (0, 0, 0.00000000000000000000e+000) (0, 0, 0.00000000000000000000e+000) (0, 0, 0.00000000000000000000e+000) (0, 0, 0.00000000000000000000e+000) (0, 0, 0.00000000000000000000e+000) (0, 0, 0.00000000000000000000e+000) (0, 0, 0.00000000000000000000e+000) (0, 0, 0.00000000000000000000e+000) (0, 0, 0.00000000000000000000e+000) (0, 0, 0.00000000000000000000e+000) (0, 0, 0.00000000000000000000e+000) (0, 0, 0.00000000000000000000e+000) (0, 0, 0.00000000000000000000e+000) (0, 0, 0.00000000000000000000e+000) (0, 0, 0.00000000000000000000e+000) (0, 0, 0.00000000000000000000e+000) (0, 0, 0.00000000000000000000e+000) (0, 0, 0.00000000000000000000e+000) (0, 0, 0.00000000000000000000e+000) (0, 0, 0.00000000000000000000e+000) (0, 0, 0.00000000000000000000e+000) (0, 0, 0.00000000000000000000e+000) (0, 0, 0.00000000000000000000e+000) (0, 0, 0.00000000000000000000e+000) (0, 0, 0.00000000000000000000e+000) (0, 0, 0.00000000000000000000e+000) (0, 0, 0.00000000000000000000e+000) (0, 0, 0.00000000000000000000e+000) (0, 0, 0.00000000000000000000e+000) (0, 0, 0.00000000000000000000e+000) (0, 0, 0.00000000000000000000e+000) (0, 0, 0.00000000000000000000e+000) (0, 0, 0.00000000000000000000e+000) (0, 0, 0.00000000000000000000e+000) (0, 0, 0.00000000000000000000e+000) (0, 0, 0.00000000000000000000e+000) (0, 0, 0.00000000000000000000e+000) (0, 0, 0.00000000000000000000e+000) (0, 0, 0.00000000000000000000e+000) (0, 0, 0.00000000000000000000e+000) (0, 0, 0.00000000000000000000e+000) (0, 0, 0.00000000000000000000e+000) (0, 0, 0.00000000000000000000e+000) (0, 0, 0.00000000000000000000e+000) (0, 0, 0.00000000000000000000e+000) (0, 0, 0.00000000000000000000e+000) (0, 0, 0.00000000000000000000e+000) (0, 0, 0.00000000000000000000e+000) (0, 0, 0.00000000000000000000e+000) (0, 0, 0.00000000000000000000e+000) (0, 0, 0.00000000000000000000e+000) (0, 0, 0.00000000000000000000e+000) (0, 0, 0.00000000000000000000e+000) (0, 0, 0.00000000000000000000e+000) (0, 0, 0.00000000000000000000e+000) (0, 0, 0.00000000000000000000e+000) (0, 0, 0.00000000000000000000e+000) (0, 0, 0.00000000000000000000e+000) (0, 0, 0.00000000000000000000e+000) (0, 0, 0.00000000000000000000e+000) (0, 0, 0.00000000000000000000e+000) (0, 0, 0.00000000000000000000e+000) (0, 0, 0.00000000000000000000e+000) (0, 0, 0.00000000000000000000e+000) (0, 0, 0.00000000000000000000e+000) (0, 0, 0.00000000000000000000e+000) (0, 0, 0.00000000000000000000e+000) (0, 0, 0.00000000000000000000e+000) (0, 0, 0.00000000000000000000e+000) (0, 0, 0.00000000000000000000e+000) (0, 0, 0.00000000000000000000e+000) (0, 0, 0.00000000000000000000e+000) (0, 0, 0.00000000000000000000e+000) (0, 0, 0.00000000000000000000e+000) (0, 0, 0.00000000000000000000e+000) (0, 0, 0.00000000000000000000e+000) (0, 0, 0.00000000000000000000e+000) (0, 0, 0.00000000000000000000e+000) (0, 0, 0.00000000000000000000e+000) (0, 0, 0.00000000000000000000e+000) (0, 0, 0.00000000000000000000e+000) (0, 0, 0.00000000000000000000e+000) (0, 0, 0.00000000000000000000e+000) (0, 0, 0.00000000000000000000e+000) (0, 0, 0.00000000000000000000e+000) (0, 0, 0.00000000000000000000e+000) (0, 0, 0.00000000000000000000e+000) (0, 0, 0.00000000000000000000e+000) (0, 0, 0.00000000000000000000e+000) (0, 0, 0.00000000000000000000e+000) (0, 0, 0.00000000000000000000e+000) (0, 0, 0.00000000000000000000e+000) (0, 0, 0.00000000000000000000e+000) (0, 0, 0.00000000000000000000e+000) (0, 0, 0.00000000000000000000e+000) (0, 0, 0.00000000000000000000e+000) (0, 0, 0.00000000000000000000e+000) (0, 0, 0.00000000000000000000e+000) (0, 0, 0.00000000000000000000e+000) (0, 0, 0.00000000000000000000e+000) (0, 0, 0.00000000000000000000e+000) (0, 0, 0.00000000000000000000e+000) (0, 0, 0.00000000000000000000e+000) (0, 0, 0.00000000000000000000e+000) (0, 0, 0.00000000000000000000e+000) (0, 0, 0.00000000000000000000e+000) (0, 0, 0.00000000000000000000e+000) (0, 0, 0.00000000000000000000e+000) (0, 0, 0.00000000000000000000e+000) (0, 0, 0.00000000000000000000e+000) (0, 0, 0.00000000000000000000e+000) (0, 0, 0.00000000000000000000e+000) (0, 0, 0.00000000000000000000e+000) (0, 0, 0.00000000000000000000e+000) (0, 0, 0.00000000000000000000e+000) (0, 0, 0.00000000000000000000e+000) (0, 0, 0.00000000000000000000e+000) (0, 0, 0.00000000000000000000e+000) (0, 0, 0.00000000000000000000e+000) (0, 0, 0.00000000000000000000e+000) (0, 0, 0.00000000000000000000e+000) (0, 0, 0.00000000000000000000e+000) (0, 0, 0.00000000000000000000e+000) (0, 0, 0.00000000000000000000e+000) (0, 0, 0.00000000000000000000e+000) (0, 0, 0.00000000000000000000e+000) (0, 0, 0.00000000000000000000e+000) (0, 0, 0.00000000000000000000e+000) (0, 0, 0.00000000000000000000e+000) (0, 0, 0.00000000000000000000e+000) (0, 0, 0.00000000000000000000e+000) (0, 0, 0.00000000000000000000e+000) (0, 0, 0.00000000000000000000e+000) (0, 0, 0.00000000000000000000e+000) (0, 0, 0.00000000000000000000e+000) (0, 0, 0.00000000000000000000e+000) (0, 0, 0.00000000000000000000e+000) (0, 0, 0.00000000000000000000e+000) (0, 0, 0.00000000000000000000e+000) (0, 0, 0.00000000000000000000e+000) (0, 0, 0.00000000000000000000e+000) (0, 0, 0.00000000000000000000e+000) (0, 0, 0.00000000000000000000e+000) (0, 0, 0.00000000000000000000e+000) (0, 0, 0.00000000000000000000e+000) (0, 0, 0.00000000000000000000e+000) (0, 0, 0.00000000000000000000e+000) (0, 0, 0.00000000000000000000e+000) (0, 0, 0.00000000000000000000e+000) (0, 0, 0.00000000000000000000e+000) (0, 0, 0.00000000000000000000e+000) (0, 0, 0.00000000000000000000e+000) (0, 0, 0.00000000000000000000e+000) (0, 0, 0.00000000000000000000e+000) (0, 0, 0.00000000000000000000e+000) (0, 0, 0.00000000000000000000e+000) (0, 0, 0.00000000000000000000e+000) (0, 0, 0.00000000000000000000e+000) (0, 0, 0.00000000000000000000e+000) (0, 0, 0.00000000000000000000e+000) (0, 0, 0.00000000000000000000e+000) (0, 0, 0.00000000000000000000e+000) (0, 0, 0.00000000000000000000e+000) (0, 0, 0.00000000000000000000e+000) (0, 0, 0.00000000000000000000e+000) (0, 0, 0.00000000000000000000e+000) (0, 0, 0.00000000000000000000e+000) (0, 0, 0.00000000000000000000e+000) (0, 0, 0.00000000000000000000e+000) (0, 0, 0.00000000000000000000e+000) (0, 0, 0.00000000000000000000e+000) (0, 0, 0.00000000000000000000e+000) (0, 0, 0.00000000000000000000e+000) (0, 0, 0.00000000000000000000e+000) (0, 0, 0.00000000000000000000e+000) (0, 0, 0.00000000000000000000e+000) (0, 0, 0.00000000000000000000e+000) (0, 0, 0.00000000000000000000e+000) (0, 0, 0.00000000000000000000e+000) (0, 0, 0.00000000000000000000e+000) (0, 0, 0.00000000000000000000e+000) (0, 0, 0.00000000000000000000e+000) (0, 0, 0.00000000000000000000e+000) (0, 0, 0.00000000000000000000e+000) (0, 0, 0.00000000000000000000e+000) (0, 0, 0.00000000000000000000e+000) (0, 0, 0.00000000000000000000e+000) (0, 0, 0.00000000000000000000e+000) (0, 0, 0.00000000000000000000e+000) (0, 0, 0.00000000000000000000e+000) (0, 0, 0.00000000000000000000e+000) (0, 0, 0.00000000000000000000e+000) (0, 0, 0.00000000000000000000e+000) (0, 0, 0.00000000000000000000e+000) (0, 0, 0.00000000000000000000e+000) (0, 0, 0.00000000000000000000e+000) (0, 0, 0.00000000000000000000e+000) (0, 0, 0.00000000000000000000e+000) (0, 0, 0.00000000000000000000e+000) (0, 0, 0.00000000000000000000e+000) (0, 0, 0.00000000000000000000e+000) (0, 0, 0.00000000000000000000e+000) (0, 0, 0.00000000000000000000e+000) (0, 0, 0.00000000000000000000e+000) (0, 0, 0.00000000000000000000e+000) (0, 0, 0.00000000000000000000e+000) (0, 0, 0.00000000000000000000e+000) (0, 0, 0.00000000000000000000e+000) (0, 0, 0.00000000000000000000e+000) (0, 0, 0.00000000000000000000e+000) (0, 0, 0.00000000000000000000e+000) (0, 0, 0.00000000000000000000e+000) (0, 0, 0.00000000000000000000e+000) (0, 0, 0.00000000000000000000e+000) (0, 0, 0.00000000000000000000e+000) (0, 0, 0.00000000000000000000e+000) (0, 0, 0.00000000000000000000e+000) (0, 0, 0.00000000000000000000e+000) (0, 0, 0.00000000000000000000e+000) (0, 0, 0.00000000000000000000e+000) (0, 0, 0.00000000000000000000e+000) (0, 0, 0.00000000000000000000e+000) (0, 0, 0.00000000000000000000e+000) (0, 0, 0.00000000000000000000e+000) (0, 0, 0.00000000000000000000e+000) (0, 0, 0.00000000000000000000e+000) (0, 0, 0.00000000000000000000e+000) (0, 0, 0.00000000000000000000e+000) (0, 0, 0.00000000000000000000e+000) (0, 0, 0.00000000000000000000e+000) (0, 0, 0.00000000000000000000e+000) (0, 0, 0.00000000000000000000e+000) (0, 0, 0.00000000000000000000e+000) (0, 0, 0.00000000000000000000e+000) (0, 0, 0.00000000000000000000e+000) (0, 0, 0.00000000000000000000e+000) (0, 0, 0.00000000000000000000e+000) (0, 0, 0.00000000000000000000e+000) (0, 0, 0.00000000000000000000e+000) (0, 0, 0.00000000000000000000e+000) (0, 0, 0.00000000000000000000e+000) (0, 0, 0.00000000000000000000e+000) (0, 0, 0.00000000000000000000e+000) (0, 0, 0.00000000000000000000e+000) (301, 3, 2.50000000000000000000e-001) (302, 3, 5.00000000000000000000e-001) (303, 3, 7.50000000000000000000e-001) (304, 3, 1.00000000000000000000e+000) (305, 3, 1.00000000000000000000e+000) (306, 3, 2.50000000000000000000e-001) (307, 3, 5.00000000000000000000e-001) (308, 3, 1.00000000000000000000e+000) (309, 3, 7.50000000000000000000e-001) (310, 10, 2.50000000000000000000e-001) (311, 5, 5.00000000000000000000e-001) (311, 5, 5.00000000000000000000e-001) (311, 5, 5.00000000000000000000e-001) (311, 5, 5.00000000000000000000e-001) (311, 5, 5.00000000000000000000e-001) (311, 5, 5.00000000000000000000e-001) (311, 5, 5.00000000000000000000e-001) (311, 5, 5.00000000000000000000e-001) (311, 5, 5.00000000000000000000e-001) (311, 5, 5.00000000000000000000e-001) (311, 5, 5.00000000000000000000e-001) (311, 5, 5.00000000000000000000e-001) (311, 5, 5.00000000000000000000e-001) (311, 5, 5.00000000000000000000e-001) (311, 5, 5.00000000000000000000e-001) (311, 5, 5.00000000000000000000e-001) (311, 5, 5.00000000000000000000e-001) (311, 5, 5.00000000000000000000e-001) (311, 5, 5.00000000000000000000e-001) (311, 5, 5.00000000000000000000e-001) (311, 5, 5.00000000000000000000e-001) (311, 5, 5.00000000000000000000e-001) 
connections (connected_to_neuron, weight)=(0, 1.50000000000000000000e+003) (1, -3.17837625741958620000e-001) (2, -6.53453469276428220000e-002) (3, -6.21617496013641360000e-001) (4, 2.73408603668212890000e+001) (5, -2.94552612304687500000e+000) (6, -3.13684967041015620000e+002) (7, 2.14283237457275390000e+001) (8, 1.01076622009277340000e+001) (9, 2.76624298095703120000e+001) (10, 2.75477237701416020000e+001) (11, -2.76673913002014160000e+000) (12, -1.31922760009765620000e+002) (13, 4.76466131210327150000e+000) (14, 1.50000000000000000000e+003) (15, -7.65010863542556760000e-002) (16, -6.71047151088714600000e-001) (17, -6.67061030864715580000e-001) (18, 8.64759981632232670000e-002) (19, -3.80827337503433230000e-002) (20, 8.53967294096946720000e-002) (21, 2.42913886904716490000e-001) (22, 1.03534913063049320000e+000) (23, 2.17307433485984800000e-001) (24, 2.98791732639074330000e-002) (25, -6.61606025695800780000e+000) (26, 4.54716062545776370000e+000) (27, 1.50339043140411380000e+000) (28, -3.27981376647949220000e+000) (29, -2.26913795471191410000e+001) (30, -5.90288080275058750000e-002) (31, -3.07021170854568480000e-001) (32, -8.64569008350372310000e-001) (33, -1.59951940178871150000e-001) (34, -3.57188433408737180000e-001) (35, 4.04513597488403320000e-001) (36, -1.26708829402923580000e+000) (37, -4.48956102132797240000e-001) (38, 9.89095091819763180000e-001) (39, -1.77511286735534670000e+000) (40, 6.68591141700744630000e-001) (41, -3.17168121337890620000e+002) (42, 4.83066886663436890000e-002) (43, -6.01952457427978520000e+000) (44, 5.36779785156250000000e+000) (45, -5.73935031890869140000e-001) (46, 1.65998175740242000000e-001) (47, 5.57912051677703860000e-001) (48, -8.18459749221801760000e-001) (49, -2.18186482787132260000e-001) (50, -2.86599397659301760000e-001) (51, 1.10563501715660100000e-001) (52, -1.00833466276526450000e-002) (53, 3.45725202560424800000e+000) (54, -5.66704101562500000000e+001) (55, -1.41404151916503910000e-001) (56, 2.88685172796249390000e-001) (57, 2.52220571041107180000e-001) (58, 3.83617989718914030000e-002) (59, 3.88528436422348020000e-001) (60, 3.77044528722763060000e-001) (61, 7.02315986156463620000e-001) (62, 7.26946175098419190000e-001) (63, -3.31097960472106930000e-001) (64, 9.47122871875762940000e-001) (65, -1.10112166404724120000e+000) (66, -1.14940929412841800000e+000) (67, -6.08125507831573490000e-001) (68, -5.27584731578826900000e-001) (69, -2.03832578659057620000e+000) (70, -1.22555387020111080000e+000) (71, -1.59231364727020260000e+000) (72, -3.71148514747619630000e+000) (73, -1.11905813217163090000e+000) (74, 8.25449526309967040000e-001) (75, -1.24167943000793460000e+000) (76, -8.51667523384094240000e-001) (77, -6.74295961856842040000e-001) (78, 3.06052099913358690000e-002) (79, 5.37753701210021970000e-001) (80, 1.04842734336853030000e+000) (81, 1.31529784202575680000e+000) (82, -2.75519132614135740000e-001) (83, -5.54104614257812500000e+002) (84, -6.12888956069946290000e+000) (85, -4.47531223297119140000e-001) (86, -2.64337271451950070000e-001) (87, 2.12391424179077150000e+000) (88, -7.20553207397460940000e+000) (89, -3.80355358123779300000e-001) (90, -8.78596484661102290000e-001) (91, 8.43823790550231930000e-001) (92, 9.02505815029144290000e-001) (93, -6.66503131389617920000e-001) (94, -8.57543721795082090000e-002) (95, -4.25701141357421880000e-001) (96, 7.48526155948638920000e-001) (97, -5.07571637630462650000e-001) (98, -3.03677415847778320000e+000) (99, 9.14620399475097660000e-001) (100, 7.59388208389282230000e-001) (101, -5.35124182701110840000e-001) (102, -2.32787534594535830000e-001) (103, 5.57915382087230680000e-002) (104, 7.10121631622314450000e-001) (105, 1.79900169372558590000e+000) (106, -4.55601215362548830000e-001) (107, 7.87974536418914790000e-001) (108, 7.57572591304779050000e-001) (109, -2.61361654847860340000e-002) (110, 6.69480323791503910000e-001) (111, 1.55783653259277340000e-001) (112, -6.48797988891601560000e-001) (113, 1.28292226791381840000e+000) (114, -1.43434638977050780000e+001) (115, -3.61529755592346190000e+000) (116, 1.43081712722778320000e+000) (117, 1.43234476447105410000e-001) (118, -8.79142951965332030000e+000) (119, -3.30101072788238530000e-001) (120, 8.10526847839355470000e-001) (121, 5.51294684410095210000e-002) (122, 1.53949381783604620000e-002) (123, 6.73565924167633060000e-001) (124, -1.27043557167053220000e+000) (125, 1.42242980003356930000e+000) (126, 2.51471430063247680000e-001) (127, -9.59823417663574220000e+000) (128, -5.76567590236663820000e-001) (129, 1.10970985889434810000e+000) (130, -1.32554888725280760000e-001) (131, 1.87393522262573240000e+000) (132, -3.43002438545227050000e-001) (133, 9.67087030410766600000e-001) (134, 8.49858820438385010000e-001) (135, 3.47029352188110350000e+000) (136, -1.84051409363746640000e-001) (137, -7.32159495353698730000e-001) (138, 1.59288203716278080000e+000) (139, 3.49307328462600710000e-001) (140, 6.74511373043060300000e-001) (141, -1.60422611236572270000e+000) (142, -3.33855092525482180000e-001) (143, -7.77418422698974610000e+000) (144, 1.08477830886840820000e+001) (145, -5.59353942871093750000e+001) (146, -5.12225329875946040000e-001) (147, -2.25731134414672850000e+000) (148, 2.45893430709838870000e+000) (149, 1.18811655044555660000e+000) (150, 9.50751006603240970000e-001) (151, 1.36421630159020420000e-002) (152, 7.37853348255157470000e-001) (153, 3.83858829736709590000e-001) (154, -2.49963745474815370000e-001) (155, -6.54842436313629150000e-001) (156, -3.88888657093048100000e-001) (157, 6.54429793357849120000e-001) (158, 8.04687309265136720000e+000) (159, -2.18388385772705080000e+001) (160, -3.15093719482421870000e+002) (161, -3.14780384302139280000e-001) (162, -9.64130461215972900000e-001) (163, -7.99635171890258790000e-001) (164, -2.10908681154251100000e-001) (165, 8.95404434204101560000e+000) (166, -6.58086895942687990000e-001) (167, -6.15858696401119230000e-002) (168, -2.73268520832061770000e-001) (169, 1.78760409355163570000e-001) (170, 1.50312268733978270000e+000) (171, 5.45012378692626950000e+000) (172, -2.97701925039291380000e-001) (173, 4.31319475173950200000e+000) (174, -1.11578238010406490000e+000) (175, -3.35910415649414060000e+000) (176, 6.08541345596313480000e+000) (177, -3.04009079933166500000e-001) (178, 9.33609232306480410000e-002) (179, -1.35430407524108890000e+000) (180, -3.31421566009521480000e+000) (181, -2.50785619020462040000e-001) (182, -1.80432483553886410000e-001) (183, -3.09571802616119380000e-001) (184, 8.14779043197631840000e-001) (185, 6.67737722396850590000e-002) (186, 7.79971933364868160000e+000) (187, -2.43371295928955080000e+000) (188, -1.38319325447082520000e+000) (189, -8.67870897054672240000e-002) (190, -5.90179443359375000000e+000) (191, 4.42206239700317380000e+000) (192, 4.94753986597061160000e-001) (193, 9.04787108302116390000e-002) (194, 4.80448436737060550000e+000) (195, 2.54813528060913090000e+000) (196, -3.55963446199893950000e-002) (197, 8.67728173732757570000e-001) (198, -8.24800372123718260000e-001) (199, 7.31355965137481690000e-001) (200, -2.72492021322250370000e-001) (201, 5.16510665416717530000e-001) (202, 1.60150718688964840000e+000) (203, 8.09532403945922850000e-001) (204, -1.40552282333374020000e-001) (205, -7.57945775985717770000e-002) (206, 3.94226789474487300000e+000) (207, 2.62402176856994630000e-001) (208, -2.07215523719787600000e+000) (209, -4.48056459426879880000e+000) (210, -1.97566390037536620000e+000) (211, -1.79700374603271480000e-001) (212, 8.06733191013336180000e-001) (213, 8.18883895874023440000e-001) (214, -4.85742330551147460000e-001) (215, 3.29406082630157470000e-001) (216, -1.08828866481781010000e+000) (217, -1.66258648037910460000e-001) (218, 7.18900084495544430000e-001) (219, -2.11849665641784670000e+000) (220, -1.00252637863159180000e+001) (221, -1.16002053022384640000e-001) (222, -8.62252116203308110000e-001) (223, -7.50252082943916320000e-002) (224, -4.75790262222290040000e+000) (225, -2.69465422630310060000e+000) (226, 1.91715404391288760000e-001) (227, -2.93418109416961670000e-001) (228, -8.89672040939331050000e-001) (229, -5.36735594272613530000e-001) (230, -4.59425032138824460000e-001) (231, -4.89115789532661440000e-002) (232, 2.16670680046081540000e+000) (233, -4.50794249773025510000e-001) (234, -7.98765301704406740000e-001) (235, 1.38382303714752200000e+000) (236, -3.00487816333770750000e-001) (237, 2.66876757144927980000e-001) (238, 5.08607089519500730000e-001) (239, -5.39137601852416990000e+000) (240, 2.62322449684143070000e+000) (241, 7.68595516681671140000e-001) (242, -8.58505010604858400000e-001) (243, 9.47257220745086670000e-001) (244, -8.75752568244934080000e-001) (245, -5.40759265422821040000e-001) (246, -4.49807673692703250000e-001) (247, 2.43630588054656980000e-001) (248, 3.37412089109420780000e-001) (249, 1.32657945156097410000e-001) (250, -6.28161072731018070000e-001) (251, 7.29886054992675780000e-001) (252, 8.63946899771690370000e-002) (253, 8.40760618448257450000e-002) (254, 3.95497739315032960000e-001) (255, 4.80468559265136720000e+000) (256, -1.82575598359107970000e-001) (257, -3.11154484748840330000e-001) (258, -4.27890598773956300000e-001) (259, -6.75339221954345700000e-001) (260, -5.05751907825469970000e-001) (261, 6.92128837108612060000e-001) (262, -2.06293225288391110000e-001) (263, 3.55309218168258670000e-001) (264, -9.76511597633361820000e-001) (265, 5.68047523498535160000e-001) (266, -1.44265815615653990000e-001) (267, -5.82623600959777830000e-001) (268, 8.71113479137420650000e-001) (269, -4.62554208934307100000e-002) (270, -3.52174758911132810000e-001) (271, -5.67500412464141850000e-001) (272, 8.84891569614410400000e-001) (273, -1.90479785203933720000e-001) (274, -4.30174916982650760000e-001) (275, -1.87363326549530030000e-002) (276, -8.57084929943084720000e-001) (277, -1.29805728793144230000e-002) (278, -3.92927415668964390000e-002) (279, 5.93977868556976320000e-002) (280, 7.92640373110771180000e-002) (281, -3.88561487197875980000e-001) (282, 3.75740826129913330000e-001) (283, 4.04978990554809570000e-001) (284, 3.82760256528854370000e-001) (285, 1.50000000000000000000e+003) (286, 4.97763752937316890000e-001) (287, -3.62013280391693120000e-001) (288, 1.08212403953075410000e-001) (289, -8.30382406711578370000e-001) (290, 7.40886807441711430000e-001) (291, -1.07300424575805660000e+000) (292, 1.80855721235275270000e-001) (293, -1.27891287207603450000e-001) (294, -1.98010697960853580000e-001) (295, -3.62619936466217040000e-001) (296, 9.45515930652618410000e-001) (297, 1.04826736450195310000e+000) (298, -3.75836700201034550000e-001) (299, -2.39459127187728880000e-001) (300, 9.61679339408874510000e-001) (0, 1.50000000000000000000e+003) (1, 1.24999523162841800000e+000) (2, 4.76853281259536740000e-001) (3, 2.86630105972290040000e+000) (4, -7.13562805175781250000e+002) (5, 1.00016494750976560000e+002) (6, 2.36010696411132810000e+002) (7, 3.92588119506835940000e+001) (8, 7.41060924530029300000e+000) (9, 3.09311413764953610000e+000) (10, -4.22436332702636720000e+000) (11, -2.11386871337890620000e+000) (12, 5.71827054023742680000e-001) (13, -2.17850208282470700000e+000) (14, 1.50000000000000000000e+003) (15, -6.91038072109222410000e-001) (16, 1.06263414025306700000e-001) (17, -5.56549847126007080000e-001) (18, 2.44630903005599980000e-001) (19, -1.57742410898208620000e-001) (20, -4.73378845214843750000e+002) (21, -2.36557281494140620000e+002) (22, 9.76117401123046880000e+001) (23, -4.73814453125000000000e+002) (24, -4.80638742446899410000e-001) (25, 5.04832446575164790000e-001) (26, -1.14213836193084720000e+000) (27, 2.11269453167915340000e-001) (28, -1.19573485851287840000e+000) (29, -2.24597740173339840000e+000) (30, -3.51159274578094480000e-001) (31, -1.15897798538208010000e+000) (32, 7.56789863109588620000e-001) (33, 6.81421279907226560000e-001) (34, -4.60169982910156250000e+000) (35, -4.21457366943359380000e+001) (36, -2.38184341430664060000e+002) (37, -9.91130523681640630000e+001) (38, -2.36375442504882810000e+002) (39, -3.21785521507263180000e+000) (40, -9.56524372100830080000e-001) (41, -3.68248820304870610000e-001) (42, -6.23737215995788570000e-001) (43, -5.49453556537628170000e-001) (44, 1.00595927238464360000e+000) (45, -1.01073408126831050000e+000) (46, 4.64990884065628050000e-001) (47, 5.97581565380096440000e-001) (48, -5.13383328914642330000e-001) (49, -5.64822578430175780000e+000) (50, -2.36880676269531250000e+002) (51, -4.74252899169921870000e+002) (52, -7.15673278808593750000e+002) (53, -7.16291625976562500000e+002) (54, 1.89170330762863160000e-001) (55, -8.75103771686553960000e-001) (56, -3.49367171525955200000e-001) (57, -1.58150047063827510000e-001) (58, -1.28609180450439450000e-001) (59, -1.56738412380218510000e+000) (60, -9.23937380313873290000e-001) (61, -1.08642768859863280000e+000) (62, -5.41809141635894780000e-001) (63, 1.86662137508392330000e-001) (64, -2.22709488868713380000e+000) (65, -2.37805252075195310000e+002) (66, -2.37776794433593750000e+002) (67, -2.37751358032226560000e+002) (68, -7.13255126953125000000e+002) (69, -4.74551116943359370000e+002) (70, 7.00070559978485110000e-001) (71, -6.94664478302001950000e-001) (72, -3.66437345743179320000e-001) (73, -2.68806862831115720000e+000) (74, 8.70150998234748840000e-002) (75, 1.94373583793640140000e+000) (76, -1.53466820716857910000e-001) (77, -2.61289572715759280000e+000) (78, -4.35004502534866330000e-001) (79, -5.81166458129882810000e+000) (80, -9.90222930908203130000e+001) (81, -2.35605682373046870000e+002) (82, -2.36947799682617190000e+002) (83, -4.74763214111328120000e+002) (84, -3.93032282590866090000e-001) (85, 2.60829746723175050000e-001) (86, -1.09369292855262760000e-001) (87, -1.12202739715576170000e+000) (88, -5.89632451534271240000e-001) (89, 3.50927615165710450000e+000) (90, -3.16259407997131350000e+000) (91, -1.41023501753807070000e-001) (92, 7.41792798042297360000e-001) (93, -1.88448488712310790000e-001) (94, -8.52171230316162110000e+000) (95, -9.81382446289062500000e+001) (96, -9.71579589843750000000e+001) (97, -9.77236633300781250000e+001) (98, -9.80706710815429690000e+001) (99, -9.81954498291015630000e+001) (100, 4.47760611772537230000e-001) (101, 2.78529614210128780000e-001) (102, 9.75458681583404540000e-001) (103, 6.05282723903656010000e-001) (104, -2.55778646469116210000e+000) (105, -8.23766136169433590000e+000) (106, 5.88316954672336580000e-002) (107, 2.03174978494644170000e-001) (108, -1.52081161737442020000e-001) (109, -1.28209424018859860000e+000) (110, -4.01709413528442380000e+000) (111, -1.87974185943603520000e+001) (112, 8.33885097503662110000e+000) (113, 6.71605062484741210000e+000) (114, -6.53580427169799800000e-001) (115, -6.01368904113769530000e-001) (116, 5.28469324111938480000e-001) (117, 1.21591024100780490000e-001) (118, 1.92694544792175290000e+000) (119, 1.41515624523162840000e+000) (120, -7.14864318847656250000e+002) (121, 1.64512708783149720000e-001) (122, 7.92426988482475280000e-002) (123, 1.54048025608062740000e+000) (124, -7.73507535457611080000e-001) (125, -1.61800593137741090000e-001) (126, 3.21100831031799320000e-001) (127, 5.28200805187225340000e-001) (128, 1.67045819759368900000e+000) (129, -5.05394697189331050000e-001) (130, 1.02651655673980710000e+000) (131, 2.73965805768966670000e-001) (132, 7.26078033447265630000e-001) (133, 1.93917885422706600000e-001) (134, -1.88045871257781980000e+000) (135, -5.80910396575927730000e+000) (136, -1.37905597686767580000e+000) (137, -4.58282053470611570000e-001) (138, 2.11754202842712400000e+000) (139, 1.51083874702453610000e+000) (140, -6.58651828765869140000e-001) (141, -3.18613260984420780000e-001) (142, 2.51115262508392330000e-001) (143, 9.29272770881652830000e-001) (144, 7.77719438076019290000e-001) (145, 1.64879515767097470000e-001) (146, 1.40981936454772950000e+000) (147, 5.03153979778289790000e-001) (148, 9.70874369144439700000e-001) (149, -1.95699191093444820000e+000) (150, -4.73629999160766600000e+000) (151, 7.20124244689941410000e-001) (152, 5.81714630126953130000e-001) (153, 3.05518154054880140000e-002) (154, 1.11288666725158690000e+000) (155, 3.50425481796264650000e-001) (156, 2.28723496198654170000e-001) (157, 4.42015945911407470000e-001) (158, 5.91144263744354250000e-001) (159, -8.73780697584152220000e-002) (160, -1.39711545780301090000e-002) (161, 2.79815030097961430000e+000) (162, 1.04977130889892580000e+000) (163, 2.53761196136474610000e+000) (164, -1.58215105533599850000e+000) (165, -1.86517095565795900000e+000) (166, 4.49637919664382930000e-001) (167, -3.28541435301303860000e-002) (168, -2.98738807439804080000e-001) (169, 5.34380180761218070000e-003) (170, 8.24476778507232670000e-001) (171, 2.78646677732467650000e-001) (172, -4.71082180738449100000e-001) (173, 1.29717135429382320000e+000) (174, -1.12377762794494630000e+000) (175, 3.08462772518396380000e-002) (176, -1.19143474102020260000e+000) (177, 6.91197812557220460000e-001) (178, -4.60130721330642700000e-001) (179, -2.83137321472167970000e-001) (180, -2.81998205184936520000e+000) (181, 5.31300842761993410000e-001) (182, 7.99790978431701660000e-001) (183, -9.03849780559539790000e-001) (184, -4.19721722602844240000e-001) (185, -1.37806522846221920000e+000) (186, 4.14295043945312500000e+001) (187, -4.31737899780273440000e-001) (188, -9.71953105926513670000e+000) (189, -4.26765775680541990000e+000) (190, -6.77795410156250000000e-001) (191, 9.08185958862304690000e-001) (192, 7.49482750892639160000e-001) (193, -7.74231374263763430000e-001) (194, 6.73140525817871090000e-001) (195, 3.35780620574951170000e-001) (196, -8.76656115055084230000e-001) (197, -2.95176714658737180000e-001) (198, -1.05420029163360600000e+000) (199, 7.64311373233795170000e-001) (200, -3.59278559684753420000e+000) (201, -4.13810958862304690000e+001) (202, 1.92721405029296870000e+001) (203, -4.72938018798828120000e+002) (204, -4.04622001647949220000e+001) (205, -9.74048767089843750000e+001) (206, -9.15578901767730710000e-001) (207, -5.57720959186553960000e-001) (208, -3.73199880123138430000e-001) (209, 5.28256781399250030000e-002) (210, 3.79350614547729490000e+000) (211, 6.53861999511718750000e-001) (212, 8.99266898632049560000e-001) (213, -7.09018230438232420000e-001) (214, -2.20271185040473940000e-001) (215, -1.96598219871521000000e+000) (216, -4.03721389770507810000e+001) (217, -9.72419052124023440000e+001) (218, -2.36843917846679690000e+002) (219, -9.87036514282226560000e+001) (220, -4.07863731384277340000e+001) (221, 1.34120091795921330000e-001) (222, -3.06612074375152590000e-001) (223, 6.44900023937225340000e-001) (224, 1.08373451232910160000e+000) (225, -9.18487250804901120000e-001) (226, -1.03984320163726810000e+000) (227, -1.30800569057464600000e+000) (228, -6.72271251678466800000e-001) (229, -3.80681306123733520000e-001) (230, -1.28356552124023440000e+000) (231, -1.79238033294677730000e+001) (232, 4.48637628555297850000e+000) (233, 1.16328170776367190000e+002) (234, -4.73309478759765620000e+002) (235, -2.36630523681640620000e+002) (236, -7.19443082809448240000e-001) (237, -1.08795213699340820000e+000) (238, -1.42074793577194210000e-001) (239, 1.24620847404003140000e-001) (240, -3.96423745155334470000e+000) (241, -1.05478978157043460000e+000) (242, -1.04132831096649170000e+000) (243, 7.73847103118896480000e-001) (244, 5.41511237621307370000e-001) (245, 4.22073185443878170000e-001) (246, -1.86313152313232420000e+001) (247, 3.95670127868652340000e+001) (248, 3.92546730041503910000e+001) (249, 9.74004592895507810000e+001) (250, -6.22176170349121090000e+000) (251, -5.98104238510131840000e-001) (252, 7.40678846836090090000e-001) (253, 1.93611919879913330000e-001) (254, 1.04411554336547850000e+000) (255, 1.64080560207366940000e-002) (256, 4.81413364410400390000e-001) (257, 2.94449031352996830000e-001) (258, 8.37099909782409670000e-001) (259, 6.25778794288635250000e-001) (260, -7.99435615539550780000e-001) (261, -2.33014917373657230000e+000) (262, 7.45570373535156250000e+000) (263, -4.74183135986328120000e+002) (264, -2.38037384033203120000e+002) (265, -7.16023559570312500000e+002) (266, 1.17042434215545650000e+000) (267, -4.57102537155151370000e-001) (268, 1.90839216113090520000e-001) (269, 1.23642945289611820000e+000) (270, -1.88860058784484860000e-001) (271, 8.98619115352630620000e-001) (272, -9.46458399295806880000e-001) (273, 6.26905381679534910000e-001) (274, -1.02411091327667240000e+000) (275, -1.63712725043296810000e-002) (276, -1.29986333847045900000e+000) (277, -4.16393966674804690000e+001) (278, 4.01617774963378910000e+001) (279, -2.37819061279296870000e+002) (280, -2.52798104286193850000e+000) (281, -3.06140661239624020000e-001) (282, 3.58069509267807010000e-001) (283, -1.20479501783847810000e-001) (284, 3.06434214115142820000e-001) (285, 1.50000000000000000000e+003) (286, -2.51473814249038700000e-001) (287, -3.42489957809448240000e-001) (288, -1.83248013257980350000e-001) (289, 6.74368202686309810000e-001) (290, 3.66063570976257320000e+000) (291, 1.67231006622314450000e+001) (292, 1.00141136169433590000e+002) (293, 1.00453994750976560000e+002) (294, -9.87151336669921880000e+001) (295, -7.14605590820312500000e+002) (296, 2.39580035209655760000e+000) (297, -2.33490929007530210000e-001) (298, -1.87423691153526310000e-001) (299, 2.74717777967453000000e-001) (300, -3.33453059196472170000e+000) (301, -7.23156005859375000000e+002) (0, 1.50000000000000000000e+003) (1, 5.10090962052345280000e-002) (2, 1.46518814563751220000e+000) (3, -2.90341591835021970000e+000) (4, -6.22909307479858400000e-001) (5, 4.99764055013656620000e-001) (6, 7.52029836177825930000e-001) (7, 4.24899101257324220000e-001) (8, -6.86703968048095700000e+000) (9, -1.68212246894836430000e+000) (10, -2.01795041561126710000e-001) (11, -1.04207289218902590000e+000) (12, 9.20153021812438960000e-001) (13, -6.06801092624664310000e-001) (14, 1.50000000000000000000e+003) (15, -6.65486216545104980000e-001) (16, 6.68697297573089600000e-001) (17, -2.22198873758316040000e-001) (18, 2.91227549314498900000e-001) (19, -1.17713101208209990000e-001) (20, -3.61359894275665280000e-001) (21, 1.23536493629217150000e-002) (22, -3.45323801040649410000e-001) (23, 4.70424711704254150000e-001) (24, -1.55964806675910950000e-001) (25, -4.00416582822799680000e-001) (26, 1.30345821380615230000e-001) (27, 3.42669546604156490000e-001) (28, 6.71909093856811520000e-001) (29, -3.39640229940414430000e-001) (30, 1.12813079357147220000e+000) (31, -3.49674105644226070000e-001) (32, -8.75601828098297120000e-001) (33, -5.61215996742248540000e-001) (34, -7.80084311962127690000e-001) (35, 1.64072260260581970000e-001) (36, 1.14060568809509280000e+000) (37, 1.98995560407638550000e-001) (38, 9.81214821338653560000e-001) (39, 4.00947406888008120000e-002) (40, -1.72320708632469180000e-001) (41, -6.56792879104614260000e-001) (42, 9.02660906314849850000e-001) (43, -2.93821226805448530000e-002) (44, 9.00153652764856820000e-004) (45, 6.84484690427780150000e-002) (46, -3.68682503700256350000e-001) (47, 2.91508883237838750000e-001) (48, -3.16206216812133790000e-002) (49, -7.52365767955780030000e-001) (50, 7.01806306838989260000e-001) (51, 9.45741236209869380000e-001) (52, -6.66147768497467040000e-001) (53, 2.12302520871162410000e-001) (54, -2.68035382032394410000e-001) (55, -2.84107267856597900000e-001) (56, -6.57292902469635010000e-001) (57, 6.09665453433990480000e-001) (58, -2.68681257963180540000e-001) (59, -5.49368917942047120000e-001) (60, -1.52943503856658940000e+000) (61, 1.16204172372817990000e-001) (62, -2.64889467507600780000e-002) (63, -5.80596566200256350000e-001) (64, -7.23907828330993650000e-001) (65, 6.54635608196258540000e-001) (66, -1.07300305366516110000e+000) (67, -2.36506387591362000000e-001) (68, 7.05171644687652590000e-001) (69, -1.51797160506248470000e-001) (70, 4.57018762826919560000e-001) (71, -4.58322733640670780000e-001) (72, 7.28831216692924500000e-002) (73, 1.16506695747375490000e+000) (74, 2.65122652053833010000e-001) (75, 2.38261312246322630000e-001) (76, 4.92284506559371950000e-001) (77, 2.40199983119964600000e-001) (78, -4.90495376288890840000e-003) (79, 4.17075127363204960000e-001) (80, 1.04968607425689700000e+000) (81, -6.81838750839233400000e-001) (82, -4.58684206008911130000e+000) (83, -4.51192677021026610000e-001) (84, 2.80704684555530550000e-002) (85, -1.10848331451416020000e+000) (86, -9.44294691085815430000e-001) (87, -1.02747035026550290000e+000) (88, -8.45003724098205570000e-001) (89, 3.70925292968750000000e+001) (90, -8.77901017665863040000e-002) (91, -9.58028256893157960000e-001) (92, 6.17457568645477290000e-001) (93, 4.60396632552146910000e-002) (94, -3.39358210563659670000e-001) (95, 4.77504990994930270000e-002) (96, 2.47956901788711550000e-001) (97, -3.86211738586425780000e+001) (98, -2.61951398849487300000e+000) (99, 1.11983871459960940000e+000) (100, 1.41440212726593020000e-001) (101, 6.73439949750900270000e-002) (102, 5.14994487166404720000e-002) (103, -4.58521575927734370000e+002) (104, -9.62225036621093750000e+001) (105, -2.09496545791625980000e+000) (106, 3.33065241575241090000e-001) (107, -2.76241749525070190000e-001) (108, 1.14342665672302250000e+000) (109, 5.81200480461120610000e-001) (110, 1.09026849269866940000e+000) (111, 1.19399726390838620000e+000) (112, -9.62516725063323970000e-001) (113, 3.45539987087249760000e-001) (114, -1.88094007968902590000e+000) (115, -6.19879603385925290000e-001) (116, -4.32889747619628910000e+000) (117, -1.46751433610916140000e-001) (118, -6.49785041809082030000e-001) (119, 9.17055816650390630000e+001) (120, -4.83021068572998050000e+000) (121, 2.14684948325157170000e-001) (122, -6.47422432899475100000e-001) (123, 2.72464752197265630000e-002) (124, -4.30185258388519290000e-001) (125, -1.15267658233642580000e+000) (126, 9.46720838546752930000e-002) (127, -9.62954461574554440000e-001) (128, 8.82817745208740230000e-001) (129, 1.72460782527923580000e+000) (130, -1.60108968615531920000e-001) (131, -7.06730604171752930000e-001) (132, -1.99552679061889650000e+000) (133, 2.55560129880905150000e-001) (134, 4.04163980484008790000e+000) (135, 1.55976617336273190000e+000) (136, 4.97610300779342650000e-001) (137, -1.69225558638572690000e-001) (138, -4.30427372455596920000e-001) (139, 8.91009926795959470000e-001) (140, 8.97780209779739380000e-002) (141, 7.96695277094841000000e-002) (142, -5.16218364238739010000e-001) (143, -4.68900024890899660000e-001) (144, 6.99757039546966550000e-001) (145, 3.22692424058914180000e-001) (146, 2.58579015731811520000e-001) (147, -2.52709016203880310000e-002) (148, 1.40712821483612060000e+000) (149, 2.25528883934021000000e+000) (150, 1.39124199748039250000e-001) (151, -2.98301666975021360000e-001) (152, 7.73262739181518550000e-001) (153, 1.01442086696624760000e+000) (154, -5.54781444370746610000e-002) (155, 5.15587270259857180000e-001) (156, 7.51530766487121580000e-001) (157, 9.94263291358947750000e-001) (158, -5.85621476173400880000e-001) (159, 5.85607826709747310000e-001) (160, -1.75634071230888370000e-001) (161, 4.22357395291328430000e-002) (162, 3.89716625213623050000e-001) (163, -2.67443269491195680000e-001) (164, 1.91607213020324710000e+000) (165, -7.40907371044158940000e-001) (166, -1.25498235225677490000e-001) (167, -4.01656091213226320000e-001) (168, 6.43024682998657230000e-001) (169, 2.73184090852737430000e-001) (170, 7.75626376271247860000e-002) (171, -1.61372423171997070000e-001) (172, 9.77337837219238280000e-001) (173, -5.61432659626007080000e-001) (174, 7.35586285591125490000e-002) (175, -3.31696987152099610000e-001) (176, -5.05666173994541170000e-002) (177, 5.11372566223144530000e-001) (178, 1.04040622711181640000e+000) (179, -6.83926761150360110000e-001) (180, -5.51232218742370610000e-001) (181, 4.57917958498001100000e-001) (182, 6.86023175716400150000e-001) (183, -6.40614986419677730000e-001) (184, 7.71282434463500980000e-001) (185, -5.73637843132019040000e-001) (186, 7.68310248851776120000e-001) (187, -3.56878310441970830000e-001) (188, -1.10540068149566650000e+000) (189, -1.38880899176001550000e-002) (190, -1.73069521784782410000e-001) (191, 3.26148778200149540000e-001) (192, -2.08259269595146180000e-001) (193, -2.16838836669921880000e-001) (194, -6.39120936393737790000e-002) (195, 5.77811777591705320000e-001) (196, -2.91135191917419430000e-001) (197, 4.00328524410724640000e-002) (198, 7.87021636962890630000e-001) (199, 2.19002947211265560000e-001) (200, -1.91600114107131960000e-001) (201, 7.87013292312622070000e-001) (202, -4.13198053836822510000e-001) (203, -1.16059891879558560000e-001) (204, 1.60902941226959230000e+000) (205, -1.02352464199066160000e+000) (206, -4.11111235618591310000e-001) (207, 3.45367580652236940000e-001) (208, 2.91832613945007320000e+000) (209, 1.09994995594024660000e+000) (210, 8.60573649406433110000e-001) (211, -8.92757177352905270000e-001) (212, 4.79064196348190310000e-001) (213, -3.28020721673965450000e-001) (214, -7.71141517907381060000e-003) (215, 8.57483208179473880000e-001) (216, 4.19280052185058590000e-001) (217, -1.29730954766273500000e-001) (218, 3.37438434362411500000e-001) (219, 4.23727393150329590000e-001) (220, -1.48463338613510130000e-001) (221, 5.39860904216766360000e-001) (222, 3.45552802085876460000e-001) (223, -1.10999405384063720000e+000) (224, 1.67262935638427730000e+001) (225, -8.54809284210205080000e-002) (226, -3.97524476051330570000e-001) (227, -8.40179681777954100000e-001) (228, -1.70911222696304320000e-001) (229, -7.82181084156036380000e-001) (230, 4.23802524805068970000e-001) (231, 2.62610644102096560000e-001) (232, 1.97471082210540770000e-001) (233, -9.78313624858856200000e-001) (234, -7.16086447238922120000e-001) (235, 7.71258950233459470000e-001) (236, -4.20327872037887570000e-001) (237, -4.81023862957954410000e-002) (238, -1.75189876556396480000e+000) (239, -3.93498458862304690000e+001) (240, -2.17946386337280270000e+000) (241, 5.82300841808319090000e-001) (242, 5.25513529777526860000e-001) (243, -9.02782261371612550000e-001) (244, 5.49218416213989260000e-001) (245, -9.11449611186981200000e-001) (246, -2.45703622698783870000e-001) (247, -1.09499275684356690000e+000) (248, -9.59568977355957030000e-001) (249, -4.90392819046974180000e-002) (250, -3.30350816249847410000e-001) (251, -2.98396319150924680000e-001) (252, 4.52246141433715820000e+000) (253, -2.21368312835693360000e+001) (254, 1.54351878166198730000e+000) (255, 4.20237809419631960000e-001) (256, 3.98964256048202510000e-001) (257, 7.14178085327148440000e-001) (258, -7.08648741245269780000e-001) (259, 3.56817066669464110000e-001) (260, 1.77355408668518070000e-001) (261, -1.56961500644683840000e+000) (262, 3.86350035667419430000e-001) (263, -2.03026938438415530000e+000) (264, -4.00137596130371090000e+001) (265, -9.11741104125976560000e+001) (266, -3.75427398681640620000e+001) (267, -1.55359458923339840000e+001) (268, -9.25153656005859380000e+001) (269, -9.17128448486328130000e+001) (270, -5.93827068805694580000e-001) (271, -8.39568853378295900000e-001) (272, -3.01269233226776120000e-001) (273, -6.34893238544464110000e-001) (274, -4.59452629089355470000e-001) (275, -4.79036360979080200000e-001) (276, -1.66305765509605410000e-001) (277, -1.48827970027923580000e+000) (278, -2.73759436607360840000e+000) (279, -1.63259143829345700000e+001) (280, -9.27676467895507810000e+001) (281, -9.12364654541015630000e+001) (282, -2.20239120483398440000e+002) (283, -2.19227264404296880000e+002) (284, -9.09813919067382810000e+001) (285, 1.50000000000000000000e+003) (286, 4.28433299064636230000e-001) (287, 2.87834078073501590000e-001) (288, -5.36748647689819340000e-001) (289, -2.06653848290443420000e-001) (290, -2.52695918083190920000e-001) (291, -4.23288404941558840000e-001) (292, 3.42073798179626460000e-001) (293, 2.22318410873413090000e+000) (294, -2.20167724609375000000e+002) (295, -9.34398956298828130000e+001) (296, 4.17360901832580570000e-001) (297, 2.19634872436523440000e+002) (298, -9.07448730468750000000e+001) (299, -2.20350402832031250000e+002) (300, -1.55261802673339840000e+000) (301, -5.46923446655273440000e+000) (302, 4.44865274429321290000e+000) (0, 1.50000000000000000000e+003) (1, -1.50000000000000000000e+003) (2, -1.45471264648437500000e+003) (3, 1.41748327636718750000e+003) (4, 1.50000000000000000000e+003) (5, -1.50000000000000000000e+003) (6, 4.44275051355361940000e-001) (7, -2.89891338348388670000e+000) (8, -2.32092905044555660000e+000) (9, 5.91428637504577640000e-001) (10, -1.50000000000000000000e+003) (11, -1.21270019531250000000e+003) (12, -1.50000000000000000000e+003) (13, 1.46958361816406250000e+003) (14, 1.50000000000000000000e+003) (15, -1.50000000000000000000e+003) (16, -1.45510424804687500000e+003) (17, -1.45639709472656250000e+003) (18, -3.22835159301757810000e+000) (19, -5.53613156080245970000e-002) (20, 4.09029657021164890000e-003) (21, 1.20397233963012700000e+000) (22, -1.74610996246337890000e+000) (23, 6.79461002349853520000e-001) (24, 8.40600430965423580000e-001) (25, -8.10508728027343750000e-001) (26, 4.44366979598999020000e+000) (27, -2.55587387084960940000e+000) (28, 4.69963836669921880000e+001) (29, -4.36919364929199220000e+001) (30, 1.22278173828125000000e+003) (31, -1.45554675292968750000e+003) (32, -1.45654467773437500000e+003) (33, -3.12003040313720700000e+000) (34, -2.34603911638259890000e-001) (35, -2.75867223739624020000e-001) (36, -7.45516240596771240000e-001) (37, -3.02323013544082640000e-001) (38, -3.82360786199569700000e-001) (39, 8.39383065700531010000e-001) (40, 1.15942060947418210000e+000) (41, -1.07399284839630130000e+000) (42, -4.96430540084838870000e+000) (43, -4.96871978759765620000e+002) (44, 3.01431701660156250000e+002) (45, -1.50000000000000000000e+003) (46, -1.50000000000000000000e+003) (47, -6.36242771148681640000e+000) (48, -1.28587400913238530000e+000) (49, 9.82558727264404300000e-001) (50, 7.68339455127716060000e-001) (51, 1.09184443950653080000e+000) (52, 2.10002034902572630000e-001) (53, -8.81250858306884770000e-001) (54, 1.06834304332733150000e+000) (55, -8.86762082576751710000e-001) (56, 2.04884111881256100000e-001) (57, -1.93894878029823300000e-001) (58, -2.87881135940551760000e+000) (59, -1.45327819824218750000e+003) (60, 1.50000000000000000000e+003) (61, -1.18159742355346680000e+001) (62, -3.28615307807922360000e-001) (63, -1.21840946376323700000e-001) (64, 7.24812984466552730000e-001) (65, 4.00035798549652100000e-001) (66, 1.67205846309661870000e+000) (67, -4.45454627275466920000e-001) (68, -2.10971879959106450000e+000) (69, 7.12254941463470460000e-001) (70, -6.66297674179077150000e-001) (71, 1.68540164828300480000e-001) (72, 4.00884032249450680000e-001) (73, 8.74035537242889400000e-001) (74, -7.07446217536926270000e-001) (75, -1.21444079589843750000e+003) (76, -7.78726518154144290000e-001) (77, 9.08870249986648560000e-002) (78, -1.00222659111022950000e+000) (79, -7.17803478240966800000e-001) (80, -2.01043415069580080000e+000) (81, -7.23114848136901860000e-001) (82, -2.40728259086608890000e-001) (83, -1.80165553092956540000e+000) (84, -2.65122032165527340000e+000) (85, 7.51649856567382810000e-001) (86, 8.53181779384613040000e-001) (87, 2.28116437792778020000e-001) (88, 1.01679182052612300000e+000) (89, -9.60253620147705080000e+000) (90, 3.93679022789001460000e+000) (91, 3.37768137454986570000e-001) (92, -4.71401095390319820000e-001) (93, 1.14779019355773930000e+000) (94, 3.81062537431716920000e-001) (95, -3.20914655923843380000e-001) (96, 7.36676692962646480000e-001) (97, -1.18489302694797520000e-001) (98, 3.53506507873535160000e+001) (99, 8.61993598937988280000e+000) (100, 2.01652407646179200000e-001) (101, 9.91438269615173340000e-001) (102, -1.55787363648414610000e-001) (103, 2.74623006582260130000e-001) (104, 6.32318139076232910000e-001) (105, -1.92921066284179690000e+000) (106, 4.67700541019439700000e-001) (107, 9.30013000965118410000e-001) (108, -1.21951663494110110000e+000) (109, -6.00959420204162600000e-001) (110, -9.77328491210937500000e+000) (111, -4.94742679595947270000e+000) (112, -2.21434154510498050000e+001) (113, -9.74323120117187500000e+002) (114, -2.80659139156341550000e-001) (115, 3.97736144065856930000e+000) (116, 5.72942912578582760000e-001) (117, 9.75791454315185550000e-001) (118, 1.94221663475036620000e+000) (119, 2.92520642280578610000e-001) (120, 8.44981849193573000000e-001) (121, 9.01235878467559810000e-001) (122, 1.26468136906623840000e-001) (123, -2.88598954677581790000e-001) (124, 3.07150793075561520000e+000) (125, -1.67162251472473140000e+000) (126, -9.74042114257812500000e+002) (127, 6.52731609344482420000e+000) (128, 1.13177299499511720000e+000) (129, -2.48205070495605470000e+001) (130, 8.89987766742706300000e-001) (131, 1.90889045596122740000e-001) (132, 1.73829162120819090000e+000) (133, -7.85407610237598420000e-003) (134, 1.23009860515594480000e+000) (135, -3.18240618705749510000e+000) (136, 2.69979834556579590000e-001) (137, 2.89932996034622190000e-001) (138, 6.70885503292083740000e-001) (139, -6.14447176456451420000e-001) (140, -4.11144208908081050000e+000) (141, 3.82913559675216670000e-001) (142, -1.21523986816406250000e+003) (143, 4.28754758834838870000e+000) (144, 6.79811954498291020000e+000) (145, -3.82682442665100100000e-001) (146, 1.28932464122772220000e+000) (147, 7.61303722858428960000e-001) (148, 1.17117178440093990000e+000) (149, 1.60936236381530760000e+000) (150, -6.34643509984016420000e-002) (151, -4.81312632560729980000e-001) (152, 2.35121533274650570000e-001) (153, 2.85798281431198120000e-001) (154, 1.83323073387146000000e+000) (155, 1.01936769485473630000e+001) (156, -1.29441487789154050000e+000) (157, -9.76081787109375000000e+002) (158, -7.34998779296875000000e+002) (159, -7.85455048084259030000e-001) (160, -3.04466509819030760000e+000) (161, 2.26174545288085940000e+000) (162, -1.39435842633247380000e-001) (163, -5.94315350055694580000e-001) (164, 8.32260847091674800000e-001) (165, -4.01468610763549800000e+000) (166, -8.05089116096496580000e-001) (167, -5.49157381057739260000e-001) (168, -3.48173260688781740000e-001) (169, -5.95795750617980960000e-001) (170, 8.92425715923309330000e-001) (171, -9.74805114746093750000e+002) (172, 2.64806914329528810000e+000) (173, -1.21491723632812500000e+003) (174, 1.43971458077430730000e-001) (175, -2.29573688507080080000e+001) (176, 1.66595137119293210000e+000) (177, 3.28549861907958980000e-001) (178, 2.54221200942993160000e+000) (179, 3.31964349746704100000e+000) (180, 3.40052914619445800000e+000) (181, 7.53419458866119380000e-001) (182, 2.65997856855392460000e-001) (183, -1.93482413887977600000e-001) (184, 3.36559601128101350000e-002) (185, -1.50922521948814390000e-001) (186, 5.55199086666107180000e-001) (187, 1.41524391174316410000e+001) (188, -1.75061759948730470000e+001) (189, 1.19504880905151370000e+001) (190, -7.06423223018646240000e-001) (191, 3.13908696174621580000e-001) (192, 1.04484653472900390000e+000) (193, 1.03941524028778080000e+000) (194, 5.84695525467395780000e-002) (195, -4.47767972946166990000e+000) (196, 7.99942761659622190000e-002) (197, -1.14348256587982180000e+000) (198, -9.82460141181945800000e-001) (199, -2.10930991172790530000e+000) (200, -2.05926132202148440000e+000) (201, -1.25584721565246580000e+000) (202, 1.69193534851074220000e+001) (203, -2.67505812644958500000e+000) (204, 1.96112370491027830000e+000) (205, 1.75949513912200930000e+000) (206, -2.87679821252822880000e-001) (207, 4.68519300222396850000e-001) (208, -3.64590108394622800000e-001) (209, 5.97068405151367190000e+000) (210, -4.81650876998901370000e+000) (211, 4.84684050083160400000e-001) (212, -1.05069482326507570000e+000) (213, -1.30551075935363770000e+000) (214, 3.21653795242309570000e+000) (215, 9.65294837951660160000e-001) (216, -2.68388962745666500000e+000) (217, -1.52279081344604490000e+001) (218, -4.56010490655899050000e-001) (219, -8.88219892978668210000e-001) (220, 1.01588618755340580000e+000) (221, -1.42977401614189150000e-001) (222, 8.14291596412658690000e-001) (223, 7.29572713375091550000e-001) (224, -1.08436715602874760000e+000) (225, -2.51564526557922360000e+000) (226, -2.76741766929626460000e+000) (227, 5.11875212192535400000e-001) (228, -1.31305718421936040000e+000) (229, -2.39345252513885500000e-001) (230, 4.69722223281860350000e+000) (231, -2.30262446403503420000e+000) (232, -6.57520055770874020000e-001) (233, 4.73921966552734370000e+000) (234, -1.10269355773925780000e+000) (235, 7.96578288078308110000e-001) (236, -6.35658860206604000000e-001) (237, -3.16391706466674800000e-001) (238, -1.54427218437194820000e+000) (239, -5.63699960708618160000e+000) (240, -1.50000000000000000000e+003) (241, -1.04400701522827150000e+001) (242, -6.02665841579437260000e-001) (243, -3.85651677846908570000e-001) (244, -1.46011292934417720000e+000) (245, -9.58219826221466060000e-001) (246, -7.26799726486206050000e-001) (247, 8.69943678379058840000e-001) (248, -6.90581426024436950000e-002) (249, 4.53881353139877320000e-001) (250, -1.38180088996887210000e+000) (251, -4.02941964566707610000e-002) (252, -1.15181422233581540000e+000) (253, -9.60073757171630860000e+000) (254, -1.50000000000000000000e+003) (255, -1.50000000000000000000e+003) (256, -1.50000000000000000000e+003) (257, -3.60034084320068360000e+000) (258, -5.95349550247192380000e-001) (259, 2.19401389360427860000e-001) (260, 7.13099837303161620000e-002) (261, 7.48374342918396000000e-001) (262, 7.77348041534423830000e-001) (263, 5.54502725601196290000e-001) (264, -9.35950338840484620000e-001) (265, -1.44300568103790280000e+000) (266, -1.42606306076049800000e+000) (267, -3.20858860015869140000e+000) (268, 3.58277750015258790000e+000) (269, -1.50000000000000000000e+003) (270, -1.50000000000000000000e+003) (271, -1.50000000000000000000e+003) (272, -1.50000000000000000000e+003) (273, -4.05439662933349610000e+000) (274, 6.25090003013610840000e-001) (275, -9.27156303077936170000e-003) (276, 2.63503670692443850000e-001) (277, -5.50419986248016360000e-001) (278, 3.62281352281570430000e-001) (279, -3.33453536033630370000e-001) (280, 8.60257506370544430000e-001) (281, -1.71315118670463560000e-001) (282, 5.08486366271972660000e+000) (283, -1.83984718322753910000e+001) (284, -4.93304534912109370000e+002) (285, 1.50000000000000000000e+003) (286, -1.50000000000000000000e+003) (287, -1.50000000000000000000e+003) (288, -1.50000000000000000000e+003) (289, -5.85892009735107420000e+000) (290, -9.67630505561828610000e-001) (291, 7.75303304195404050000e-001) (292, -6.20634555816650390000e-001) (293, 8.34481358528137210000e-001) (294, 2.08333563804626460000e+000) (295, -1.53578162193298340000e-001) (296, -1.45393041992187500000e+003) (297, 1.34509658813476560000e+001) (298, 1.21532849121093750000e+003) (299, 4.97164184570312500000e+002) (300, -9.91647660732269290000e-001) (301, 6.01045227050781250000e+000) (302, 1.26872448730468750000e+003) (303, -1.04434951782226560000e+002) (0, 1.50000000000000000000e+003) (1, 3.33793103694915770000e-001) (2, -1.19910669326782230000e+000) (3, -3.83891601562500000000e+002) (4, -1.66274719238281250000e+002) (5, 3.91241210937500000000e+002) (6, 6.24941772460937500000e+002) (7, -1.47839775085449220000e+001) (8, -1.10706323242187500000e+003) (9, -7.13700485229492190000e+001) (10, -6.17613403320312500000e+002) (11, -5.53953588008880620000e-001) (12, 1.30571454763412480000e-001) (13, -9.39773976802825930000e-001) (14, 1.50000000000000000000e+003) (15, -2.50653717666864400000e-002) (16, -3.63914757966995240000e-001) (17, -1.16195082664489750000e-001) (18, 9.15104806423187260000e-001) (19, -1.13188177347183230000e-001) (20, -1.69520248413085940000e+002) (21, -3.83628784179687500000e+002) (22, -1.69749099731445310000e+002) (23, -3.83444580078125000000e+002) (24, -3.07447981834411620000e+000) (25, 3.14000919461250310000e-002) (26, 5.45796513557434080000e-001) (27, -4.80319172143936160000e-001) (28, -5.00121772289276120000e-001) (29, 3.75906288623809810000e-001) (30, 1.14006841182708740000e+000) (31, -1.68989285826683040000e-001) (32, 7.56250798702239990000e-001) (33, -1.66221097111701970000e-001) (34, -1.13777852058410640000e+000) (35, -7.85205781459808350000e-001) (36, -7.01543807983398440000e+001) (37, -7.11404113769531250000e+001) (38, -7.16149826049804690000e+001) (39, -1.01849269866943360000e+000) (40, -2.09858164191246030000e-001) (41, -1.60988593101501460000e+000) (42, -8.23676049709320070000e-001) (43, 9.93910655379295350000e-002) (44, 8.44488322734832760000e-001) (45, 1.63347739726305010000e-002) (46, -1.97674974799156190000e-001) (47, -2.27815911173820500000e-001) (48, -1.01698911190032960000e+000) (49, 9.25521016120910640000e-001) (50, 1.31184220314025880000e-001) (51, -6.42633485794067380000e+000) (52, -1.70658111572265620000e+002) (53, 4.09624248743057250000e-001) (54, -5.30106484889984130000e-001) (55, 1.71531468629837040000e-001) (56, -1.52244284749031070000e-001) (57, 1.49947211146354680000e-001) (58, -1.19063997268676760000e+000) (59, -2.93635439872741700000e+000) (60, -6.23926330566406250000e+002) (61, -4.48394000530242920000e-001) (62, -7.09349274635314940000e-001) (63, 8.77457916736602780000e-001) (64, -4.49600368738174440000e-002) (65, 7.79518842697143550000e-001) (66, -6.20878219604492190000e-001) (67, 2.19098329544067380000e+000) (68, 7.13751614093780520000e-001) (69, 5.82075715065002440000e-001) (70, 1.27352699637413020000e-002) (71, 7.13223338127136230000e-001) (72, -5.28197549283504490000e-002) (73, 1.75482213497161870000e+000) (74, -4.53338432312011720000e+000) (75, -6.24827575683593750000e+002) (76, 6.66215002536773680000e-001) (77, -8.16988825798034670000e-001) (78, -6.88897311687469480000e-001) (79, -2.63816207647323610000e-001) (80, 7.91506052017211910000e-001) (81, -5.99387586116790770000e-001) (82, -1.06929922103881840000e+000) (83, 3.43969345092773440000e-001) (84, 5.04762232303619380000e-001) (85, -1.57523125410079960000e-001) (86, 2.79488056898117070000e-001) (87, -4.01482492685317990000e-001) (88, -1.76786315441131590000e+000) (89, 3.34733734130859380000e+001) (90, -3.84207519531250000000e+002) (91, -1.32089972496032710000e+000) (92, 1.49188935756683350000e-001) (93, -1.95979550480842590000e-001) (94, 6.47960007190704350000e-001) (95, -3.03967028856277470000e-001) (96, 1.08276583254337310000e-001) (97, 3.69185507297515870000e-001) (98, -2.51343667507171630000e-001) (99, -3.59834693372249600000e-002) (100, 4.96221452951431270000e-001) (101, 5.34770846366882320000e-001) (102, 8.55857610702514650000e-001) (103, -1.70908691406250000000e+002) (104, 2.15286302566528320000e+000) (105, -1.71367126464843750000e+002) (106, -5.41512668132781980000e-001) (107, -3.83896301269531250000e+002) (108, -7.27715301513671880000e+001) (109, -8.33621993660926820000e-002) (110, -2.16937754303216930000e-002) (111, 2.51523375511169430000e-001) (112, -5.68921923637390140000e-001) (113, 2.03094586730003360000e-001) (114, 1.35063558816909790000e-001) (115, -5.08586347103118900000e-001) (116, -3.98650318384170530000e-001) (117, -6.24912231445312500000e+002) (118, -3.87605590820312500000e+002) (119, -3.83010223388671870000e+002) (120, -6.24566162109375000000e+002) (121, 1.20789880752563480000e+001) (122, -7.01256790161132810000e+001) (123, -7.16119689941406250000e+001) (124, 2.70673125982284550000e-001) (125, -4.97052907943725590000e-001) (126, 9.98027920722961430000e-001) (127, -9.55688774585723880000e-001) (128, 5.26644408702850340000e-001) (129, 5.20451009273529050000e-001) (130, 1.13286066055297850000e+000) (131, -3.07705140113830570000e+000) (132, -6.23738220214843750000e+002) (133, -6.24227172851562500000e+002) (134, 2.93629283905029300000e+001) (135, -3.83191619873046870000e+002) (136, 2.90422210693359380000e+001) (137, -1.69626647949218750000e+002) (138, -7.05879058837890630000e+001) (139, -1.39671826362609860000e+000) (140, 7.91358053684234620000e-001) (141, 2.12069809436798100000e-001) (142, 4.45264518260955810000e-001) (143, -2.92779803276062010000e-001) (144, 1.26232624053955080000e-001) (145, -3.16785901784896850000e-001) (146, -1.30665121078491210000e+001) (147, -6.23077209472656250000e+002) (148, -1.71093811035156250000e+002) (149, -8.65933959960937500000e+002) (150, 6.22628784179687500000e+002) (151, 1.19196748733520510000e+001) (152, -1.71331054687500000000e+002) (153, -1.70077484130859370000e+002) (154, -3.78515154123306270000e-001) (155, 9.24725756049156190000e-002) (156, -6.88180804252624510000e-001) (157, 7.67318546772003170000e-001) (158, -1.37926965951919560000e-001) (159, 2.50553816556930540000e-001) (160, -4.56146538257598880000e-001) (161, -3.84336700439453120000e+002) (162, -6.22972473144531250000e+002) (163, -6.22935485839843750000e+002) (164, -1.10616113281250000000e+003) (165, 6.44079833984375000000e+002) (166, 1.56274926662445070000e+000) (167, -1.70003067016601560000e+002) (168, -3.84416992187500000000e+002) (169, -4.38760757446289060000e+000) (170, 2.24229454994201660000e-001) (171, 1.79438859224319460000e-001) (172, 4.33632105588912960000e-001) (173, 3.18725973367691040000e-001) (174, 6.32389068603515630000e-001) (175, -8.92427682876586910000e-001) (176, -1.71692306518554690000e+002) (177, -8.65000488281250000000e+002) (178, -3.82913299560546870000e+002) (179, -6.24502624511718750000e+002) (180, 6.23362426757812500000e+002) (181, -3.32680964469909670000e+000) (182, -1.69948944091796870000e+002) (183, -7.27212295532226560000e+001) (184, 3.44506017863750460000e-002) (185, 5.09420037269592290000e-001) (186, 2.04425647854804990000e-001) (187, 5.48654258251190190000e-001) (188, 6.04802548885345460000e-001) (189, -3.70471477508544920000e-001) (190, -5.40540754795074460000e-001) (191, -1.68971091508865360000e-001) (192, -6.23166625976562500000e+002) (193, -7.10971603393554690000e+001) (194, 1.72700256347656250000e+002) (195, 3.83816192626953120000e+002) (196, 8.20852756500244140000e-001) (197, -6.91488265991210940000e-001) (198, -5.33798456192016600000e-001) (199, -1.05866663157939910000e-001) (200, -4.29650098085403440000e-001) (201, 9.84486103057861330000e-001) (202, 7.74948656558990480000e-001) (203, -5.76287172734737400000e-002) (204, 8.66584718227386470000e-001) (205, 1.34839370846748350000e-001) (206, -3.82192134857177730000e-002) (207, 8.05869102478027340000e-002) (208, -3.84653442382812500000e+002) (209, -1.65390716552734370000e+002) (210, -2.98711261749267580000e+001) (211, 7.83009529113769530000e-001) (212, -2.84280276298522950000e+000) (213, 7.45653331279754640000e-001) (214, 7.04732835292816160000e-001) (215, -6.67574644088745120000e-001) (216, 1.58683288097381590000e+000) (217, 2.86459112167358400000e+000) (218, -1.76455616950988770000e+000) (219, -5.95035515725612640000e-002) (220, 4.26145195960998540000e-001) (221, 9.56304252147674560000e-001) (222, 9.67463850975036620000e-001) (223, -3.84609710693359370000e+002) (224, 1.70667083740234370000e+002) (225, 1.31116533279418950000e+001) (226, 8.17995643615722660000e+000) (227, -2.63181298971176150000e-001) (228, 1.94917395710945130000e-001) (229, 4.32075321674346920000e-001) (230, -3.28407466411590580000e-001) (231, -3.79857420921325680000e-001) (232, -2.01354122161865230000e+000) (233, -3.38777804374694820000e+000) (234, -1.10576200485229490000e+000) (235, 4.42985057830810550000e-001) (236, -5.77361762523651120000e-001) (237, 1.28279119729995730000e-001) (238, -9.78680253028869630000e-001) (239, 9.92480564117431640000e+000) (240, 1.20263528823852540000e+001) (241, 6.90341591835021970000e-001) (242, -6.09023571014404300000e-001) (243, -1.09212875366210940000e-001) (244, -7.26455986499786380000e-001) (245, 9.39847677946090700000e-002) (246, -3.35612535476684570000e-001) (247, -5.31227684020996090000e+000) (248, -3.84304443359375000000e+002) (249, -1.68058776855468750000e+000) (250, -5.84013342857360840000e-001) (251, 6.71415507793426510000e-001) (252, 4.28637117147445680000e-001) (253, 2.64170348644256590000e-001) (254, 2.75848922729492190000e+001) (255, -1.76492893695831300000e+000) (256, -7.25165605545043950000e-001) (257, 6.89273834228515630000e-001) (258, 3.73272836208343510000e-001) (259, -2.78575897216796880000e-001) (260, -2.10284322500228880000e-001) (261, -9.15610134601593020000e-001) (262, -1.70800338745117190000e+002) (263, -6.99707260131835940000e+001) (264, -7.03297195434570310000e+001) (265, 7.18721270561218260000e-001) (266, -2.64975037425756450000e-002) (267, 2.11103215813636780000e-001) (268, 2.44218826293945310000e-001) (269, 2.49628975987434390000e-001) (270, 2.83180683851242070000e-001) (271, -3.22653144598007200000e-001) (272, -3.66555750370025630000e-001) (273, -2.99395740032196040000e-001) (274, -7.20558285713195800000e-001) (275, 1.05531239509582520000e+000) (276, -1.05576014518737790000e+000) (277, -1.71210998535156250000e+002) (278, -7.16451644897460940000e+001) (279, -2.96391258239746090000e+001) (280, -3.84700744628906250000e+002) (281, -3.70550483465194700000e-001) (282, -5.00939860939979550000e-002) (283, -9.27922427654266360000e-001) (284, -2.31289148330688480000e-001) (285, 1.50000000000000000000e+003) (286, 5.17987310886383060000e-001) (287, 9.66614633798599240000e-002) (288, -4.08577859401702880000e-001) (289, 2.22083711624145510000e+000) (290, 3.17946314811706540000e+000) (291, -7.13925628662109370000e+001) (292, -3.83571929931640620000e+002) (293, -1.70766174316406250000e+002) (294, -2.86684398651123050000e+001) (295, -1.34341052246093750000e+003) (296, 1.71744775772094730000e+000) (297, 5.72564065456390380000e-001) (298, -4.68161255121231080000e-001) (299, -8.12677219510078430000e-002) (300, -3.00305151939392090000e+000) (301, -1.20799095153808590000e+002) (302, 9.00521606445312500000e+002) (303, -1.50000000000000000000e+003) (304, -1.10888293457031250000e+003) (0, 1.50000000000000000000e+003) (1, 3.13271641731262210000e-001) (2, -1.34479448199272160000e-001) (3, -4.73970985412597660000e+000) (4, 1.48631544113159180000e+001) (5, 3.62880249023437500000e+001) (6, -1.38618444824218750000e+003) (7, -9.03885498046875000000e+002) (8, 8.14267272949218750000e+001) (9, 6.71708923339843750000e+002) (10, 3.04684467315673830000e+001) (11, 7.19828557968139650000e+000) (12, -2.20399111509323120000e-001) (13, -5.66160857677459720000e-001) (14, 1.50000000000000000000e+003) (15, 9.69355762004852290000e-001) (16, 1.05561840534210210000e+000) (17, -8.07646587491035460000e-002) (18, -2.55907088518142700000e-001) (19, 1.05964279174804690000e+000) (20, -1.49523258209228520000e+000) (21, -4.25675140380859370000e+002) (22, -6.64581970214843750000e+002) (23, 3.40388259887695310000e+001) (24, 3.40250854492187500000e+001) (25, 1.53566188812255860000e+001) (26, 1.43733024597167970000e-001) (27, -2.00560450553894040000e-001) (28, 4.19902920722961430000e-001) (29, -7.23064541816711430000e-001) (30, -3.16627264022827150000e-001) (31, -6.65660083293914790000e-001) (32, 9.43829238414764400000e-001) (33, 1.44382536411285400000e+000) (34, 6.24115169048309330000e-001) (35, -2.41764879226684570000e+000) (36, -9.04088195800781250000e+002) (37, 8.12182235717773440000e+001) (38, -4.28722333908081050000e+000) (39, -1.06449615955352780000e+000) (40, 2.78210687637329100000e+000) (41, 7.82527029514312740000e-002) (42, 1.16517448425292970000e+000) (43, -1.55281677842140200000e-001) (44, 1.39826428890228270000e+000) (45, 5.05987226963043210000e-001) (46, -2.75553345680236820000e-001) (47, 9.50920462608337400000e-001) (48, 2.87311166524887080000e-001) (49, 2.47587248682975770000e-001) (50, -8.43213438987731930000e-001) (51, -6.64478637695312500000e+002) (52, -6.65013549804687500000e+002) (53, -6.63815917968750000000e+002) (54, -2.06057810783386230000e+000) (55, -9.04807067871093750000e+002) (56, 1.81035071611404420000e-001) (57, 6.86723411083221440000e-001) (58, 5.84685683250427250000e-001) (59, -9.10036116838455200000e-002) (60, 1.31163482666015630000e+001) (61, 8.56989800930023190000e-001) (62, 3.97981405258178710000e-001) (63, 4.54752951860427860000e-001) (64, -1.25010117888450620000e-001) (65, -6.54697179794311520000e+000) (66, -2.15907424688339230000e-001) (67, 3.36104660034179690000e+001) (68, -1.88049390912055970000e-001) (69, -9.04252563476562500000e+002) (70, -1.75706729292869570000e-001) (71, -3.62297654151916500000e+000) (72, -8.72116327285766600000e-001) (73, 2.49447911977767940000e-001) (74, 1.34719574451446530000e+000) (75, -7.97308862209320070000e-001) (76, 8.43479394912719730000e-001) (77, -1.00940406322479250000e+000) (78, 3.33312213420867920000e-001) (79, 7.80266702175140380000e-001) (80, 3.56504052877426150000e-001) (81, 7.56060898303985600000e-001) (82, 3.37595772743225100000e+000) (83, 6.24245376586914060000e+001) (84, 3.78093719482421880000e-001) (85, -3.55960440635681150000e+000) (86, -1.26998984813690190000e+000) (87, -1.01625871658325200000e+000) (88, 7.56711065769195560000e-002) (89, -9.42107021808624270000e-001) (90, -6.65378173828125000000e+002) (91, 4.99835729598999020000e-001) (92, -1.96204423904418950000e-001) (93, -5.25452435016632080000e-001) (94, -4.31966543197631840000e-001) (95, 7.66715884208679200000e-001) (96, 2.67307847738265990000e-001) (97, 3.62685275077819820000e+000) (98, 6.88691139221191410000e-001) (99, 8.24713420867919920000e+000) (100, 4.16461420059204100000e+000) (101, -3.53216361999511720000e+000) (102, -3.10272146016359330000e-002) (103, 2.45680264197289940000e-003) (104, -1.05315363407135010000e+000) (105, -1.38440429687500000000e+003) (106, -8.26034963130950930000e-001) (107, -7.14054226875305180000e-001) (108, 1.55390217900276180000e-001) (109, -8.88282477855682370000e-001) (110, -7.12752878665924070000e-001) (111, -5.62408030033111570000e-001) (112, 7.76413559913635250000e-001) (113, 3.55997943878173830000e+000) (114, 1.43366903066635130000e-001) (115, -4.76669579744338990000e-001) (116, -6.92394077777862550000e-001) (117, -8.45230817794799800000e-001) (118, 4.01129961013793950000e-001) (119, -3.30320566892623900000e-001) (120, -7.77177214622497560000e-001) (121, -7.75978505611419680000e-001) (122, -3.81048053503036500000e-001) (123, -4.12072449922561650000e-001) (124, -2.79970884323120120000e+000) (125, 7.63544619083404540000e-001) (126, -3.18661189079284670000e+000) (127, -9.73178505897521970000e-001) (128, 1.42344188690185550000e+000) (129, 1.80606746673583980000e+000) (130, -1.96433471679687500000e+002) (131, -1.32103133201599120000e+000) (132, 8.59286785125732420000e-001) (133, 3.22298169136047360000e-001) (134, -8.28973293304443360000e-001) (135, -4.59744750976562500000e+002) (136, -2.45652779936790470000e-001) (137, 4.85382020473480220000e-001) (138, -8.22747275233268740000e-002) (139, -3.30889701843261720000e+001) (140, -1.14852619171142580000e+000) (141, -9.21145081520080570000e-001) (142, -3.79154181480407710000e+000) (143, 1.29804372787475590000e+000) (144, -8.51079285144805910000e-001) (145, -6.31969213485717770000e+000) (146, 2.20487311482429500000e-001) (147, 2.16950044035911560000e-001) (148, -3.59713494777679440000e-001) (149, -1.27984607219696040000e+000) (150, -3.50390863418579100000e+000) (151, -5.51978766918182370000e-001) (152, 7.77974128723144530000e-002) (153, 4.99639540910720830000e-001) (154, -3.17733526229858400000e-001) (155, -5.25851368904113770000e-001) (156, -6.69130563735961910000e+000) (157, -2.20017642974853520000e+001) (158, -4.72742319107055660000e-001) (159, -9.23553168773651120000e-001) (160, -5.37378263473510740000e+000) (161, -8.91178995370864870000e-002) (162, -7.25793540477752690000e-001) (163, -1.75730347633361820000e-001) (164, 5.85522890090942380000e-001) (165, -2.09326767921447750000e+000) (166, 3.77453297376632690000e-001) (167, -7.05546811223030090000e-002) (168, 1.02978549897670750000e-001) (169, 1.59370481967926030000e+000) (170, -1.77717208862304690000e+001) (171, 8.35412120819091800000e+000) (172, 2.85913300514221190000e+000) (173, -1.37831211090087890000e-001) (174, -2.88033038377761840000e-001) (175, 1.27967586517333980000e+001) (176, 2.16627597808837890000e+000) (177, -3.07794213294982910000e-001) (178, 1.82568311691284180000e-001) (179, 4.17461365461349490000e-001) (180, -3.20104718208312990000e+000) (181, -1.55065089464187620000e-001) (182, -3.05633813142776490000e-001) (183, -5.45169949531555180000e-001) (184, -6.59078299999237060000e-001) (185, 1.23149480819702150000e+001) (186, 3.06902551651000980000e+000) (187, -1.99606031179428100000e-001) (188, -6.20232582092285160000e-001) (189, -3.81697565317153930000e-001) (190, -1.60820698738098140000e+000) (191, 3.49086493253707890000e-001) (192, 1.51687651872634890000e-001) (193, 4.65471059083938600000e-001) (194, 1.06358814239501950000e+000) (195, -6.90995991230010990000e-001) (196, 5.05294322967529300000e-001) (197, -2.79262959957122800000e-001) (198, 1.73464775085449220000e-001) (199, 3.53201460838317870000e+000) (200, -1.38454736328125000000e+003) (201, -5.80017566680908200000e-001) (202, 1.98354876041412350000e+000) (203, 7.35243409872055050000e-002) (204, -3.04172098636627200000e-001) (205, 1.27683115005493160000e+000) (206, 6.37827575206756590000e-001) (207, 1.33154157083481550000e-003) (208, 6.56117796897888180000e-001) (209, -1.54071509838104250000e-001) (210, -1.26735493540763850000e-001) (211, -9.07309472560882570000e-001) (212, -3.05844783782958980000e-001) (213, 5.77140092849731450000e-001) (214, -1.22858591377735140000e-001) (215, -3.00582504272460940000e+000) (216, -9.04299438476562500000e+002) (217, -4.25011396408081050000e+000) (218, -1.38884019851684570000e+000) (219, 8.27856838703155520000e-001) (220, -4.66701775789260860000e-001) (221, -6.99447274208068850000e-001) (222, 5.62370538711547850000e-001) (223, -7.54697859287261960000e-001) (224, -6.41996860504150390000e-001) (225, 2.28506833314895630000e-001) (226, 2.52273023128509520000e-001) (227, -4.79326874017715450000e-001) (228, -1.91907182335853580000e-001) (229, -2.10101962089538570000e-001) (230, 2.38294944167137150000e-001) (231, -1.58244323730468750000e+000) (232, -2.33610004186630250000e-001) (233, 7.12204158306121830000e-001) (234, -1.03022420406341550000e+000) (235, -4.37427729368209840000e-001) (236, 1.42387896776199340000e-001) (237, 6.24399960041046140000e-001) (238, 2.76873737573623660000e-001) (239, -4.63876783847808840000e-001) (240, 3.53086853027343750000e+000) (241, -2.50725835561752320000e-001) (242, -1.21796858310699460000e+000) (243, -4.44970697164535520000e-001) (244, -8.05565834045410160000e-001) (245, 6.34344279766082760000e-001) (246, 4.13689941167831420000e-001) (247, 1.38005888462066650000e+000) (248, 1.76776421070098880000e+000) (249, 3.51554036140441890000e-001) (250, -7.18387603759765630000e-001) (251, -2.08615660667419430000e-001) (252, 6.54582530260086060000e-002) (253, 5.28373122215271000000e-002) (254, 3.05120080709457400000e-001) (255, -1.47871818542480470000e+001) (256, -4.24574762582778930000e-001) (257, -5.03026902675628660000e-001) (258, -1.03267693519592290000e+000) (259, 5.65453320741653440000e-002) (260, -3.55884313583374020000e-001) (261, 5.57029128074646000000e-001) (262, 8.67929995059967040000e-001) (263, -8.53500589728355410000e-002) (264, 8.20186913013458250000e-001) (265, -5.54234206676483150000e-001) (266, -8.82912516593933110000e-001) (267, -9.09152105450630190000e-002) (268, -5.38999676704406740000e-001) (269, -1.08511865139007570000e+000) (270, 4.24640029668807980000e-002) (271, -5.78380286693573000000e-001) (272, 5.28677749633789060000e+000) (273, 4.35144126415252690000e-001) (274, 1.82846456766128540000e-001) (275, 1.15812551975250240000e+000) (276, 1.28132617473602290000e+000) (277, 5.15954911708831790000e-001) (278, -2.96856045722961430000e-001) (279, 5.25279641151428220000e-002) (280, 7.09612488746643070000e-001) (281, 2.20654681324958800000e-001) (282, -8.60527008771896360000e-002) (283, -2.67634277343750000000e+001) (284, 2.85833984613418580000e-001) (285, 1.50000000000000000000e+003) (286, 1.66846561431884770000e+001) (287, -3.06507021188735960000e-001) (288, -4.37647676467895510000e+000) (289, 8.88979613780975340000e-001) (290, -8.09159994125366210000e-001) (291, 3.58052134513854980000e-001) (292, -2.39841371774673460000e-001) (293, -1.60111278295516970000e-001) (294, 5.35357117652893070000e-001) (295, -3.64329040050506590000e-001) (296, -8.47379505634307860000e-001) (297, -8.97288322448730470000e-001) (298, 4.70532989501953120000e+000) (299, 1.09298839569091800000e+001) (300, -8.16510498523712160000e-001) (301, -3.25724906921386720000e+001) (302, 2.14115447998046870000e+001) (303, 8.19249725341796880000e+001) (304, 1.96535552978515620000e+002) (305, 1.12611398696899410000e+001) (0, 1.50000000000000000000e+003) (1, -3.39639633893966670000e-001) (2, -1.61298751831054690000e+001) (3, -7.61606407165527340000e+000) (4, -3.87758407592773440000e+001) (5, 1.79472923278808590000e+001) (6, 9.26622924804687500000e+001) (7, -8.97723083496093750000e+001) (8, 3.18694190979003910000e+001) (9, -4.78520661592483520000e-001) (10, -3.11234903335571290000e+000) (11, 1.06507813930511470000e+000) (12, 7.59954392910003660000e-001) (13, 2.41576790809631350000e+000) (14, 1.50000000000000000000e+003) (15, 8.40095803141593930000e-002) (16, -1.58330693840980530000e-001) (17, 2.03185215592384340000e-001) (18, -6.74753427505493160000e-001) (19, 3.82679812610149380000e-002) (20, 6.39037370681762700000e-001) (21, -1.10921345651149750000e-001) (22, -1.05128955841064450000e+000) (23, 2.19071909785270690000e-001) (24, -1.63676235824823380000e-002) (25, 1.96534559130668640000e-001) (26, -1.76376298069953920000e-001) (27, 3.05884718894958500000e-001) (28, -4.00344161987304690000e+001) (29, -3.93985481262207030000e+001) (30, -1.68980538845062260000e+000) (31, 1.72493979334831240000e-001) (32, 1.30020558834075930000e-001) (33, 2.38647699356079100000e-001) (34, -1.75484180450439450000e-001) (35, 7.01892673969268800000e-001) (36, 1.92180961370468140000e-001) (37, 2.50599116086959840000e-001) (38, -7.41094887256622310000e-001) (39, 7.89780914783477780000e-001) (40, -6.46077841520309450000e-002) (41, -3.16712528467178340000e-001) (42, 1.29686087369918820000e-001) (43, -1.49999809265136720000e+000) (44, 6.62895888090133670000e-002) (45, -2.27264380455017090000e+000) (46, -2.04767584800720210000e-001) (47, -1.03212571144104000000e+000) (48, 6.70171439647674560000e-001) (49, -1.24107110500335690000e+000) (50, 1.46727955341339110000e+000) (51, 7.79517710208892820000e-001) (52, 1.15872895717620850000e+000) (53, 5.99171146750450130000e-002) (54, 1.35975867509841920000e-001) (55, -2.59680114686489110000e-002) (56, -5.50441384315490720000e-001) (57, -2.15746268630027770000e-001) (58, -9.09654676914215090000e-001) (59, -3.53150069713592530000e-001) (60, 1.24679279327392580000e+000) (61, 1.12909682095050810000e-001) (62, -8.78185570240020750000e-001) (63, -2.73740857839584350000e-001) (64, -6.45225822925567630000e-001) (65, -8.81012558937072750000e-001) (66, 1.94559383392333980000e+000) (67, -2.59406417608261110000e-001) (68, 6.52226731181144710000e-002) (69, -4.54030722379684450000e-001) (70, -3.74725162982940670000e-001) (71, -2.46835470199584960000e-001) (72, 6.63523256778717040000e-001) (73, -2.55551040172576900000e-001) (74, 6.75714433193206790000e-001) (75, 1.75850887298583980000e+001) (76, -7.82512485980987550000e-001) (77, 6.86020433902740480000e-001) (78, -1.64317131042480470000e-001) (79, 3.99350076913833620000e-001) (80, -7.00433328747749330000e-002) (81, 7.91282415390014650000e-001) (82, 3.77482295036315920000e-001) (83, 4.55522127449512480000e-002) (84, -3.13771754503250120000e-001) (85, 5.30082285404205320000e-002) (86, -8.86848866939544680000e-001) (87, 3.07239413261413570000e-001) (88, -7.34811961650848390000e-001) (89, 3.44430446624755860000e-001) (90, -6.56801319122314450000e+000) (91, -4.68340754508972170000e-001) (92, 3.73621523380279540000e-001) (93, 1.99142172932624820000e-001) (94, -6.29258751869201660000e-002) (95, -3.65879297256469730000e-001) (96, 7.62674212455749510000e-002) (97, -6.62073433399200440000e-001) (98, -1.30238807201385500000e+000) (99, 5.28735876083374020000e-001) (100, 3.20273965597152710000e-001) (101, -7.82195404171943660000e-002) (102, 2.44959548115730290000e-001) (103, 2.24497184157371520000e-001) (104, -2.21270874142646790000e-001) (105, 4.16563987731933590000e+000) (106, 6.59776508808135990000e-001) (107, -8.97026732563972470000e-002) (108, -5.70759236812591550000e-001) (109, 1.13316893577575680000e+000) (110, -9.29371654987335210000e-001) (111, -9.56858843564987180000e-002) (112, -7.39194869995117190000e-001) (113, -1.25280842185020450000e-001) (114, -2.43673056364059450000e-001) (115, -9.17098879814147950000e-001) (116, 3.69590312242507930000e-001) (117, -4.57609742879867550000e-002) (118, 2.63471424579620360000e-001) (119, 9.92516756057739260000e-001) (120, -2.56289339065551760000e+000) (121, -6.54763281345367430000e-001) (122, 6.39316082000732420000e-001) (123, 9.17094886302948000000e-001) (124, -6.84480488300323490000e-001) (125, 5.87694764137268070000e-001) (126, -1.15193217992782590000e-001) (127, -9.00580763816833500000e-001) (128, 4.67048257589340210000e-001) (129, 3.19116711616516110000e-001) (130, -4.04222726821899410000e+000) (131, 6.61229550838470460000e-001) (132, 8.44752043485641480000e-002) (133, 8.38679969310760500000e-001) (134, -7.57389783859252930000e-001) (135, -1.77157611846923830000e+001) (136, 6.98019802570343020000e-001) (137, -3.58943670988082890000e-001) (138, 2.99028694629669190000e-001) (139, 9.53217387199401860000e-001) (140, -9.93412256240844730000e-001) (141, -2.51776909828186040000e+000) (142, -6.99908196926116940000e-001) (143, -3.46421408653259280000e+000) (144, -7.47478365898132320000e-001) (145, 4.53035384416580200000e-001) (146, 6.27664402127265930000e-002) (147, -2.72881627082824710000e-001) (148, 6.55208230018615720000e-001) (149, 4.62199002504348750000e-002) (150, 1.08515005111694340000e+001) (151, 4.65583115816116330000e-001) (152, -1.53078407049179080000e-001) (153, -2.46246382594108580000e-002) (154, -4.46021437644958500000e-001) (155, 1.24428421258926390000e-002) (156, 8.70238803327083590000e-003) (157, -5.22529721260070800000e-001) (158, -2.75541990995407100000e-001) (159, 5.57875752449035640000e-001) (160, 1.88158869743347170000e-001) (161, -3.70074868202209470000e-001) (162, -8.13236296176910400000e-001) (163, -9.28680785000324250000e-003) (164, 8.38269233703613280000e-001) (165, -9.05513912439346310000e-002) (166, -9.25212323665618900000e-001) (167, 6.67050600051879880000e-001) (168, -3.46754640340805050000e-001) (169, 1.33134379982948300000e-001) (170, 9.62218165397644040000e-001) (171, 2.66946226358413700000e-001) (172, 1.30124938488006590000e+000) (173, 1.32630538940429690000e+000) (174, 8.55710580945014950000e-002) (175, 4.75560724735260010000e-001) (176, -4.52442206442356110000e-002) (177, -3.71127933263778690000e-001) (178, 1.51050798594951630000e-002) (179, 1.06261038780212400000e+000) (180, 1.95658912658691410000e+001) (181, -2.08583667874336240000e-001) (182, -5.23417353630065920000e-001) (183, -7.54057884216308590000e-001) (184, 5.16409575939178470000e-001) (185, 7.30789974331855770000e-002) (186, 4.76829171180725100000e-001) (187, 4.39709693193435670000e-001) (188, -5.45137286186218260000e-001) (189, -8.27788591384887700000e-001) (190, 5.94637095928192140000e-001) (191, -5.76772429049015050000e-002) (192, 7.82290756702423100000e-001) (193, -3.63925963640213010000e-001) (194, -2.27727752685546870000e+002) (195, 8.18754959106445310000e+000) (196, 1.34769871830940250000e-001) (197, -8.49558770656585690000e-001) (198, -4.04155701398849490000e-001) (199, 8.03648889064788820000e-001) (200, -2.41420030593872070000e-001) (201, 6.49819552898406980000e-001) (202, 1.43617475032806400000e+000) (203, -1.36107325553894040000e-001) (204, 7.58814632892608640000e-001) (205, 3.18582624197006230000e-001) (206, 7.49144911766052250000e-001) (207, -4.56233143806457520000e-001) (208, -7.80133914947509770000e+000) (209, -3.08697652816772460000e+000) (210, 4.61004352569580080000e+000) (211, 8.82256269454956050000e-001) (212, 7.37807393074035640000e-001) (213, 4.82115566730499270000e-001) (214, 1.53507292270660400000e-001) (215, 4.87046360969543460000e-001) (216, 9.95355322957038880000e-002) (217, -4.04121339321136470000e-001) (218, -8.94102454185485840000e-001) (219, -2.18221068382263180000e+000) (220, -7.23881769180297850000e+000) (221, -3.98445396423339840000e+001) (222, 2.80054003000259400000e-001) (223, -5.23265004158020020000e-001) (224, 4.99822735786437990000e-001) (225, 6.08254861831665040000e+000) (226, 3.95322799682617190000e-001) (227, 4.77827221155166630000e-001) (228, -1.76780402660369870000e-001) (229, 4.63029831647872920000e-001) (230, -1.36863932013511660000e-001) (231, -8.43227803707122800000e-001) (232, -2.71020793914794920000e+000) (233, -1.61360054016113280000e+001) (234, -1.57910003662109380000e+001) (235, -9.38817291259765630000e+001) (236, -4.06335029602050780000e+001) (237, -6.83420419692993160000e-001) (238, 2.44965434074401860000e+000) (239, -5.52187561988830570000e-001) (240, -1.44296121597290040000e+000) (241, -9.24245357513427730000e-001) (242, 3.51120203733444210000e-001) (243, -8.77321302890777590000e-001) (244, -1.30489301681518550000e+000) (245, 9.08815264701843260000e-001) (246, 9.17391777038574220000e-001) (247, 3.00969862937927250000e+000) (248, -3.97010040283203120000e+001) (249, -3.95923004150390630000e+001) (250, -6.86720705032348630000e+000) (251, -1.56100616455078130000e+001) (252, 1.06803223490715030000e-001) (253, -5.89765548706054690000e-001) (254, -3.22620606422424320000e+000) (255, -7.27635383605957030000e-001) (256, 4.34328794479370120000e-001) (257, -4.78897541761398320000e-002) (258, 5.40363648906350140000e-003) (259, 3.15894186496734620000e-001) (260, -5.46585582196712490000e-002) (261, -1.95597648620605470000e-001) (262, -1.20043134689331050000e+000) (263, -9.89664459228515630000e+001) (264, -9.52885894775390620000e+001) (265, -4.03410949707031250000e+001) (266, -1.71738681793212890000e+001) (267, -1.68048210144042970000e+001) (268, -2.97583723068237300000e+000) (269, -7.09060239791870120000e+000) (270, -1.93603679537773130000e-001) (271, 1.71355620026588440000e-001) (272, -6.06668412685394290000e-001) (273, 2.26705998182296750000e-001) (274, 5.43961524963378910000e-001) (275, -2.02786707878112790000e+000) (276, -4.08914232254028320000e+000) (277, -4.23164634704589840000e+001) (278, -3.90348792076110840000e-001) (279, -7.55527973175048830000e-001) (280, -1.73177280426025390000e+001) (281, -1.60513076782226560000e+001) (282, -2.57699871063232420000e+000) (283, -7.42916107177734380000e+000) (284, 2.27715158462524410000e+000) (285, 1.50000000000000000000e+003) (286, -5.89545726776123050000e-001) (287, 6.55229613184928890000e-002) (288, 1.15847158432006840000e+000) (289, 3.20711165666580200000e-001) (290, 4.09929275512695310000e+000) (291, -4.31603118777275090000e-002) (292, -4.00969390869140630000e+001) (293, -9.41333532333374020000e-001) (294, 2.46739482879638670000e+001) (295, -9.57279586791992190000e+001) (296, -3.94603233337402340000e+001) (297, -3.83134384155273440000e+001) (298, -6.97206592559814450000e+000) (299, -5.19690246582031250000e+001) (300, -1.58398783206939700000e+000) (301, -3.41448330879211430000e+000) (302, 8.10536003112792970000e+000) (303, -2.16800479888916020000e+001) (304, 1.78101959228515630000e+001) (305, 3.03806533813476560000e+001) (306, 5.64938507080078130000e+001) (0, 1.50000000000000000000e+003) (1, 2.69468098878860470000e-001) (2, -9.36859071254730220000e-001) (3, 7.01123476028442380000e-001) (4, 7.33286917209625240000e-001) (5, 2.26954197883605960000e+000) (6, -1.98582005500793460000e+000) (7, -7.35349878668785100000e-002) (8, -1.50000000000000000000e+003) (9, -1.43310925292968750000e+003) (10, -1.43316479492187500000e+003) (11, 1.14114773273468020000e+000) (12, 8.36671590805053710000e-001) (13, 1.48057174682617190000e+000) (14, 1.50000000000000000000e+003) (15, -4.91083383560180660000e-001) (16, -5.29192507266998290000e-001) (17, -9.03100818395614620000e-002) (18, 2.01397508382797240000e-001) (19, 2.59579002857208250000e-001) (20, 1.03924906253814700000e+000) (21, -1.02752912044525150000e+000) (22, -3.86046439409255980000e-001) (23, -4.98064368963241580000e-001) (24, -2.24070429801940920000e-001) (25, -5.62330424785614010000e-001) (26, 3.97671788930892940000e-001) (27, -2.87948641926050190000e-002) (28, -1.34450539946556090000e-001) (29, 8.68409335613250730000e-001) (30, -4.21852976083755490000e-001) (31, 5.83296656608581540000e-001) (32, 1.45043313503265380000e+000) (33, 8.00110280513763430000e-001) (34, 5.63784837722778320000e-001) (35, -3.58277648687362670000e-001) (36, -6.31103478372097020000e-003) (37, 8.35800409317016600000e-001) (38, -3.54894667863845830000e-001) (39, 4.53852325677871700000e-001) (40, -9.37380194664001460000e-001) (41, -5.21416008472442630000e-001) (42, -5.62649890780448910000e-002) (43, -1.61546325683593750000e+000) (44, 6.51739418506622310000e-001) (45, 1.22919261455535890000e+000) (46, 2.90507763624191280000e-001) (47, 2.04347476363182070000e-001) (48, -3.83385986089706420000e-001) (49, -4.52258557081222530000e-001) (50, -8.00729274749755860000e-001) (51, -6.37697696685791020000e-001) (52, 6.70434236526489260000e-002) (53, -7.20481574535369870000e-002) (54, -2.35713541507720950000e-001) (55, 3.09677362442016600000e-001) (56, -1.10702526569366460000e+000) (57, -4.03034202754497530000e-002) (58, 2.39398702979087830000e-002) (59, 1.00266802310943600000e+000) (60, 8.73957931995391850000e-001) (61, -4.43451195955276490000e-001) (62, -4.83934253454208370000e-001) (63, -2.84975320100784300000e-001) (64, 7.70982265472412110000e-001) (65, 8.03130209445953370000e-001) (66, -4.64158445596694950000e-001) (67, 4.61419336497783660000e-002) (68, 6.60775065422058110000e-001) (69, 7.79392957687377930000e-001) (70, -1.09350547194480900000e-001) (71, 1.13303685188293460000e+000) (72, -7.76269435882568360000e-001) (73, 2.66253165900707240000e-002) (74, -3.28625142574310300000e-001) (75, -3.97221255302429200000e+000) (76, -5.61745107173919680000e-001) (77, -9.06720086932182310000e-002) (78, -2.55828082561492920000e-001) (79, 1.61618605256080630000e-001) (80, 1.10805070400238040000e+000) (81, -9.75603997707366940000e-001) (82, -9.92446601390838620000e-001) (83, 1.24472856521606450000e+000) (84, 3.40448394417762760000e-002) (85, 1.22874069213867190000e+000) (86, 4.96287107467651370000e-001) (87, -3.56374442577362060000e-001) (88, -3.72805118560791020000e-001) (89, 1.02558803558349610000e+000) (90, 3.00760078430175780000e+000) (91, 7.60426104068756100000e-001) (92, -1.68778860569000240000e+000) (93, -7.90829122066497800000e-001) (94, -6.48289471864700320000e-002) (95, 1.42107801511883740000e-002) (96, -3.83669167757034300000e-001) (97, 6.47070825099945070000e-001) (98, 5.93457698822021480000e-001) (99, -3.80185157060623170000e-001) (100, 4.53122854232788090000e-002) (101, -1.77308730781078340000e-002) (102, 7.77831256389617920000e-001) (103, 2.60446429252624510000e-001) (104, 4.34333115816116330000e-001) (105, -3.96414726972579960000e-001) (106, 2.02790632843971250000e-001) (107, -2.80186086893081670000e-001) (108, -1.14950788021087650000e+000) (109, -2.65547662973403930000e-001) (110, 1.65749981999397280000e-001) (111, -9.18433547019958500000e-001) (112, -6.75075650215148930000e-001) (113, -1.89143610000610350000e+000) (114, 6.78612172603607180000e-001) (115, -3.82270485162734990000e-001) (116, -9.55599963665008540000e-001) (117, -4.90456432104110720000e-001) (118, -8.11622962355613710000e-002) (119, 1.00087547302246090000e+000) (120, -7.39543512463569640000e-002) (121, 4.69780653715133670000e-001) (122, 6.81178331375122070000e-001) (123, -6.32635317742824550000e-003) (124, 1.31865411996841430000e-001) (125, 6.52689397335052490000e-001) (126, -1.00276716053485870000e-001) (127, 4.26484607160091400000e-002) (128, -8.93882930278778080000e-001) (129, -2.02926421165466310000e+000) (130, -1.23629081249237060000e+000) (131, 5.04855394363403320000e-001) (132, -3.02635431289672850000e-001) (133, -4.90444779396057130000e-001) (134, -4.12844866514205930000e-001) (135, -4.67346096038818360000e+000) (136, -3.89283627271652220000e-001) (137, -1.83477371931076050000e-001) (138, 1.17362163960933690000e-001) (139, 4.28925067186355590000e-001) (140, -5.53415894508361820000e-001) (141, -5.65874040126800540000e-001) (142, -1.08537793159484860000e+000) (143, 2.42108060047030450000e-003) (144, 1.25416982173919680000e+000) (145, -9.04138386249542240000e-001) (146, -5.85394538938999180000e-003) (147, -8.60098674893379210000e-002) (148, 9.67635691165924070000e-001) (149, -2.14809224009513850000e-001) (150, -8.69455933570861820000e-001) (151, 2.06697240471839900000e-001) (152, 2.80027747154235840000e-001) (153, -8.24953690171241760000e-002) (154, -4.11068111658096310000e-001) (155, -7.21922576427459720000e-001) (156, 4.14405256509780880000e-001) (157, -9.68604922294616700000e-001) (158, -3.45254570245742800000e-001) (159, 6.95900559425354000000e-001) (160, -1.15139174461364750000e+000) (161, -5.72262525558471680000e-001) (162, -6.53702437877655030000e-001) (163, -1.50483757257461550000e-001) (164, 1.06234359741210940000e+000) (165, -3.62109154462814330000e-001) (166, -8.28652501106262210000e-001) (167, 4.76590543985366820000e-001) (168, 2.02171467244625090000e-002) (169, 7.57035374641418460000e-001) (170, -1.73715031147003170000e+000) (171, -4.53846901655197140000e-002) (172, -3.51769506931304930000e-001) (173, -8.64277482032775880000e-001) (174, -1.08527886867523190000e+000) (175, -2.27708435058593750000e+000) (176, -1.40893888473510740000e+000) (177, 2.97321528196334840000e-001) (178, 1.34847199916839600000e+000) (179, 6.82950556278228760000e-001) (180, -1.32807731628417970000e+000) (181, -1.33533072471618650000e+000) (182, 6.93281292915344240000e-002) (183, 1.96264758706092830000e-001) (184, 2.20957183837890620000e+000) (185, 6.97705745697021480000e-001) (186, -9.75090801715850830000e-001) (187, 3.20492982864379880000e-001) (188, -4.58889037370681760000e-001) (189, 7.53668248653411870000e-002) (190, -3.25995385646820070000e-001) (191, 2.86839872598648070000e-001) (192, 9.75955843925476070000e-001) (193, -6.29297435283660890000e-001) (194, 2.04182729125022890000e-001) (195, 7.74959027767181400000e-001) (196, 2.03038334846496580000e-001) (197, 7.84924328327178960000e-002) (198, -4.28462982177734380000e-001) (199, 4.27521169185638430000e-001) (200, -1.19673240184783940000e+000) (201, 2.29032799601554870000e-001) (202, -1.32652795314788820000e+000) (203, 1.14081513881683350000e+000) (204, 1.47620320320129390000e-001) (205, 4.11136418581008910000e-001) (206, 1.09104216098785400000e+000) (207, -5.48800885677337650000e-001) (208, 7.06204295158386230000e-001) (209, -3.12657952308654790000e-001) (210, 2.13763022422790530000e+000) (211, -4.89109605550765990000e-002) (212, -2.85681545734405520000e-001) (213, -8.51479649543762210000e-001) (214, -7.62387439608573910000e-002) (215, -1.93679296970367430000e+000) (216, -5.07728397846221920000e-001) (217, 1.33909091353416440000e-001) (218, -3.31612348556518550000e-001) (219, -2.62594670057296750000e-001) (220, -9.90677297115325930000e-001) (221, 4.41421002149581910000e-001) (222, 4.56170737743377690000e-002) (223, -2.55475372076034550000e-001) (224, -9.31665301322937010000e-001) (225, 2.21153688430786130000e+000) (226, -2.33179032802581790000e-002) (227, 1.05665540695190430000e+000) (228, -1.57726898789405820000e-001) (229, -1.75605684518814090000e-001) (230, 3.63946288824081420000e-001) (231, -3.28894346952438350000e-001) (232, 2.81366169452667240000e-001) (233, 5.91789856553077700000e-002) (234, -7.50514492392539980000e-003) (235, 5.07512152194976810000e-001) (236, 3.15257370471954350000e-001) (237, -2.22691614180803300000e-002) (238, -8.25999200344085690000e-001) (239, -4.30741195678710940000e+001) (240, 1.59737992286682130000e+000) (241, -2.85192936658859250000e-001) (242, -3.35858255624771120000e-001) (243, -7.49923169612884520000e-001) (244, -6.39197409152984620000e-001) (245, -3.24129700660705570000e-001) (246, -5.27578175067901610000e-001) (247, 2.36655664443969730000e+000) (248, 7.31755137443542480000e-001) (249, 3.39487880468368530000e-001) (250, -5.79524755477905270000e-001) (251, -6.48864984512329100000e-001) (252, -5.64404606819152830000e-001) (253, -9.04126107692718510000e-001) (254, 9.15963947772979740000e-001) (255, 2.26380139589309690000e-001) (256, -9.36202108860015870000e-002) (257, -3.07956606149673460000e-001) (258, 8.00358116626739500000e-001) (259, 1.66963189840316770000e-001) (260, 9.50408160686492920000e-001) (261, -1.10032355785369870000e+000) (262, 2.34357222914695740000e-001) (263, 4.23122458159923550000e-002) (264, 6.68725907802581790000e-001) (265, -5.47996342182159420000e-001) (266, 2.70855188369750980000e-001) (267, -7.67989754676818850000e-001) (268, -1.09567992389202120000e-001) (269, 4.64309900999069210000e-001) (270, -8.67453455924987790000e-001) (271, -2.91227370500564580000e-001) (272, 5.71255505084991460000e-001) (273, 3.13082844018936160000e-001) (274, 3.89429539442062380000e-001) (275, 9.63836967945098880000e-001) (276, -9.32536274194717410000e-002) (277, -7.62223780155181880000e-001) (278, -1.43529653549194340000e-001) (279, -5.90250015258789060000e-001) (280, 1.10056973993778230000e-001) (281, -5.95199525356292720000e-001) (282, 4.19359356164932250000e-001) (283, -5.65502524375915530000e-001) (284, 1.65710806846618650000e+000) (285, 1.50000000000000000000e+003) (286, 1.91661361604928970000e-002) (287, -3.36673825979232790000e-001) (288, 9.97802555561065670000e-001) (289, -1.11775860190391540000e-001) (290, 1.08253277838230130000e-001) (291, 8.16662728786468510000e-001) (292, -4.43016231060028080000e-001) (293, 2.76083350181579590000e-001) (294, 9.61503684520721440000e-001) (295, 1.19826567173004150000e+000) (296, -3.53156890869140630000e+001) (297, -1.24992628116160630000e-003) (298, 7.48393833637237550000e-001) (299, 3.03215074539184570000e+000) (300, -1.23909366130828860000e+000) (301, -8.88194179534912110000e+000) (302, 3.25371956825256350000e+000) (303, 2.24732160568237300000e+000) (304, -6.03951644897460940000e+000) (305, 4.49387693405151370000e+000) (306, -2.09040808677673340000e+000) (307, 1.07765197753906250000e+000) (0, 1.50000000000000000000e+003) (1, 2.03656792640686040000e-001) (2, -3.81613540649414060000e+000) (3, -1.50000000000000000000e+003) (4, 2.21671569824218750000e+002) (5, -1.50000000000000000000e+003) (6, -1.17369104003906250000e+003) (7, -4.53812927246093750000e+002) (8, -1.17096130371093750000e+003) (9, 1.12051987648010250000e+000) (10, 3.11422020196914670000e-001) (11, -9.35890136718750000000e+002) (12, -6.94740112304687500000e+002) (13, -6.96232299804687500000e+002) (14, 1.50000000000000000000e+003) (15, -1.22415944933891300000e-001) (16, -1.44962280988693240000e-001) (17, 6.99857294559478760000e-001) (18, 3.81678998470306400000e-001) (19, 3.17082673311233520000e-001) (20, 3.66131126880645750000e-001) (21, -9.94197845458984380000e-001) (22, 4.76845920085906980000e-001) (23, -5.77625036239624020000e-001) (24, -7.17847570776939390000e-002) (25, -6.75317823886871340000e-001) (26, -1.50151824951171870000e+000) (27, -1.17567272949218750000e+003) 